tree
version=v4
num_class=1
num_tree_per_iteration=1
label_index=0
max_feature_idx=27
objective=lambdarank
feature_names=bm25_score vector_score hybrid_score rerank_score param_score param_match param_tier_0 param_tier_1 param_tier_2 name_bonus candidates_count bm25_rank_score vector_rank_score name_edit_dist score_gap_to_top1 dual_recall param_main_exact param_main_rel_dist param_main_direction param_material_match param_n_checks book_match token_overlap param_tier_rank family_size param_score_rank rerank_within_tier dist_to_tier_best
feature_infos=[0:82.713256764804029] [0:1] [0.0067532467532467003:0.046721311475409803] [1.611377410881687e-05:0.99996769428253163] [0:1] [0:1] [0:1] [0:1] [0:1] [0:1] [10:20] [0.050000000000000003:1] [0.050000000000000003:1] [0:1] [-0.3363469659090042:0.92020153701305396] [0:1] [0:1] [0:1] [-1:1] [-1:1] [0:4] none [0:1] [0:1] [0.22767024869695299:1] [0:1] [0:1] [0:0.69999999999999996]
tree_sizes=1765 1768 1771 1763 1768 1768 1771 1753 1757 1753 1775 1770 1766 1774 1773 1763 1766 1774 1756 1763 1760 1762 1765 1774 1763 1760 1758 1770 1767 1762 1757 1758 1778 1759 1768 1763 1766 1759 1767 1770 1761 1763 1777 1776 1772 1767 1787 1755 1759 1757 1768 1769 1759 1757 1770 1760 1761 1769 1758 1764 1761 1772 1765 1765 1768 1763 1759 1752 1770 1766 1754 1754 1765 1773 1757 1770 1770 1771 1764 1762 1774 1762 1763 1775 1770 1751 1747 1754 1763 1756 1746 1761 1742 1753 1753 1759 1785 1769 1779 1765 1754 1764 1758 1753 1762 1751 1753 1756 1755 1769 1759 1752 1736 1767 1757 1750 1737 1744 1745 1749 1742 1768 1737 1745 1760 1754 1753 1749 1757 1760 1763 1744 1777 1744 1760 1764 1755 1759 1762 1762 1744 1755 1739 1747 1754 1759 1764 1745 1767 1776 1759 1770 1747 1744 1746 1758 1768 1754 1738 1745 1754 1764 1758 1763 1747 1742 1730 1747 1747 1759 1770 1757 1769 1757 1758 1731 1747 1754 1751 1759 1766 1740 1774 1746 1752 1765 1735 1745 1763 1759 1765 1733 1746 1740 1758 1742 1744 1765 1742 1747

Tree=0
num_leaves=15
num_cat=0
split_feature=12 14 14 11 1 11 11 12 11 12 11 9 3 15
split_gain=2870.87 626.349 330.702 114.261 111.067 79.3631 72.539 52.2188 39.1044 37.2772 43.0699 29.8549 27.0239 26.1386
threshold=0.82843137254901966 0.013266030477327152 0.013266030477327152 0.36038961038961043 0.51099818944931041 0.55277777777777792 0.73030303030303045 0.93933823529411764 0.82843137254901966 0.31414473684210531 0.93933823529411764 0.079473684210526321 0.95466706156730663 1.0000000180025095e-35
decision_type=2 2 2 2 2 2 2 2 2 2 2 2 2 2
left_child=1 3 7 -1 13 12 11 -2 -6 -7 -11 -4 -3 -5
right_child=2 5 6 4 8 9 -8 -9 -10 10 -12 -13 -14 -15
leaf_value=-0.063444656215165582 0.052799131454910157 -0.087083931673484813 -0.058873374371659654 -0.064168216449277851 0.013472969887312895 -0.0759333597619678 0.033742822114239672 0.08659990860755451 0.053968666126752635 -0.049661465699569377 0.015403211884767532 0.00051785563759441423 -0.037575363125371311 -0.00094338476807355638
leaf_weight=52.561781377706211 140.54537783353589 542.64136613774463 38.979202145827003 42.157216807827353 127.52355965034803 108.1000894617755 119.43508347560419 611.08274515578523 111.94541726296302 155.20787290652515 30.419429452624172 46.285951925907284 29.038035348523408 26.701295724604279
leaf_count=1093 1061 12092 902 685 1973 2534 1579 1683 812 3515 437 832 686 367
internal_value=-1.51639e-09 -0.05064 0.0649354 0.00469551 0.0163116 -0.0737158 0.00859407 0.0802796 0.0324036 -0.052592 -0.0389991 -0.026633 -0.0845692 -0.0396515
internal_weight=2182.62 1226.3 956.328 360.889 308.327 865.407 204.7 751.628 239.469 293.727 185.627 85.2652 571.679 68.8585
internal_count=30251 24194 6057 4930 3837 19264 3313 2744 2785 6486 3952 1734 12778 1052
is_linear=0
shrinkage=0.05


Tree=1
num_leaves=15
num_cat=0
split_feature=14 12 12 11 12 14 14 9 23 3 13 26 14 2
split_gain=2918.22 632.843 627.216 203.556 163.541 140.088 120.859 110.306 110.137 109.128 101.163 73.8687 71.8819 51.721
threshold=0.0015859320759772503 0.97500000000000009 0.78759398496240618 0.36038961038961043 0.97500000000000009 -1.0000000180025095e-35 1.0000000180025095e-35 0.040833333333333312 0.93095238095238109 0.93059155344963085 0.12183055040197897 0.23303167420814477 0.024428612815157152 0.043297037094216555
decision_type=2 2 2 2 2 2 2 2 2 2 2 2 2 2
left_child=1 5 3 -2 10 7 8 -1 -7 12 -4 -12 -5 -14
right_child=2 -3 4 9 -6 6 -8 -9 -10 -11 11 -13 13 -15
leaf_value=-0.046528400533889958 -0.073521534698281807 0.0754063136620612 -0.057335553053744881 -0.016405132056986359 0.037472671612066639 0.055614003241520243 0.0006693359736821042 0.01226184621313586 -0.051743354087233046 -0.0072614284279749995 0.014222448205503967 -0.020033584608832516 -0.055575559852398641 0.058590337875400703
leaf_weight=94.993846644181758 688.34931392408907 905.30433189496398 109.07306823227555 157.63562471559271 206.02161772362888 441.02405802160501 171.12167810765095 498.39456948055886 25.257833801209927 220.17227921355516 276.85271783359349 364.65014346782118 669.12687225546688 10.069810092449186
leaf_count=761 8719 979 862 1199 568 697 840 2372 97 1824 1216 2375 7703 39
internal_value=1.51966e-10 0.0436739 -0.0345275 -0.0523621 -0.00198758 0.0203333 0.036609 0.00285028 0.0497986 -0.0385825 -0.0128188 -0.00524974 -0.0468232 -0.0538829
internal_weight=4838.05 2136.1 2701.95 1745.35 956.598 1230.79 637.404 593.388 466.282 1057 750.576 641.503 836.832 679.197
internal_count=30251 5746 24505 19484 5021 4767 1634 3133 794 10765 4453 3591 8941 7742
is_linear=0
shrinkage=0.05


Tree=2
num_leaves=15
num_cat=0
split_feature=12 14 14 11 1 11 3 12 3 5 9 1 25 14
split_gain=2568.78 708.626 486.894 177.232 108.436 100.788 95.4524 85.1576 77.9223 72.6767 67.417 65.9534 85.9368 64.6648
threshold=0.85357142857142876 0.013266030477327152 1.0000000180025095e-35 0.55277777777777792 0.51099818944931041 0.70294117647058829 0.95686432719230663 0.41421568627450983 0.94079917669296276 1.0000000180025095e-35 0.022991543340380501 0.90342432260513317 0.15587044534412953 -1.0000000180025095e-35
decision_type=2 2 2 2 2 2 2 2 2 2 2 2 2 2
left_child=1 4 13 8 -1 6 -6 -5 -3 -8 -9 12 -4 -2
right_child=2 3 11 7 5 -7 9 10 -10 -11 -12 -13 -14 -15
leaf_value=-0.033610244263609021 0.043262924782143386 -0.069110914285003003 0.040237417509859041 -0.053845245417432158 -0.026456419421429296 0.027499139635855169 0.083131993353694145 -0.058069884232216734 -0.021131598211932612 0.0016437159650055087 -0.0079917844317825611 0.049822127929646652 -0.0042543791709093101 0.075246535438889983
leaf_weight=166.01855517458171 194.53181984089315 879.75348873483017 147.59487802255899 262.47777787782252 244.69521707901731 423.58839186653495 39.582695193588734 83.375132169574499 93.630349963903427 88.623373677022755 346.56776141142473 110.38318192958832 410.08202596008778 842.33725769817829
leaf_count=1342 514 12281 515 3227 1874 1547 116 960 936 538 2852 291 2117 1141
internal_value=-9.1167e-11 -0.0310057 0.0477983 -0.0507404 0.00314895 0.010811 -0.00814559 -0.0314035 -0.0644958 0.0268026 -0.017703 0.0145102 0.00752083 0.0692459
internal_weight=4333.24 2628.31 1704.93 1665.8 962.508 796.49 372.901 692.421 973.384 128.206 429.943 668.06 557.677 1036.87
internal_count=30251 25673 4578 20256 5417 4075 2528 7039 13217 654 3812 2923 2632 1655
is_linear=0
shrinkage=0.05


Tree=3
num_leaves=15
num_cat=0
split_feature=12 14 14 11 12 11 2 9 3 3 0 25 9 14
split_gain=2083.76 732.52 244.2 162.168 129.066 81.9903 80.5704 75.7007 74.7465 60.849 58.4165 53.3706 49.7672 46.9686
threshold=0.91287878787878796 0.025795648619532454 0.0012714654207228503 0.55277777777777792 0.37980769230769235 0.82843137254901966 0.021874604430379654 0.045983086680761058 0.95686432719230663 0.94079917669296276 14.152301314172643 0.10263157894736842 0.054299754299754262 0.0027367115020751004
decision_type=2 2 2 2 2 2 2 2 2 2 2 2 2 2
left_child=1 4 -2 9 7 8 -5 -1 -6 -3 11 -4 -10 -9
right_child=2 3 10 6 5 -7 -8 13 12 -11 -12 -13 -14 -15
leaf_value=-0.078514569728069028 0.066764789537690647 -0.065333762077004101 0.043964857945751716 -0.049601240435263247 -0.013144799465354864 0.030099354066896258 -0.014221318085957167 0.00046947325083920876 0.069039591093750949 -0.022878482532589301 0.040124446172813522 -0.014429259068288486 0.0082806654249516064 -0.054191652362279664
leaf_weight=53.038849802687764 903.79313736595213 802.2454828878399 52.841982092708349 268.03712935931981 332.12166829546914 429.27053516544402 402.6480718664825 171.66009641205892 51.884134290739894 94.320325210690498 174.85707622952759 150.78786800801754 96.175872900523245 50.968593789730221
leaf_count=680 1459 12007 154 3285 2723 1484 3679 1023 155 934 604 832 581 651
internal_value=2.2868e-10 -0.0245261 0.0526445 -0.0469566 0.00513682 0.0142213 -0.0283608 -0.0248336 2.66293e-05 -0.0608674 0.0189266 0.000724025 0.0295722 -0.0120446
internal_weight=4034.65 2752.37 1282.28 1567.25 1185.12 909.452 670.685 275.668 480.182 896.566 378.487 203.63 148.06 222.629
internal_count=30251 27202 3049 19905 7297 4943 6964 2354 3459 12941 1590 986 736 1674
is_linear=0
shrinkage=0.05


Tree=4
num_leaves=15
num_cat=0
split_feature=12 14 14 15 1 11 12 9 3 11 2 11 25 9
split_gain=1769.1 519.36 322.637 125.482 85.1203 74.9864 71.7074 63.5663 53.6953 43.3984 45.4399 42.9427 42.6073 36.0609
threshold=0.85357142857142876 0.013266030477327152 1.0000000180025095e-35 1.0000000180025095e-35 0.45720106363296514 0.36038961038961043 0.97500000000000009 0.080540540540540509 0.94079917669296276 0.71825396825396837 0.034282947744583257 0.57518796992481214 0.12916666666666668 0.045983086680761058
decision_type=2 2 2 2 2 2 2 2 2 2 2 2 2 2
left_child=1 4 6 8 -1 -6 -2 11 -3 -5 -11 -4 13 -7
right_child=2 3 7 9 5 12 -8 -9 -10 10 -12 -13 -14 -15
leaf_value=-0.041921211191714186 0.04091932966346111 -0.061097731520998823 -0.054747235861454691 -0.041677678845950319 -0.034320943672716618 -0.029945383574056489 0.070591987009091875 0.025310475365952524 -0.021773186354040578 -0.028194206209378236 0.012824250389113759 0.0022913867976939481 0.0075669610273314666 0.045044183502682043
leaf_weight=91.833856316283345 304.85638256371021 813.55852367309853 41.357882073614746 257.49899356067181 88.213582085445523 18.002544855698943 613.04216238111258 381.17449214123189 97.174184774979949 189.38889714470133 104.92360862717032 163.25340805947781 510.29023934202269 146.42518313415349
leaf_count=838 740 12609 426 3692 998 117 915 1648 1020 2158 777 849 2928 536
internal_value=-3.37592e-10 -0.0274059 0.0422349 -0.0455018 0.00355711 0.00903132 0.060737 0.013243 -0.0569018 -0.0266868 -0.013571 -0.00923777 0.0146993 0.0368339
internal_weight=3820.99 2317.31 1503.68 1462.54 854.765 762.932 917.899 585.786 910.733 551.811 294.313 204.611 674.718 164.428
internal_count=30251 25673 4578 20256 5417 4579 1655 2923 13629 6627 2935 1275 3581 653
is_linear=0
shrinkage=0.05


Tree=5
num_leaves=15
num_cat=0
split_feature=12 14 14 11 11 3 12 9 9 1 0 9 23 3
split_gain=1490.16 541.656 217.259 113.45 88.1428 75.3745 68.8968 52.2717 50.7292 50.0071 38.3208 39.8316 38.0721 34.1741
threshold=0.92582417582417598 0.025795648619532454 1.0000000180025095e-35 0.44722222222222224 0.82843137254901966 0.95686432719230663 0.77350427350427353 0.054299754299754262 0.12701612903225809 1.0000000180025095e-35 13.724312944254757 0.017000577923328802 0.324561403508772 0.93059155344963085
decision_type=2 2 2 2 2 2 2 2 2 2 2 2 2 2
left_child=1 4 -2 -3 5 8 13 -7 -1 -6 11 -4 -11 -5
right_child=2 3 10 6 9 7 -8 -9 -10 12 -12 -13 -14 -15
leaf_value=-0.034823776130407345 0.062663322662659449 -0.058801585291995653 -0.039086543598943674 -0.044986003824666797 -0.043367703964924051 0.057825881755940792 -0.0065566642326088664 -0.00010755491796793807 -5.2279335672370554e-05 0.040420926226936688 0.032975584931509309 0.013875227615094968 0.011594243337654395 -0.013776998089684895
leaf_weight=239.58824128843844 755.31892233341932 598.86594597809017 45.531593694351614 471.05495484312996 29.088590239174664 58.762972688302398 224.75259451149032 115.39530357439071 186.58122122846544 203.649693088606 198.29575465060771 161.15205346792936 261.76810334064066 107.78692737221718
leaf_count=2666 1307 9899 315 6825 276 217 1980 849 1511 639 691 718 1147 1211
internal_value=2.04378e-10 -0.021754 0.0468208 -0.0423283 0.00460133 -0.00827467 -0.0300518 0.0194398 -0.0196005 0.0202327 0.0172731 0.00220796 0.0242077 -0.0391745
internal_weight=3657.59 2497.29 1160.3 1402.46 1094.83 600.328 803.594 174.158 426.169 494.506 404.979 206.684 465.418 578.842
internal_count=30251 27220 3031 19915 7305 5243 10016 1066 4177 2062 1724 1033 1786 8036
is_linear=0
shrinkage=0.05


Tree=6
num_leaves=15
num_cat=0
split_feature=14 12 12 9 26 11 9 1 12 11 13 27 4 25
split_gain=1303.59 350.849 341.761 113.526 75.3093 70.6864 58.8368 41.2209 40.5684 38.8825 38.7525 38.4661 33.408 34.8125
threshold=0.0015859320759772503 0.82843137254901966 0.93933823529411764 0.014389233954451302 0.57518796992481214 0.82843137254901966 0.079473684210526321 1.0000000180025095e-35 0.41421568627450983 0.72474747474747481 0.13150783642586919 0.099999999999999964 0.97039792338902575 0.10818713450292396
decision_type=2 2 2 2 2 2 2 2 2 2 2 2 2 2
left_child=2 3 5 -2 8 10 9 -7 -5 -3 11 -1 13 -10
right_child=1 6 -4 4 -6 7 -8 -9 12 -11 -12 -13 -14 -15
leaf_value=-0.058842189635104292 -0.061068488939445678 -0.042192449685442363 0.05840616215068313 -0.036101671032298228 -0.047703901472228492 -0.040672711999312383 0.016785860474348952 0.030734149569570685 0.039068556126506587 0.00096968587073013564 0.0028734752890108507 0.041129352294303263 -0.035618138393951414 -0.0080956288163581136
leaf_weight=51.215780225582421 449.86829974502325 84.439617812633514 768.27219382766634 211.12550425110385 379.14820174872875 21.470885928720236 388.93811012990773 344.29419451206923 47.868601329624653 136.5684166746214 315.5044718706049 11.84789792075753 84.600652915425599 214.18812012299895
leaf_count=607 7772 972 1454 3066 6194 192 2065 1119 340 781 2302 72 937 2378
internal_value=1.54412e-11 -0.0265234 0.0350127 -0.0404231 -0.0305102 0.0108668 0.00507975 0.0265425 -0.018823 -0.0155211 -0.00427864 -0.0400603 -0.00829969 0.000519619
internal_weight=3509.35 1996.75 1512.61 1386.8 936.931 744.333 609.946 365.765 557.783 221.008 378.568 63.0637 346.657 262.057
internal_count=30251 24505 5746 20687 12915 4292 3818 1311 6721 1753 2981 679 3655 2718
is_linear=0
shrinkage=0.05


Tree=7
num_leaves=15
num_cat=0
split_feature=14 12 12 3 0 1 11 24 11 23 12 25 3 14
split_gain=1134 366.771 268.962 68.122 66.2805 65.5484 65.316 49.0773 42.7857 38.8666 38.0753 36.2203 33.0935 40.9514
threshold=0.013266030477327152 0.93933823529411764 0.78759398496240618 0.93059155344963085 9.0984664892823783 0.46916693449020391 0.36038961038961043 0.97555057882284213 0.97500000000000009 0.93095238095238109 0.44097222222222227 0.13809523809523808 0.95964437723159801 0.074543472280711662
decision_type=2 2 2 2 2 2 2 2 2 2 2 2 2 2
left_child=1 5 3 10 12 -1 -7 -6 9 -3 -2 -8 13 -4
right_child=2 8 4 -5 7 6 11 -9 -10 -11 -12 -13 -14 -15
leaf_value=-0.032848222279511979 -0.05904253838212109 0.04505978422411322 -0.001251634951020284 -0.014268903233730599 0.031006612628695581 -0.031094926795726736 0.034689044486261915 -0.0081563599237401956 0.065000788196899056 -0.033250131825853596 -0.038722398810030222 0.0096184885006419876 0.022876167367974987 -0.04579363131227554
leaf_weight=92.503086447715759 481.64348319149576 378.19623831287026 84.724892907775939 163.12875393033028 176.21755566261709 81.092171323951334 194.81001643650234 146.50297231879085 398.71129070222378 16.537504266947508 442.16859776363708 553.09223731048405 36.844675486907363 131.99500789260492
leaf_count=933 8974 973 624 2032 954 997 789 993 643 67 7161 3272 219 1620
internal_value=-1.44449e-10 0.0285291 -0.0294161 -0.0440566 -0.00180246 0.0070728 0.0115274 0.0132281 0.0534481 0.041779 -0.0493166 0.0161487 -0.0209324 -0.0283803
internal_weight=3378.17 1714.94 1663.23 1086.94 576.285 921.498 828.994 322.721 793.445 394.734 923.812 747.902 253.565 216.72
internal_count=30251 7674 22577 18167 4410 5991 5058 1947 1683 1040 16135 4061 2463 2244
is_linear=0
shrinkage=0.05


Tree=8
num_leaves=15
num_cat=0
split_feature=14 12 12 9 23 26 1 11 9 23 12 2 24 2
split_gain=988.786 291.964 261.831 99.2643 64.8851 63.7214 61.9117 51.5662 50.5489 38.9016 38.2075 30.5581 29.824 28.9629
threshold=0.0015859320759772503 0.97500000000000009 0.82843137254901966 0.014389233954451302 0.93095238095238109 0.58114035087719318 0.51099818944931041 0.44097222222222227 0.073622402890695507 0.324561403508772 0.41421568627450983 0.045279077179939252 0.97555057882284213 0.016042113832324303
decision_type=2 2 2 2 2 2 2 2 2 2 2 2 2 2
left_child=1 4 3 -2 6 10 -1 12 -4 -9 -5 -10 -8 -14
right_child=2 -3 8 5 -6 -7 7 9 11 -11 -12 -13 13 -15
leaf_value=-0.019205645173243219 -0.057157101330938542 0.060808063302441998 -0.017246715479093521 -0.033995886711298481 -0.043424227195201198 -0.044923961217665676 -0.056936891577855753 0.039572476438867139 0.009508125542811878 0.015366166576817629 -0.0065485438131223667 0.057375139781743259 -0.07315815230824628 0.026830943035709445
leaf_weight=103.14612813759595 407.33516050619073 528.72260958701372 193.22742105741054 202.05033138813451 46.734920831397176 319.3409254909493 28.884794971905649 308.88858076743782 352.878278138116 358.7462394181639 340.39644652418792 36.821199670433998 8.9579755738377553 37.81380913592875
leaf_count=897 7772 979 1659 3235 392 5838 322 1049 2055 1666 3842 104 139 302
internal_value=-9.44489e-12 0.0313602 -0.0240765 -0.0368177 0.0139282 -0.027204 0.0170948 0.0221322 0.00366306 0.0265655 -0.0167721 0.0140309 -0.0169897 0.00768051
internal_weight=3273.94 1421.9 1852.05 1269.12 893.172 861.788 846.438 743.291 582.927 667.635 542.447 389.699 75.6566 46.7718
internal_count=30251 5746 24505 20687 4767 12915 4375 3478 3818 2715 7077 2159 763 441
is_linear=0
shrinkage=0.05


Tree=9
num_leaves=15
num_cat=0
split_feature=14 12 12 3 1 11 1 5 3 9 11 9 23 22
split_gain=914.749 298.387 207.561 58.0806 55.4586 53.4922 49.9569 47.38 47.6406 43.0212 37.7076 30.7855 29.3138 29.2411
threshold=0.013266030477327152 0.93933823529411764 0.78759398496240618 0.2523216605186463 0.45720106363296514 0.70294117647058829 0.9609353542327882 1.0000000180025095e-35 0.92802745103836071 0.073622402890695507 0.97500000000000009 0.080540540540540509 0.93095238095238109 0.20714285714285713
decision_type=2 2 2 2 2 2 2 2 2 2 2 2 2 2
left_child=1 4 3 -2 -1 7 9 8 -6 -4 12 -5 -3 -9
right_child=2 10 6 11 5 -7 -8 13 -10 -11 -12 -13 -14 -15
leaf_value=-0.03377898167540281 -0.056462323000429061 0.04188510881244234 -0.024562059240573766 -0.043691627717420758 -0.069140488478998369 0.021885288683793941 0.063990382962214376 -0.019860109984962515 0.064671442055334552 0.0048650254651935359 0.061711255256321797 -0.021555249463760938 -0.028734304117085947 0.018991623984412499
leaf_weight=76.389281410723925 372.01873012259603 349.47952824644744 198.04294771095738 286.95603854884394 8.000344889238475 462.09265207406133 26.694926116615534 231.7562218317762 39.455872241407633 333.11156989075243 360.85665039345622 346.9787399454508 15.339837417006491 61.223770731128752
leaf_count=846 7539 973 2048 4987 102 2050 63 2440 136 2299 643 5641 67 417
internal_value=9.57521e-11 0.0265222 -0.027214 -0.0407791 0.00693038 0.0108053 -0.00275258 -0.00423411 0.0421129 -0.00610697 0.0502512 -0.0315755 0.0389157 -0.0117413
internal_weight=3168.4 1604.59 1563.8 1005.95 878.918 802.529 557.849 340.436 47.4562 531.155 725.676 633.935 364.819 292.98
internal_count=30251 7674 22577 18167 5991 5145 4410 3095 238 4347 1683 10628 1040 2857
is_linear=0
shrinkage=0.05


Tree=10
num_leaves=15
num_cat=0
split_feature=12 14 14 11 11 1 11 12 3 13 1 25 2 9
split_gain=811.291 320.452 137.275 86.3715 58.857 50.4459 41.7168 41.4185 37.2595 32.1487 29.2814 33.2122 36.4926 29.0856
threshold=0.92582417582417598 0.025795648619532454 1.0000000180025095e-35 0.55277777777777792 0.36038961038961043 1.0000000180025095e-35 0.97500000000000009 0.31414473684210531 0.94079917669296276 0.096006144393241163 0.98200485110282909 0.10263157894736842 0.025853407207953552 0.011610688564313102
decision_type=2 2 2 2 2 2 2 2 2 2 2 2 2 2
left_child=1 4 -2 8 -1 -6 13 -5 -3 -9 11 -4 -13 -7
right_child=2 3 10 7 5 6 -8 9 -10 -11 -12 12 -14 -15
leaf_value=-0.032534480811919612 0.052623414716184036 -0.051277770549790797 0.037736003935373678 -0.044103664522525926 -0.047632534089182166 -0.024994135521406835 0.037830420624513528 -0.050853014673963484 -0.013162042234083125 -0.0061276756808399564 0.066174799566315765 -0.028168342379140295 0.013260805595873016 0.0096789456475838125
leaf_weight=97.541100480593741 605.05248070694506 576.19159264187329 78.864772640168667 129.30130852619186 38.268926488235593 66.991689120419323 123.82269390206784 45.555723341181874 72.144192726816982 340.40745489252731 24.445737145841122 76.779623053967953 172.73874753154814 622.53347963793203
leaf_count=1534 1307 12008 257 2328 498 692 353 741 934 3904 50 576 841 4228
internal_value=-4.87736e-11 -0.0173051 0.0381692 -0.0348922 0.00425539 0.00846917 0.0111088 -0.0196117 -0.0470364 -0.0114067 0.0133822 0.0094522 0.000512588 0.00631024
internal_weight=3070.64 2112.76 957.881 1163.6 949.158 851.617 813.348 515.264 648.336 385.963 352.829 328.383 249.518 689.525
internal_count=30251 27220 3031 19915 7305 5771 5273 6973 12942 4645 1724 1674 1417 4920
is_linear=0
shrinkage=0.05


Tree=11
num_leaves=15
num_cat=0
split_feature=14 12 12 2 3 0 24 11 15 25 9 1 11 3
split_gain=729.594 251.203 171.98 62.115 56.3827 44.3854 34.0822 31.1766 30.1523 29.7629 25.0708 30.2512 24.7957 22.4157
threshold=0.013266030477327152 0.97500000000000009 0.78759398496240618 0.025575316242163304 0.93059155344963085 9.0984664892823783 0.97555057882284213 0.97500000000000009 1.0000000180025095e-35 0.63397129186602885 0.012666345999679252 0.58190128207206737 0.84807692307692317 0.95964437723159801
decision_type=2 2 2 2 2 2 2 2 2 2 2 2 2 2
left_child=1 3 4 10 8 13 -7 9 -2 -5 11 -1 -8 -4
right_child=2 -3 5 7 -6 6 12 -9 -10 -11 -12 -13 -14 -15
leaf_value=-0.067318763233903511 -0.050115328800948357 0.053919136408390682 -0.025305316540561697 0.021201181768616184 -0.0097827343350183876 0.025868060070781032 -0.039523091104940199 0.042559344856306906 -0.029370436755556645 -0.012834289987877723 0.0018574388857900276 -0.0028392137434734058 0.0065469845762060807 0.018207154183976195
leaf_weight=31.234097031876445 528.60641252109781 488.14144484512508 195.71598316403106 346.49578083725646 149.76717577408999 163.07697142846882 42.859191495925188 133.86319562420249 261.96797473495826 78.848602345213294 386.72034803917632 43.557542394381016 91.685294827446342 34.871886374428868
leaf_count=521 11481 1076 2244 1903 2032 954 466 320 4654 571 2928 355 527 219
internal_value=1.68338e-10 0.0244181 -0.0250883 0.0103097 -0.0379123 -0.00225842 0.0104993 0.0215149 -0.0432412 0.0148918 -0.00326752 -0.0297668 -0.00812865 -0.0187249
internal_weight=2977.41 1508.86 1468.55 1020.72 940.342 528.209 297.621 559.208 790.574 425.344 461.512 74.7916 134.544 230.588
internal_count=30251 7674 22577 6598 18167 4410 1947 2794 16135 2474 3804 876 993 2463
is_linear=0
shrinkage=0.05


Tree=12
num_leaves=15
num_cat=0
split_feature=14 12 11 1 25 11 9 1 11 26 22 12 4 11
split_gain=665.125 201.708 171.547 104.626 46.0156 48.2262 45.413 40.7832 35.764 25.7042 25.4677 21.9348 21.8046 21.1166
threshold=0.0015859320759772503 0.93933823529411764 0.31414473684210531 0.61255759000778209 0.15587044534412953 0.91287878787878796 0.068729333963155406 0.49131715297698975 0.82843137254901966 0.46862745098039221 0.06904761904761901 0.97500000000000009 0.66853812700750914 0.72474747474747481
decision_type=2 2 2 2 2 2 2 2 2 2 2 2 2 2
left_child=1 7 -2 6 9 -6 12 -1 10 -5 -9 -3 -4 -8
right_child=2 11 3 4 5 -7 13 8 -10 -11 -12 -13 -14 -15
leaf_value=-0.025031979830780711 -0.050594047052193371 0.032424919611762609 -0.025727933420626098 0.035243661257835089 -0.014041019554179907 0.020768653712483664 -0.030561031271803187 -0.013883050879743845 0.026211801808296464 -0.010080966621213628 0.015342571557743247 0.054498427494507201 -0.058855200843813321 -0.0041360714174598348
leaf_weight=79.725386165548116 373.75683745834976 151.41929876990616 77.625893603079021 119.6489638844505 469.27566482685506 126.27381158620119 146.22149731591344 144.67143527092412 273.23145456146449 42.353383865673095 153.77487736474723 438.38955429010093 137.94018568610772 156.53897550795227
leaf_count=822 8362 475 1288 645 5794 690 2708 1396 992 459 1082 979 2734 1825
internal_value=1.44753e-11 0.027649 -0.0208036 -0.0120767 -0.000233208 -0.00666036 -0.0293865 0.00846945 0.0131415 0.0233941 0.00117549 0.0488316 -0.046926 -0.0168983
internal_weight=2890.85 1241.21 1649.64 1275.88 757.552 595.549 518.327 651.403 571.678 162.002 298.446 589.809 215.566 302.76
internal_count=30251 5746 24505 16143 7588 6484 8555 4292 3470 1104 2478 1454 4022 4533
is_linear=0
shrinkage=0.05


Tree=13
num_leaves=15
num_cat=0
split_feature=14 12 12 3 1 1 11 14 24 11 12 3 25 9
split_gain=588.568 214.538 142.976 53.3448 42.8358 37.3521 33.6624 32.3515 32.2896 29.8285 29.0402 28.9375 32.5506 27.4003
threshold=0.013266030477327152 0.91287878787878796 0.78759398496240618 0.93059155344963085 0.49131715297698975 0.9609353542327882 0.44722222222222224 1.0000000180025095e-35 0.93998077186651618 0.82843137254901966 0.44097222222222227 0.95686432719230663 0.10818713450292396 0.12701612903225809
decision_type=2 2 2 2 2 2 2 2 2 2 2 2 2 2
left_child=1 4 3 10 -1 6 -4 -3 -8 11 -2 13 -13 -6
right_child=2 7 5 -5 9 -7 8 -9 -10 -11 -12 12 -14 -15
leaf_value=-0.026021635715246086 -0.050706778481106309 0.049442414852222942 -0.035970040890875292 -0.0076168603649436565 -0.025181770055791242 0.059442648498189449 0.018439001150133177 0.017488641035577054 -0.010531991008150422 0.021022753959177212 -0.030803763267024022 0.052259867648039499 0.00049841110792026065 0.0074763672374925823
leaf_weight=95.033201771322638 372.25969439768232 527.35126495640725 74.379488212987781 143.95380713650957 132.33533514803275 23.554781284183264 156.34106415510178 93.213136505335569 249.93097314052284 320.20712223369628 361.01053955592215 48.101855391636491 82.406786339357495 124.79099616222084
leaf_count=1121 8974 1312 1103 2032 1578 63 1021 385 2223 1341 7161 217 681 1039
internal_value=7.94752e-11 0.0225635 -0.0232497 -0.0354448 0.0054979 -0.00203245 -0.00504509 0.0446427 0.000616588 0.00972964 -0.0409079 0.00040093 0.0195762 -0.00933181
internal_weight=2804.87 1423.44 1381.43 877.224 802.875 504.206 480.652 620.564 406.272 707.842 733.27 387.635 130.509 257.126
internal_count=30251 7674 22577 18167 5977 4410 4347 1697 3244 4856 16135 3515 898 2617
is_linear=0
shrinkage=0.05


Tree=14
num_leaves=15
num_cat=0
split_feature=12 14 14 9 12 4 9 11 11 27 3 2 2 14
split_gain=539.031 222.688 103.657 65.108 60.2197 45.4919 32.7879 31.3656 30.6388 27.5892 27.9917 25.4019 24.5607 22.8146
threshold=0.92582417582417598 0.052304150164127254 1.0000000180025095e-35 0.013423423423423403 0.36038961038961043 0.50130119841854415 0.045983086680761058 0.55277777777777792 0.34166666666666673 0.48060835446195205 0.93059155344963085 0.045279077179939252 0.015438494387992501 0.0027367115020751004
decision_type=2 2 2 2 2 2 2 2 2 2 2 2 2 2
left_child=1 4 -2 -3 6 9 -1 -7 -6 10 -5 -10 -4 -8
right_child=2 3 12 5 8 7 13 -9 11 -11 -12 -13 -14 -15
leaf_value=-0.060028375664023692 0.047925293680582154 -0.051257848179261628 -0.046016140332803705 -0.011860989509238685 -0.029178383319029461 -0.047346347206895581 1.9740176312087465e-05 -0.01938951055857209 0.0093157544871030531 -0.043787088446940917 0.03087643979144282 0.064900031468168071 0.014845897797731593 -0.037898076702912134
leaf_weight=43.395938823698089 504.15266543999314 308.43632258428261 17.541733615100384 92.178629533620551 50.932340268511325 188.75752043002285 127.83746531931683 214.14993167668581 700.17621455015615 33.946405563503504 65.565571355633438 21.175939004868269 301.18523537041619 57.519846849143505
leaf_count=931 1307 7337 157 1758 925 4267 1020 3142 5240 643 704 67 1567 1186
internal_value=1.30818e-10 -0.0146139 0.0338152 -0.0326171 0.00162682 -0.0229475 -0.0209062 -0.032487 0.00830117 -0.00289692 0.0059026 0.0109475 0.0114962 -0.0117469
internal_weight=2726.95 1904.07 822.88 903.034 1001.04 594.598 228.753 402.907 772.284 191.691 157.744 721.352 318.727 185.357
internal_count=30251 27220 3031 17851 9369 10514 3137 7409 6232 3105 2462 5307 1724 2206
is_linear=0
shrinkage=0.05


Tree=15
num_leaves=15
num_cat=0
split_feature=14 12 11 1 2 25 2 11 9 1 11 26 12 14
split_gain=483.913 164.674 136.626 80.8974 40.8512 36.3207 34.0174 33.2101 30.395 26.4114 26.7323 23.4801 24.3202 20.9886
threshold=0.0015859320759772503 0.93933823529411764 0.31414473684210531 0.61255759000778209 0.030959586263179854 0.10818713450292396 0.043297037094216555 0.88562091503267981 0.014389233954451302 0.410419762134552 0.82843137254901966 0.46862745098039221 0.44722222222222224 0.0027367115020751004
decision_type=2 2 2 2 2 2 2 2 2 2 2 2 2 2
left_child=1 6 -2 4 8 11 9 -7 -4 -1 -11 12 -5 -10
right_child=2 -3 3 5 -6 7 -8 -9 13 10 -12 -13 -14 -15
leaf_value=-0.035187079638368951 -0.047142469908106874 0.045429633886631633 -0.054675536504256786 -0.066326627313108524 0.0023383747487815301 -0.013330405542511163 0.051704844079418222 0.012566142785752327 0.040566574396063981 -0.0034231496027032483 0.018850964900029351 -0.012362993740674441 0.041989803667725201 -0.027428083033695361
leaf_weight=39.707387965172529 326.49381898366846 518.49388995859772 120.76765824249014 5.4873304124921551 97.399533695774153 402.01105540757999 40.250103229656816 178.89238359499723 11.894335877150295 286.15001276647672 254.512032690458 33.713476095814258 93.214160269126296 247.73884523659945
leaf_count=462 8362 1454 2793 77 1111 5469 148 1205 71 2670 1012 399 438 4580
internal_value=1.48641e-10 0.0246307 -0.0184877 -0.0106332 -0.0265545 3.12701e-05 0.00725437 -0.00535542 -0.0339524 0.00417161 0.0070622 0.0236626 0.0359679 -0.0243131
internal_weight=2656.73 1139.11 1517.61 1191.12 477.8 713.318 620.62 580.903 380.401 580.369 540.662 132.415 98.7015 259.633
internal_count=30251 5746 24505 16143 8555 7588 4292 6674 7444 4144 3682 914 515 4651
is_linear=0
shrinkage=0.05


Tree=16
num_leaves=15
num_cat=0
split_feature=14 12 12 11 23 14 3 9 9 12 24 15 2 4
split_gain=432.322 149.058 134.762 61.7877 46.6652 49.178 39.2696 33.7351 32.6175 25.6749 25.4193 20.1061 18.4378 18.2368
threshold=0.00037738108076150006 0.82843137254901966 0.97500000000000009 0.31414473684210531 0.93095238095238109 -1.0000000180025095e-35 0.93059155344963085 0.040833333333333312 0.079473684210526321 0.44097222222222227 0.66108096968816443 1.0000000180025095e-35 0.043297037094216555 0.99887280276178669
decision_type=2 2 2 2 2 2 2 2 2 2 2 2 2 2
left_child=2 3 4 -2 5 7 9 -1 -3 -5 11 -7 -11 -8
right_child=1 8 -4 6 -6 10 13 -9 -10 12 -12 -13 -14 -15
leaf_value=-0.03487451838290942 -0.047824773335137405 -0.01241551278098676 0.050048576052439321 -0.040187050757217152 -0.043295022195447848 -0.095382274165825634 0.0068673141866708188 0.0090037196781065677 0.013725888446935345 -0.020353728857594948 0.03491387841998965 0.0089618448497777153 0.045570901010336035 -0.035081352821264775
leaf_weight=51.117721993941814 281.79371636593714 181.39662578934804 353.93102665711194 220.31736490107141 36.115601947531104 6.3655801415443447 152.43151066824794 306.21019384870306 348.71759203542024 321.66241248883307 264.19033049885184 16.803859524428844 10.967688916251062 31.214757913723588
leaf_count=691 7954 1808 938 5103 358 59 1921 2192 2191 5639 892 51 77 377
internal_value=2.40161e-11 -0.0167205 0.0250226 -0.0279129 0.0120123 0.0151107 -0.0202953 0.0027267 0.00478072 -0.0269485 0.03051 -0.0197057 -0.01818 -0.000262792
internal_weight=2583.24 1548.5 1034.73 1018.39 680.803 644.688 736.594 357.328 530.114 552.947 287.36 23.1694 332.63 183.646
internal_count=30251 25070 5181 21071 4243 3885 13117 2883 3999 10819 1002 110 5716 2298
is_linear=0
shrinkage=0.05


Tree=17
num_leaves=15
num_cat=0
split_feature=14 12 11 12 2 3 4 1 23 11 14 25 11 1
split_gain=400.917 152.051 100.528 48.3225 47.0316 44.4368 36.1794 26.9239 27.8235 24.2968 22.3294 22.2538 21.4854 20.5028
threshold=0.013266030477327152 0.97500000000000009 0.55277777777777792 0.31414473684210531 0.025575316242163304 0.93864539265632652 0.66723692858896533 0.98200485110282909 1.0000000180025095e-35 0.97500000000000009 0.077153194675118317 0.2817460317460318 0.93933823529411764 1.0000000180025095e-35
decision_type=2 2 2 2 2 2 2 2 2 2 2 2 2 2
left_child=1 4 5 -4 13 -2 -7 8 -5 11 -10 -6 -12 -1
right_child=2 -3 3 7 9 6 -8 -9 10 -11 12 -13 -14 -15
leaf_value=-0.043475846496749695 -0.041551229225253138 0.046504263717402988 -0.036960730567186122 0.027615999214219696 0.025539726365882472 0.018876206566558466 -0.053587932592310442 0.061573031845235361 0.0048978349565785961 0.039623120801034729 -0.024711042474330234 0.0012595985795966923 0.0085815159931133308 -0.00075304051298905939
leaf_weight=30.32333617284894 483.46709018503316 374.08481906261295 113.27143685170449 65.047810406424105 182.85323044098914 59.502336410339922 24.242653297726065 16.597664758563042 211.91973828990012 110.92610008828342 204.48733215499669 195.02592725120485 63.512246690690517 379.99473262391984
leaf_count=432 12860 1076 2534 446 979 694 417 36 2040 320 3094 1495 456 3372
internal_value=-9.22876e-11 0.0197163 -0.0202109 -0.00716971 0.00857105 -0.0357266 -0.00210085 -0.00116066 -0.0030713 0.0190483 -0.00723062 0.0130086 -0.0168212 -0.00391034
internal_weight=2515.26 1273.21 1242.05 674.836 899.123 567.212 83.745 561.565 544.967 488.805 479.919 377.879 268 410.318
internal_count=30251 7674 22577 8606 6598 13971 1111 6072 6036 2794 5590 2474 3550 3804
is_linear=0
shrinkage=0.05


Tree=18
num_leaves=15
num_cat=0
split_feature=14 12 11 1 9 25 1 1 23 2 3 26 17 2
split_gain=361.775 128.674 108.001 64.1535 33.067 29.8992 28.6015 27.1613 25.8654 23.8251 22.7169 21.2524 20.222 19.2177
threshold=0.0015859320759772503 0.93933823529411764 0.31414473684210531 0.61255759000778209 0.21583850931677012 0.10818713450292396 0.49131715297698975 0.98200485110282909 0.68990384615384626 0.023629173771348603 0.42244268953800207 0.46862745098039221 0.9996666666666667 0.043297037094216555
decision_type=2 2 2 2 2 2 2 2 2 2 2 2 2 2
left_child=1 6 -2 4 9 11 -1 -7 13 -4 -6 -5 -10 -8
right_child=2 -3 3 5 10 7 8 -9 12 -11 -12 -13 -14 -15
leaf_value=-0.022754011429739856 -0.043987006657068534 0.042021901064123554 -0.042014067285166996 0.033327543199437336 -0.04507232737660212 -0.0069362036051822066 0.013463192350948545 0.059601621594076885 -0.053790084163204792 -0.014080734541293105 0.01188949300169586 -0.013619526852479115 3.7318369318154798e-05 0.054809476456588839
leaf_weight=72.211596115492284 286.31131824140903 460.58132054470479 216.18682164233178 97.320878039114177 22.147883237339556 533.086659591645 379.0954452296719 15.791795972734688 22.093130187131464 118.00304319476709 83.46674047363922 32.043432264123112 82.996747820172459 30.354343663901091
leaf_count=822 8362 1454 4984 515 499 6635 2456 39 232 1894 1178 399 669 113
internal_value=-1.23388e-10 0.0222409 -0.0165867 -0.00956996 -0.0244434 7.47054e-05 0.00671348 -0.00502184 0.010849 -0.0321508 -5.56686e-05 0.0216988 -0.0112789 0.0165284
internal_weight=2451.69 1047.33 1404.36 1118.05 439.804 678.243 586.751 548.878 514.54 334.19 105.615 129.364 105.09 409.45
internal_count=30251 5746 24505 16143 8555 7588 4292 6674 3470 6878 1677 914 901 2569
is_linear=0
shrinkage=0.05


Tree=19
num_leaves=15
num_cat=0
split_feature=14 12 12 11 3 3 17 4 2 9 25 23 0 3
split_gain=331.966 114.887 106.487 74.8526 42.012 41.3112 35.8086 27.8248 25.5974 24.4254 22.0061 21.1876 21.0866 21.0444
threshold=1.0000000180025095e-35 0.44097222222222227 0.97500000000000009 0.70294117647058829 0.95305082201957714 0.94903895258903515 0.58866666666666678 0.78909732233322061 0.037152576768995756 0.22474747474747472 0.2124060150375939 0.37171052631578955 9.0118373301836723 0.96201276779174816
decision_type=2 2 2 2 2 2 2 2 2 2 2 2 2 2
left_child=2 9 5 4 -3 6 -1 10 -5 -2 -6 -7 -8 -13
right_child=1 3 -4 8 7 11 12 -9 -10 -11 -12 13 -14 -15
leaf_value=-0.032113772851545222 -0.043462104122273887 -0.025899755552589256 0.048143516636496943 -0.00083412322929156749 0.051642833392045132 0.044424256240005976 -0.0057784532466330918 -0.026189652667396885 0.022023476499503467 -0.011742555485886085 -0.0017843810518433419 0.04681254007036352 0.02007604466438246 -0.0020911105619668218
leaf_weight=64.273554601706564 322.59900625317823 444.0940661597997 302.41023887693882 346.27879407117143 39.106124691665173 111.57115939911455 140.07683906331658 39.744420991279185 189.51657344400883 74.755257917800918 38.003083357587457 31.805248975753784 180.46383305825293 71.346249669790268
leaf_count=633 9119 9098 915 3209 228 466 1300 488 1167 1653 447 146 935 447
internal_value=-3.08462e-11 -0.0144601 0.0239535 -0.00611456 -0.0188807 0.0117518 0.00194771 0.00779476 0.00725086 -0.0374946 0.0253114 0.0293223 0.00877758 0.0129876
internal_weight=2396.04 1494.1 901.947 1096.74 560.948 599.537 384.814 116.854 535.795 397.354 77.1092 214.723 320.541 103.151
internal_count=30251 25409 4842 14637 10261 3927 2868 1163 4376 10772 675 1059 2235 593
is_linear=0
shrinkage=0.05


Tree=20
num_leaves=15
num_cat=0
split_feature=12 14 14 9 1 3 14 13 2 1 11 9 2 27
split_gain=302.939 107.448 88.7853 42.9094 32.7846 29.5244 26.786 26.0472 24.8284 20.7633 20.1849 17.9188 16.886 16.3106
threshold=0.85357142857142876 0.013266030477327152 1.0000000180025095e-35 0.014389233954451302 0.50116974115371715 0.94903895258903515 -1.0000000180025095e-35 0.13745866792631081 0.033995253192081507 0.66523620486259472 0.39444444444444443 0.4494949494949495 0.011294140236739801 0.52213567067925615
decision_type=2 2 2 2 2 2 2 2 2 2 2 2 2 2
left_child=1 4 6 9 -1 8 12 -4 -5 -3 -6 -9 -2 -7
right_child=2 3 7 5 10 13 -8 11 -10 -11 -12 -13 -14 -15
leaf_value=-0.025770673450824389 -0.1300818815272112 -0.048683213466443748 -0.023532855895886599 -0.02891115700722835 -0.022229010457634452 0.0088427480598957508 0.044358932869805322 0.0063790355219229093 0.0010480955442001907 -0.00962275783410068 0.010343654353846751 0.0365279919999182 0.018222493314079338 -0.06730453820079034
leaf_weight=89.61507755657658 1.9569811522960652 215.71236442262307 62.449171706102788 392.99234617437469 53.012786379549652 112.68087095953524 366.82932452298701 287.77454876853153 83.923875271342695 40.392928920686245 462.57773464266211 59.468144856858999 99.86192942596972 7.500484734773635
leaf_count=1237 23 6876 603 9612 887 1527 1141 2047 1183 932 3293 273 491 126
internal_value=-2.87189e-10 -0.0139712 0.023198 -0.0254014 0.00214288 -0.0180579 0.0380612 0.0061958 -0.0236392 -0.0425226 0.00699455 0.0115423 0.0153721 0.00409042
internal_weight=2336.75 1458.41 878.34 853.203 605.206 597.098 468.648 409.692 476.916 256.105 515.591 347.243 101.819 120.181
internal_count=30251 25673 4578 20256 5417 12448 1655 2923 10795 7808 4180 2320 514 1653
is_linear=0
shrinkage=0.05


Tree=21
num_leaves=15
num_cat=0
split_feature=14 12 12 3 2 1 25 2 0 9 2 1 11 3
split_gain=270.298 113.924 80.3125 36.8231 33.7341 21.7546 20.3603 21.1661 19.4063 19.4802 17.7879 17.279 20.392 28.0586
threshold=0.013266030477327152 0.97500000000000009 0.78759398496240618 0.2523216605186463 0.025575316242163304 0.9609353542327882 0.10263157894736842 0.037677357650866855 19.501178052026553 0.11483516483516476 0.04495767182952496 1.0000000180025095e-35 0.59411764705882364 0.95686432719230663
decision_type=2 2 2 2 2 2 2 2 2 2 2 2 2 2
left_child=1 4 3 -2 11 6 -4 -8 -5 -10 -6 -1 13 -13
right_child=2 -3 5 8 10 -7 7 -9 9 -11 -12 12 -14 -15
leaf_value=-0.041594941188676127 -0.044308975201229221 0.042428991791182258 0.018559555087638596 -0.024153877054091201 0.013518707665218902 0.052035720068081395 -0.015955354329502253 0.013120437691730678 -0.032161704705931514 0.02451942781151701 0.048869916127279082 -0.030611744750676018 0.0086188008726138451 0.019564190228739897
leaf_weight=27.693627445027232 232.73336038179696 318.12900509824976 86.222284205723554 386.47648251208011 415.35066408058628 18.684574458748102 250.60853648767807 83.429005270823836 23.135262741241604 43.964423432946205 38.918345768935978 95.525128164328635 224.65899482928216 39.335153352934867
leaf_count=432 7539 1076 559 9432 2664 63 3116 672 461 735 130 1526 1517 329
internal_value=-7.33101e-11 0.0169407 -0.0174579 -0.0281406 0.0073046 -0.000755017 -0.00310207 -0.0086934 -0.0198445 0.00497637 0.0165473 -0.00353876 -0.000607309 -0.0159768
internal_weight=2284.86 1159.61 1125.25 686.31 841.482 438.944 420.26 334.038 453.576 67.0997 454.269 387.213 359.519 134.86
internal_count=30251 7674 22577 18167 6598 4410 4347 3788 10628 1196 2794 3804 3372 1855
is_linear=0
shrinkage=0.05


Tree=22
num_leaves=15
num_cat=0
split_feature=14 12 1 2 11 1 24 9 11 4 11 23 2 25
split_gain=240.55 111.821 61.3263 35.0767 31.311 29.9962 29.8088 27.903 26.7148 26.1126 24.9221 22.3578 20.0974 18.1677
threshold=0.025795648619532454 0.91287878787878796 0.61993342638015758 0.031141241176452405 0.97500000000000009 0.45720106363296514 0.99198722210667711 0.014389233954451302 0.28991596638655465 0.51804820237218419 0.44722222222222224 0.93095238095238109 0.045279077179939252 0.10818713450292396
decision_type=2 2 2 2 2 2 2 2 2 2 2 2 2 2
left_child=1 5 3 7 11 -1 10 -2 -7 -9 -4 -3 -10 -12
right_child=2 4 6 -5 -6 8 -8 9 12 -11 13 -13 -14 -15
leaf_value=-0.029755205479760922 -0.052510751113635803 0.025798535441695327 -0.019399226673113598 0.0007890508150076097 0.048661599125359972 -0.035118481028204043 -0.021459825600675463 0.0018253187067689841 0.0069588435099770599 -0.035899143467456082 0.035446806025936521 -0.043886983387598777 0.063345570951925459 0.0034375517855234879
leaf_weight=63.896690764464438 168.39329950406682 248.53843223769218 89.868672765791416 72.526864493498579 205.80992563255131 37.364002095302567 203.16265654016752 62.569883771240711 650.74462570203468 171.884174880106 59.462769870646298 12.069160977378486 16.195767635479569 174.17793443892151
leaf_count=1000 5912 1106 2083 1090 664 832 3746 1302 5417 4586 327 78 48 2060
internal_value=-1.52674e-10 0.0147724 -0.018201 -0.0312207 0.0340838 0.00304729 -0.00644938 -0.0369836 0.00602324 -0.0258314 0.00297713 0.0225713 0.00832812 0.0115841
internal_weight=2236.66 1234.62 1002.05 475.374 466.418 768.201 526.672 402.847 704.304 234.454 323.509 260.608 666.94 233.641
internal_count=30251 9145 21106 12890 1848 7297 8216 11800 6297 5888 4470 1184 5465 2387
is_linear=0
shrinkage=0.05


Tree=23
num_leaves=15
num_cat=0
split_feature=12 11 14 3 14 1 23 2 13 1 11 13 25 2
split_gain=221.262 79.4228 78.733 34.8043 34.4968 27.6294 26.0385 23.4857 20.9966 20.3345 20.0456 13.9105 13.8431 15.1183
threshold=0.84807692307692317 0.97500000000000009 0.053566724184731157 0.91137132048606884 0.0018958669528364503 0.50116974115371715 0.67543859649122817 0.036432330876523908 0.12183055040197897 0.67158448696136486 0.39444444444444443 0.27361853832442068 0.095454545454545472 0.031364577263014705
decision_type=2 2 2 2 2 2 2 2 2 2 2 2 2 2
left_child=2 4 5 7 6 -1 9 -4 -6 -2 -7 -8 -10 -14
right_child=1 -3 3 -5 8 10 11 -9 12 -11 -12 -13 13 -15
leaf_value=-0.025115808876880721 -0.00028052469535074138 0.040980786559014826 -0.036810222290519404 -0.0036426731058166149 -0.031905658902582089 -0.022837316481862734 -0.037513056355264911 0.009827185615155767 0.024004408135351658 0.034914044258786116 0.0062281482844606974 0.011068985693039225 -0.014827875583620765 0.0092286385079646278
leaf_weight=108.6526646213606 51.12578125949949 268.64540589228272 427.73097276187036 120.36069196905009 48.740948024671525 67.94501123460941 24.42016481468454 28.812883849255741 64.609762620180845 208.07302514649928 467.32403005938977 37.148470688611269 120.84588223183528 142.11262399237603
leaf_count=2012 269 940 13664 2116 670 1602 185 440 358 907 4388 176 1391 1133
internal_value=-7.36006e-11 0.0178832 -0.0141463 -0.0275612 0.00898162 -0.00212762 0.0210291 -0.0338669 -0.0012877 0.0279721 0.00253869 -0.00820027 0.00326814 -0.00182683
internal_weight=2186.55 965.722 1220.83 576.905 697.077 643.922 320.767 456.544 376.309 259.199 535.269 61.5686 327.568 262.959
internal_count=30251 6029 24222 16220 5089 8002 1537 14104 3552 1176 5990 361 2882 2524
is_linear=0
shrinkage=0.05


Tree=24
num_leaves=15
num_cat=0
split_feature=14 12 11 12 13 23 1 25 2 11 3 11 11 3
split_gain=201.17 87.3463 77.4255 50.7882 33.0753 28.5839 23.9771 20.9995 19.786 18.4964 16.781 16.0539 15.8378 15.1477
threshold=0.0027367115020751004 0.97500000000000009 0.31414473684210531 0.34166666666666673 0.13840996168582378 0.93095238095238109 0.49131715297698975 0.10818713450292396 0.043297037094216555 0.78759398496240618 0.94709992408752453 0.62828947368421062 0.82843137254901966 0.95686432719230663
decision_type=2 2 2 2 2 2 2 2 2 2 2 2 2 2
left_child=1 5 -2 -4 -5 6 -1 10 12 -9 11 -6 13 -8
right_child=2 -3 3 4 7 -7 8 9 -10 -11 -12 -13 -14 -15
leaf_value=-0.019999770753267178 -0.039528798804086787 0.041359480538075408 -0.033379419878073406 -0.023607730350160557 -0.031136662055633479 -0.035611239169993807 -0.0070439329255436826 -0.010782377911976455 0.041109839326618117 0.0077386122211826648 0.046959561822917245 0.02109309838118657 0.019197928829365225 0.017590581351045863
leaf_weight=59.95100321713835 232.34105866961181 268.71533886250108 157.16124653862789 148.72155237570405 19.810031145811081 36.122931173536927 174.17604689160362 274.69929649308324 57.290060547180474 264.69619178399444 41.950183935463428 57.174597356468439 251.49275850551203 97.240130893886089
leaf_count=785 8323 1007 4551 2968 352 409 1792 4902 238 2455 209 406 1107 747
internal_value=-2.74893e-11 0.0172441 -0.0136187 -0.00737526 -0.00231135 0.00766194 0.0101038 0.00249966 0.0132143 -0.00169362 0.0215171 0.0076531 0.0101581 0.00178186
internal_weight=2141.54 944.988 1196.55 964.213 807.052 676.273 640.15 658.33 580.199 539.395 118.935 76.9846 522.909 271.416
internal_count=30251 6085 24166 15843 11292 5078 4669 8324 3884 7357 967 758 3646 2539
is_linear=0
shrinkage=0.05


Tree=25
num_leaves=15
num_cat=0
split_feature=14 11 12 12 3 17 2 0 9 23 1 25 17 4
split_gain=188.782 84.4572 75.5502 46.8237 29.1047 32.8803 25.4814 22.3914 18.9322 18.7211 17.8093 18.4505 18.5957 20.18
threshold=1.0000000180025095e-35 0.31414473684210531 0.97500000000000009 0.39444444444444443 0.95686432719230663 0.58866666666666678 0.037152576768995756 9.0118373301836723 0.22474747474747472 0.82085561497326209 0.9609353542327882 0.095454545454545472 0.62481231231231249 0.87931931651419093
decision_type=2 2 2 2 2 2 2 2 2 2 2 2 2 2
left_child=2 -2 4 8 5 -1 10 -7 -3 -6 11 12 13 -5
right_child=1 3 -4 6 9 7 -8 -9 -10 -11 -12 -13 -14 -15
leaf_value=-0.031870243140880987 -0.03903591649435327 -0.037423796255634224 0.043297905680607957 0.04998004693282148 0.030355291413397274 -0.0075843107902962299 0.013981796952370562 0.019850921869754335 -0.0019376478107492442 -0.031746790958253134 0.043870601301718014 -0.010585490295017852 -0.0075260033968832483 -0.041329156403259251
leaf_weight=62.292962213978171 230.69817407464143 141.96868915832601 233.61007720604539 39.270886059850454 166.06152158230543 130.81256329920143 218.11701861768961 172.36790365166962 51.11956427898258 13.092299354262648 17.647441733628511 553.82482979120687 52.510380401741713 7.1532899048179379
leaf_count=673 8479 4259 915 232 836 1327 1788 968 1154 123 77 8674 656 90
internal_value=-6.33343e-12 -0.0115706 0.0195111 -0.00571255 0.00930812 0.00121554 -0.0008629 0.00801351 -0.0280289 0.025817 -0.00569263 -0.00703258 0.0128563 0.0359106
internal_weight=2090.55 1312.31 778.237 1081.61 544.627 365.473 888.524 303.18 193.088 179.154 670.407 652.759 98.9346 46.4242
internal_count=30251 25409 4842 16930 3927 2968 11517 2295 5413 959 9729 9652 978 322
is_linear=0
shrinkage=0.05


Tree=26
num_leaves=15
num_cat=0
split_feature=12 14 9 2 26 0 1 9 4 0 11 23 13 1
split_gain=174.931 101.303 38.6481 31.1022 30.3385 29.0776 23.0546 21.3043 19.6637 19.6349 18.0141 15.6866 15.6003 19.478
threshold=0.97500000000000009 0.052304150164127254 0.013423423423423403 0.025575316242163304 0.31414473684210531 13.724312944254757 0.62591090798378002 0.036038961038961002 0.50130119841854415 12.477361967502349 0.97500000000000009 0.68990384615384626 0.36515151515151517 1.0000000180025095e-35
decision_type=2 2 2 2 2 2 2 2 2 2 2 2 2 2
left_child=1 3 6 12 -4 7 -3 -2 -6 11 -5 -9 13 -1
right_child=5 2 4 10 8 -7 -8 9 -10 -11 -12 -13 -14 -15
leaf_value=-0.054395159530128613 -0.037648441475208377 -0.050132411380268409 0.0025095753945155001 0.0076643529841734148 -0.00276437946644063 0.042439571735703105 -0.014586732673991635 0.03835709470312812 -0.030477932712281122 -0.038709230698937572 0.031287412055062032 -0.016220041455533754 0.012445851668229748 -0.0073207818554919622
leaf_weight=23.495510413311422 18.183561210520566 144.37546360108536 187.78038370748982 415.32079646899365 88.491391328861937 230.9713915027678 66.687252977397293 76.020271173678339 231.32293268642388 12.156937586143611 100.1641361406073 15.923578686080871 94.426859411410987 339.41148090385832
leaf_count=562 178 5914 2758 3754 2088 879 1608 315 6137 82 381 93 846 4656
internal_value=1.74598e-10 -0.00668339 -0.0209199 0.00383367 -0.013443 0.0320017 -0.0389014 0.0122867 -0.0228097 0.021009 0.0122546 0.028905 -0.00565796 -0.0103685
internal_weight=2044.73 1691.48 718.657 972.819 507.595 353.256 211.063 122.284 319.814 104.101 515.485 91.9438 457.334 362.907
internal_count=30251 28704 18505 10199 10983 1547 7522 668 8225 490 4135 408 6064 5218
is_linear=0
shrinkage=0.05


Tree=27
num_leaves=15
num_cat=0
split_feature=11 3 12 11 2 12 25 9 13 9 13 14 19 20
split_gain=159.564 76.163 53.2188 45.9018 26.99 24.1922 21.1616 19.3231 18.8671 17.8916 16.4981 16.0925 14.7359 14.469
threshold=0.82843137254901966 0.95686432719230663 0.97500000000000009 0.44722222222222224 0.03302210636148991 0.85357142857142876 0.10818713450292396 0.036700336700336657 0.05298245614035086 0.22902097902097898 0.26766169154228853 1.0000000180025095e-35 -1.0000000180025095e-35 1.5000000000000002
decision_type=2 2 2 2 2 2 2 2 2 2 2 2 2 2
left_child=1 3 4 10 7 9 12 13 -7 -5 -1 -4 -3 -2
right_child=2 6 11 5 -6 8 -8 -9 -10 -11 -12 -13 -14 -15
leaf_value=-0.039865312196514402 -0.012296331357438749 0.0004335499720705737 0.044219353631288233 -0.022452521793332715 0.019423610517642992 -0.07179978965835937 0.0030954296622836414 0.0037440881935553874 0.0098866745387523273 0.0015967239569154301 -0.012419239070033443 0.017048707705980905 0.049829065561905111 -0.069364372295579832
leaf_weight=252.91635622526519 36.705600472167134 21.520883373450488 174.29125330364332 322.55009113298729 283.59449471300468 7.4113456076011053 182.42927500745282 252.07738651381806 152.9399925111793 101.72804188285954 69.882783697568811 79.286278635263443 50.596805372275412 15.926072288770227
leaf_count=9382 568 207 729 7222 1748 121 2197 2367 1221 1616 1942 301 286 344
internal_value=-8.76753e-11 -0.0120097 0.0165759 -0.0187896 0.00832254 -0.0104334 0.0121597 -0.00200928 0.00611117 -0.0166863 -0.0339235 0.0357239 0.0350888 -0.0295648
internal_weight=2003.86 1161.98 841.881 907.429 588.304 584.629 254.547 304.709 160.351 424.278 322.799 253.578 72.1177 52.6317
internal_count=30251 24194 6057 21504 5027 10180 2690 3279 1342 8838 11324 1030 493 912
is_linear=0
shrinkage=0.05


Tree=28
num_leaves=15
num_cat=0
split_feature=14 11 14 9 3 1 5 23 14 1 2 1 2 12
split_gain=144.638 68.7523 64.617 44.2191 37.5289 27.503 26.7557 23.3395 20.6231 16.8164 16.0404 15.9887 14.6587 13.4841
threshold=1.0000000180025095e-35 0.70294117647058829 -1.0000000180025095e-35 0.035401002506265655 0.95305082201957714 0.32414969801902771 1.0000000180025095e-35 0.94590643274853814 0.24182964268785265 0.46916693449020391 0.037152576768995756 0.62486529350280773 0.042148029291257758 0.97500000000000009
decision_type=2 2 2 2 2 2 2 2 2 2 2 2 2 2
left_child=2 4 3 -1 11 -3 8 9 -6 -4 -7 -2 -5 -9
right_child=1 5 7 12 6 10 -8 13 -10 -11 -12 -13 -14 -15
leaf_value=-0.041719689217714323 -0.034859447351250676 -0.039557760829449728 -0.02568305010591896 0.0058495137783518914 0.041380451861151822 -0.00074529869977235132 -0.022479957573956693 -0.057636768402830052 -0.01761514861137177 0.036811933272375627 0.017842177203204326 -0.017696707486097477 0.043433016166656013 0.029007079769762523
leaf_weight=49.163855959195644 293.14605590631254 36.369550825562328 11.108715163543819 275.82734042406082 49.557185837067664 350.76065987488255 56.184166410006583 11.080981186591091 21.129217036999762 347.12812679028139 173.47042720904574 252.65776090137661 28.637830052524805 7.5498912129551163
leaf_count=756 11092 974 67 2358 439 4332 900 92 385 1358 1246 6041 170 41
internal_value=-5.25622e-11 -0.0104435 0.0176314 0.00227974 -0.0212207 0.00248835 0.00327489 0.0320364 0.0237458 0.034874 0.00540538 -0.0269147 0.0093846 -0.0225256
internal_weight=1963.77 1233.28 730.497 353.629 672.674 560.601 126.871 376.868 70.6864 358.237 524.231 545.804 304.465 18.6309
internal_count=30251 25409 4842 3284 18857 6552 1724 1558 824 1425 5578 17133 2528 133
is_linear=0
shrinkage=0.05


Tree=29
num_leaves=15
num_cat=0
split_feature=14 12 12 9 3 2 24 2 3 9 0 3 1 9
split_gain=131.302 60.4641 55.4833 30.7004 27.5103 23.1073 21.9713 21.2913 20.8674 17.2626 14.472 18.8502 14.2886 12.721
threshold=0.0027367115020751004 0.97500000000000009 0.44097222222222227 0.077935222672064763 0.83170500397682201 0.04066932469283651 0.93998077186651618 0.045279077179939252 0.96201276779174816 0.29705882352941176 4.5131302511174445 0.83973193168640148 0.57141587138175975 0.022991543340380501
decision_type=2 2 2 2 2 2 2 2 2 2 2 2 2 2
left_child=1 5 4 12 -2 6 8 -5 9 -1 11 -3 13 -4
right_child=2 10 3 7 -6 -7 -8 -9 -10 -11 -12 -13 -14 -15
leaf_value=-0.03744607351240372 -0.041640044867845637 -0.091058328940821998 -0.050630092796654716 0.0008423267628916083 -0.0073216555287045062 0.031039775890964672 0.009661745881632185 0.049457681196487725 0.0094234577407617537 0.014443231739420427 0.040882325032341467 0.026918375538864475 -0.010981944090725842 -0.0071710002349216198
leaf_weight=78.319661754649132 189.12884947191924 4.8231271905824569 49.282949986634776 443.38199097453617 84.480048887897283 85.042765384539962 377.38397849351168 23.726589752361178 66.516056001652032 20.152818271424621 203.84610997373238 11.361561907455323 259.13630961603485 25.577140031382442
leaf_count=884 8181 44 2040 6285 2253 440 3193 105 429 132 907 56 4839 463
internal_value=5.65638e-11 0.0147164 -0.0116044 -0.00496502 -0.0310438 0.00680732 0.00300772 0.00331172 -0.0122122 -0.0268267 0.0372691 -0.00823934 -0.0165404 -0.0357816
internal_weight=1922.16 847.446 1074.71 801.105 273.609 627.415 542.373 467.109 164.989 98.4725 220.031 16.1847 333.996 74.8601
internal_count=30251 6085 24166 13732 10434 5078 4638 6390 1445 1016 1007 100 7342 2503
is_linear=0
shrinkage=0.05


Tree=30
num_leaves=15
num_cat=0
split_feature=14 11 2 3 9 11 2 24 25 27 12 23 1 11
split_gain=119.882 61.3786 39.5344 26.9662 28.714 24.7408 22.8922 22.8121 17.0704 16.323 16.2715 18.422 15.2867 15.2054
threshold=0.024428612815157152 0.97500000000000009 0.016685219006345703 0.95686432719230663 0.12060606060606062 0.44722222222222224 0.027612552522878555 0.93998077186651618 0.26969696969696971 0.099999999999999964 0.36038961038961043 0.14835164835164832 0.77642363309860241 0.85357142857142876
decision_type=2 2 2 2 2 2 2 2 2 2 2 2 2 2
left_child=1 3 -2 4 9 -4 -3 -7 -5 13 -6 -12 -10 -1
right_child=2 6 5 8 10 7 -8 -9 12 -11 11 -13 -14 -15
leaf_value=-0.027586412701180875 -0.03385262234561149 0.0058369221088878896 -0.025151880690108104 0.029845460756451281 -0.019532526722061971 0.010143952924707225 0.042178239125195527 -0.011667968617258613 -0.009618443095345576 0.015379843172075029 0.039536123961440413 0.006720669037082236 0.027649517397801728 0.0028735611889355618
leaf_weight=155.35897054849193 193.12731318944134 56.799423630349338 160.49871165544027 139.94620131375268 42.614347314462066 205.998325670138 182.78693611221388 286.71273697447032 75.001631568185985 39.737003486603498 54.720282285008579 195.80565616628155 43.459752107970417 55.646393532399088
leaf_count=2563 7053 320 5929 867 635 2945 771 5292 786 447 292 1628 260 463
internal_value=1.01238e-10 0.0113549 -0.0139784 0.00472306 -0.00159545 -0.00810239 0.0335627 -0.00254859 0.0180219 -0.0140174 0.00902983 0.0138883 0.004054 -0.0195535
internal_weight=1888.21 1041.88 846.337 802.29 543.883 653.21 239.586 492.711 258.408 250.742 293.14 250.526 118.461 211.005
internal_count=30251 9032 21219 7941 6028 14166 1091 8237 1913 3473 2555 1920 1046 3026
is_linear=0
shrinkage=0.05


Tree=31
num_leaves=15
num_cat=0
split_feature=12 11 11 1 3 14 9 25 4 2 25 9 26 1
split_gain=110.801 60.6352 36.222 35.8852 27.6036 24.5808 20.032 17.9193 16.173 16.0406 15.4249 15.1896 16.633 12.8621
threshold=0.92582417582417598 0.31414473684210531 0.97500000000000009 0.48876985907554632 0.98058563470840465 0.037564227133989408 0.26969696969696971 0.78174603174603186 0.50130119841854415 0.045279077179939252 0.06904761904761901 0.25657894736842107 0.31414473684210531 0.98200485110282909
decision_type=2 2 2 2 2 2 2 2 2 2 2 2 2 2
left_child=1 -1 4 11 6 9 13 -6 10 -5 -7 12 -3 -2
right_child=2 3 -4 5 7 8 -8 -9 -10 -11 -12 -13 -14 -15
leaf_value=-0.032043739973055131 -0.0084154625607397015 -0.011812776814881255 0.038788118664695705 0.0058035523959114642 0.04279771236651489 0.049251994466815482 0.025519285983812225 -0.062153950042102363 -0.015823694313868958 0.056757459035876139 -0.0014945524177525328 0.0064975208015193592 -0.046298064404818734 0.051900291825273663
leaf_weight=212.35219833400333 184.20340122142807 63.124904252123088 168.81225542863831 576.34089478384703 72.323838779702783 18.293770826887339 71.066815927159041 4.3094157427549353 264.33490615175106 15.870915355160831 82.526033240836114 33.565939600579441 78.383668639231473 9.2842023484408838
leaf_count=8883 1484 1146 773 5506 339 154 362 44 6415 64 1661 671 2720 29
internal_value=-4.67299e-11 -0.00752579 0.0198444 -0.00292825 0.0104714 0.000877958 0.00281708 0.0368958 -0.00932506 0.00716909 0.00771342 -0.0237419 -0.0309147 -0.0055213
internal_weight=1854.79 1344.79 510 1132.44 341.188 957.367 264.554 76.6333 365.155 592.212 100.82 175.075 141.509 193.488
internal_count=30251 27220 3031 18337 2258 13800 1875 383 8230 5570 1815 4537 3866 1513
is_linear=0
shrinkage=0.05


Tree=32
num_leaves=15
num_cat=0
split_feature=12 9 3 11 11 1 25 23 22 2 15 12 19 14
split_gain=102.599 55.1686 33.4831 33.0423 30.8474 25.9115 22.8265 19.8421 16.7478 16.3832 14.3927 13.8358 12.2725 12.9268
threshold=0.85357142857142876 0.013423423423423403 0.94903895258903515 0.97500000000000009 0.76696832579185525 0.57141587138175975 0.17914438502673799 0.31414473684210531 0.20714285714285713 0.016591405740378252 1.0000000180025095e-35 0.14642857142857149 -1.0000000180025095e-35 1.0000000180025095e-35
decision_type=2 2 2 2 2 2 2 2 2 2 2 2 2 2
left_child=1 5 4 7 8 10 12 9 -3 -2 -1 -6 13 -4
right_child=3 2 6 -5 11 -7 -8 -9 -10 -11 -12 -13 -14 -15
leaf_value=-0.056091249434225901 -0.036159603889610002 -0.02313608519937102 0.031816615230114635 0.033274159495948891 -0.040070576641358518 -0.014349686324003031 0.00085290812522034959 -0.00073164176309121261 0.0053074676462771192 0.023131528875701472 -0.007796119403125263 0.0062274846375883659 0.04550867764387246 -0.032797542458542842
leaf_weight=93.971690687234513 12.354041061829774 328.75479730928782 20.365805461071432 189.76183458440937 17.230397807899863 114.21620541298762 177.42040856648237 259.3854047069326 61.421240382827818 204.70128772361204 18.456657350994647 254.26486175693572 57.977119706571102 12.486473223660139
leaf_count=4967 142 9539 125 889 350 3303 2376 2163 1247 1384 536 2684 344 202
internal_value=-1.01461e-10 -0.00900314 -0.003612 0.01563 -0.00965299 -0.0311229 0.0112888 0.00860245 -0.0186585 0.0197569 -0.0481629 0.00328919 0.0316737 0.00725811
internal_weight=1822.77 1156.57 929.921 666.203 661.671 226.645 268.25 476.441 390.176 217.055 112.428 271.495 90.8294 32.8523
internal_count=30251 25673 16867 4578 13820 8806 3047 3689 10786 1526 5503 3034 671 327
is_linear=0
shrinkage=0.05


Tree=33
num_leaves=15
num_cat=0
split_feature=14 12 2 9 1 23 2 4 2 11 1 13 11 13
split_gain=97.0605 50.0123 32.5168 21.4143 19.6416 20.1045 18.4876 21.2121 15.7235 17.5656 13.0631 13.6852 12.5954 12.9931
threshold=0.020132998424293152 0.97500000000000009 0.016685219006345703 0.079473684210526321 0.46916693449020391 0.324561403508772 0.043297037094216555 0.50130119841854415 0.03169537350932166 0.54772727272727284 0.80748760700225841 0.79449472096530926 0.84807692307692317 0.06504494976203061
decision_type=2 2 2 2 2 2 2 2 2 2 2 2 2 2
left_child=1 4 -2 -4 -1 12 7 -5 9 -3 11 -9 13 -6
right_child=2 8 3 6 5 -7 -8 10 -10 -11 -12 -13 -14 -15
leaf_value=-0.022793230938507877 -0.031242204774431334 -0.076700460175783927 -0.018354516709698614 0.015229955722390382 -0.064338356936852178 0.00011374534864020787 0.035189783867860001 -0.018981051753763488 0.040812079491397868 0.018970972962897473 0.014838314207398269 0.051837492759787156 0.027438240735560945 0.0096712641854358565
leaf_weight=59.640143638476729 181.640690146829 5.2559185721911481 261.16193290846422 107.78292713896371 6.2291715624742201 413.12843840895221 34.364514012821019 196.66902286373079 151.80393598973751 55.040775157045573 39.664955775253475 7.0668808333575717 148.58500362327322 123.60592729318887
leaf_count=1052 7191 55 7357 1783 131 4232 226 4612 735 318 386 116 699 1358
internal_value=-1.33201e-10 0.0107918 -0.0125498 -0.00729969 0.00473804 0.00711238 0.0001886 -0.00323638 0.0322322 0.0106315 -0.0114137 -0.0165246 0.0174972 0.00612046
internal_weight=1791.64 963.289 828.351 646.71 751.189 691.549 385.548 351.184 212.101 60.2967 243.401 203.736 278.42 129.835
internal_count=30251 8580 21671 14480 7472 6420 7123 6897 1108 373 5114 4728 2188 1489
is_linear=0
shrinkage=0.05


Tree=34
num_leaves=15
num_cat=0
split_feature=2 11 1 14 11 3 4 1 23 13 22 1 13 22
split_gain=92.9725 57.2581 34.7944 30.2573 27.4606 24.844 27.9498 17.3472 18.55 15.3956 15.5548 14.4021 14.2522 12.7929
threshold=0.037677357650866855 0.44097222222222227 0.98200485110282909 0.0083297654986380521 0.97500000000000009 0.94903895258903515 0.78196351103962514 0.4668532013893128 0.93095238095238109 0.077677224736048267 0.074175824175824162 0.82165959477424633 0.27361853832442068 0.17156862745098037
decision_type=2 2 2 2 2 2 2 2 2 2 2 2 2 2
left_child=1 5 3 7 -2 12 -7 -3 -9 -5 -11 -8 -1 -12
right_child=4 2 -4 9 -6 6 11 8 -10 10 13 -13 -14 -15
leaf_value=-0.037417674775337341 0.013136849423328715 -0.023483091067612875 0.055107371592084432 -0.038684943101902791 0.042574541928493859 0.032793725293946918 -0.053897649651744699 0.011686724185310901 -0.034955366064833016 0.00018755001394857852 -0.030839326722693263 0.040397794124128715 -0.007783670956538028 -0.0063458827474824411
leaf_weight=203.89823712734506 255.22495801793411 43.558082504663616 27.483202734962106 43.741239223163575 114.87982020527124 35.42070511681959 20.83892613789067 452.0560048208572 22.372049238532782 273.27933817054145 100.21675819857046 5.0259470650926223 50.652707925532013 113.89731369190849
leaf_count=9334 2239 661 118 1403 536 484 382 3341 254 5325 2378 33 1729 2034
internal_value=-1.67714e-10 -0.0059204 -0.000428747 -0.00188359 0.0222743 -0.02464 0.00393967 0.00671476 0.00948728 -0.0102691 -0.0077189 -0.0355746 -0.0315208 -0.0178101
internal_weight=1762.55 1392.44 1076.6 1049.12 370.105 315.837 61.2856 517.986 474.428 531.135 487.393 25.8649 254.551 214.114
internal_count=30251 27476 15514 15396 2775 11962 899 4256 3595 11140 9737 415 11063 4412
is_linear=0
shrinkage=0.05


Tree=35
num_leaves=15
num_cat=0
split_feature=2 11 1 14 12 3 4 22 4 1 23 13 1 0
split_gain=83.988 51.2588 31.8999 28.6908 24.4056 23.7788 21.9218 16.9064 16.5567 16.3846 14.075 14.0042 13.3652 16.2664
threshold=0.037677357650866855 0.44097222222222227 0.98200485110282909 0.024428612815157152 0.97500000000000009 0.94903895258903515 0.77334084535686876 0.11437908496732026 0.64425586381020938 0.410419762134552 0.324561403508772 0.55777777777777793 0.73359525203704845 19.696285782633748
decision_type=2 2 2 2 2 2 2 2 2 2 2 2 2 2
left_child=1 5 3 9 7 -1 -7 11 -5 -3 -11 -2 13 -10
right_child=4 2 -4 8 -6 6 -8 -9 12 10 -12 -13 -14 -15
leaf_value=-0.030587539096371193 0.0011247333213156795 -0.029017693732284466 0.054352445661063946 -0.00055848778337046461 0.0387812295019117 0.029783608455948258 -0.031510773096935583 0.024515072637460885 -0.033157344592577208 0.017010199518476665 0.00085821239441807482 -0.092749622222281294 -0.00053232399532119527 0.0091971357264298975
leaf_weight=246.16678635391872 107.7347474489361 32.847473406232893 25.876177969388664 193.06502790329978 129.29102823929861 35.32879639021121 24.846405847929418 123.15829129517078 156.14869874855503 224.64474938181229 337.52846981887706 4.1249749427661291 64.495329823344946 26.518981696804985
leaf_count=11063 1163 632 118 3777 623 483 416 965 4788 1648 3155 24 857 539
internal_value=1.25387e-10 -0.00568342 -0.000482069 -0.00185267 0.0213332 -0.0237001 0.00447509 0.0117345 -0.0115298 0.00530698 0.00731256 -0.00233701 -0.0200997 -0.0270085
internal_weight=1731.78 1367.47 1061.12 1035.25 364.309 306.342 60.1752 235.018 440.228 595.021 562.173 111.86 247.163 182.668
internal_count=30251 27476 15514 15396 2775 11962 899 2152 9961 5435 4803 1187 6184 5327
is_linear=0
shrinkage=0.05


Tree=36
num_leaves=15
num_cat=0
split_feature=2 26 1 11 9 2 9 27 23 25 3 3 3 9
split_gain=77.8138 47.4467 32.7341 22.3192 20.5198 20.3995 19.5892 15.6754 14.9415 12.7747 12.7521 12.3069 11.7133 25.4556
threshold=0.037677357650866855 0.59411764705882364 0.80748760700225841 0.97500000000000009 0.011610688564313102 0.031364577263014705 0.070598006644518263 0.067263232990348018 0.06904761904761901 0.48684210526315791 0.6222740411758424 0.38771660625934606 0.94903895258903515 0.047065337763012159
decision_type=2 2 2 2 2 2 2 2 2 2 2 2 2 2
left_child=1 2 4 9 5 7 -3 -1 -8 -2 -7 -9 -6 -14
right_child=3 6 -4 -5 12 10 8 11 -10 -11 -12 -13 13 -15
leaf_value=-0.03931722643670834 0.02120952248189531 -0.034291454887785004 0.020502356100803368 0.039927513123020411 -0.0049161817683053138 0.048404909337012136 0.021807148278548925 -0.044748243486219925 -0.01697658271557078 -0.0023410321310324048 -0.048556316625637155 0.0274304151702572 0.051424251788101109 0.0021531856197824959
leaf_weight=91.611844372586347 157.46000009262934 163.03746570076328 161.49298787862062 106.85775659093633 496.25811793701723 14.766864706762137 30.353004049160518 8.7348810088587943 136.56239516125061 90.780311279930174 4.4017697451636186 18.233419524040073 30.38232209905982 191.09138599643484
leaf_count=3076 1188 7061 1275 536 7864 115 461 434 4291 1051 122 343 219 2215
internal_value=8.50124e-11 -0.00548931 -0.00014401 0.0208216 -0.00404152 -0.0217177 -0.0219645 -0.0294539 -0.00992389 0.0125972 0.0261393 0.00405215 -0.000649061 0.00891231
internal_weight=1702.02 1346.93 1016.97 355.098 855.481 137.749 329.953 118.58 166.915 248.24 19.1686 26.9683 717.732 221.474
internal_count=30251 27476 15663 2775 14388 4090 11813 3853 4752 2239 237 777 10298 2434
is_linear=0
shrinkage=0.05


Tree=37
num_leaves=15
num_cat=0
split_feature=2 11 1 14 3 4 11 1 4 13 1 1 0 23
split_gain=70.9672 42.9904 26.9401 24.896 21.3885 20.2691 20.1687 15.2476 13.9746 12.3544 12.2513 11.6087 13.7429 11.452
threshold=0.037677357650866855 0.44097222222222227 0.98200485110282909 0.024428612815157152 0.94903895258903515 0.77334084535686876 0.97500000000000009 0.410419762134552 0.64425586381020938 0.29818990155604957 0.82165959477424633 0.73359525203704845 19.696285782633748 0.324561403508772
decision_type=2 2 2 2 2 2 2 2 2 2 2 2 2 2
left_child=1 4 3 7 9 -6 -2 -3 -5 -1 -7 12 -10 -9
right_child=6 2 -4 8 5 10 -8 13 11 -11 -12 -13 -14 -15
leaf_value=-0.034068451063228741 0.012246617322192115 -0.028243486689452552 0.052295090120263094 -0.00074403565756209764 0.028834239792736544 -0.049151137295830448 0.038544392249066084 0.015728365392435561 -0.031486955839727264 -0.002806419632219663 0.03843217804803703 -0.00059620775961330386 0.0076386406687415356 0.0010536197216479788
leaf_weight=195.44280210440047 244.52975256601349 32.637395713943988 23.621253018267453 188.99390667700209 35.157971523236483 18.990086767356846 103.88217150513083 221.59696225449443 148.6879474860616 37.698666002834216 5.0558729395270339 63.293830703478307 26.433834572089836 332.3251315264497
leaf_count=9732 2239 632 118 3777 483 383 536 1648 4788 1331 33 857 539 3155
internal_value=8.35542e-11 -0.00526246 -0.000490736 -0.00172043 -0.0221982 0.00463951 0.0200875 0.00496746 -0.0108986 -0.0290134 -0.030736 -0.0189482 -0.0255811 0.00692426
internal_weight=1678.35 1329.94 1037.59 1013.97 292.345 59.2039 348.412 586.559 427.41 233.141 24.046 238.416 175.122 553.922
internal_count=30251 27476 15514 15396 11962 899 2775 5435 9961 11063 416 6184 5327 4803
is_linear=0
shrinkage=0.05


Tree=38
num_leaves=15
num_cat=0
split_feature=11 1 14 7 3 9 23 1 4 26 22 2 27 27
split_gain=64.4047 43.7054 28.726 20.9442 20.5687 19.5155 24.0789 20.3538 15.6912 14.8268 14.0887 12.9755 12.9865 12.2682
threshold=0.44097222222222227 0.84247034788131725 0.073122985042058566 1.0000000180025095e-35 0.93864539265632652 0.17914438502673799 0.31414473684210531 0.30484414100646978 0.78196351103962514 0.23303167420814477 0.38750000000000007 0.016750245164373703 0.48060835446195205 0.11948071392263131
decision_type=2 2 2 2 2 2 2 2 2 2 2 2 2 2
left_child=4 2 5 11 -1 7 -7 -2 -6 13 -10 -4 -13 -5
right_child=1 -3 3 9 8 6 -8 -9 10 -11 -12 12 -14 -15
leaf_value=-0.028593350583660117 -0.049340144133502878 0.025787237174917085 -0.033996456231211884 -0.014902078662226037 0.022759919396158099 0.029962771328243588 0.0033085450266939517 0.0014811695819300337 -0.039529385837956448 -0.036982292059408776 0.065242847834389731 0.0081728790859412186 -0.035471683208463563 0.055588280233844246
leaf_weight=224.40839103120379 20.592786591267213 206.0126682203263 26.554913850966841 28.236894375178963 40.246031695045531 149.97977207647637 194.76444410486147 455.07504908298142 24.57148816250265 97.627135403919965 3.6905384352430692 158.42774894880131 19.098653114400804 7.8992690877057603
leaf_count=10991 609 1458 910 636 605 906 1982 5115 482 3274 21 2751 426 85
internal_value=6.2698e-12 0.00456736 0.000793096 -0.0114774 -0.0212726 0.00584607 0.0149044 -0.000719005 0.00270745 -0.0268546 -0.0258479 -0.00139858 0.00347751 0.000506926
internal_weight=1657.19 1364.27 1158.26 337.845 292.916 820.412 344.744 475.668 68.5081 133.763 28.262 204.081 177.526 36.1362
internal_count=30251 18152 16694 8082 12099 8612 2888 5724 1108 3995 503 4087 3177 721
is_linear=0
shrinkage=0.05


Tree=39
num_leaves=15
num_cat=0
split_feature=2 11 1 1 12 25 9 13 22 20 26 9 26 19
split_gain=61.1262 37.9535 26.4713 21.6099 19.6196 18.259 18.0166 15.6863 13.0952 11.9539 11.7078 10.7102 12.8793 10.6222
threshold=0.037677357650866855 0.31414473684210531 0.48876985907554632 0.98200485110282909 0.97500000000000009 0.14835164835164832 0.044949494949494906 0.20974076983503534 0.11437908496732026 1.5000000000000002 0.58114035087719318 0.25657894736842107 0.31414473684210531 -1.0000000180025095e-35
decision_type=2 2 2 2 2 2 2 2 2 2 2 2 2 2
left_child=1 9 11 5 8 6 7 -4 13 -1 -7 12 -3 -2
right_child=4 2 3 -5 -6 10 -8 -9 -10 -11 -12 -13 -14 -15
leaf_value=-0.038515240230095033 0.0054148020562866063 -0.010073062665532572 -0.049518383581959098 0.050764742364090655 0.035518471861203479 -0.00049444276572285209 0.019278046329825421 0.019473823921819622 0.0216334905831061 -0.012897834044243571 -0.017246347078599584 0.0058748758120082366 -0.043051154243109187 -0.03398665631261033
leaf_weight=93.993113333825022 84.423855800647289 55.037610484985635 19.553170686587691 21.789351717568934 116.25385596882552 597.69927877443843 183.64713106490672 14.237795002991332 118.39337310334668 88.336507032625377 126.34841031744145 29.421743502374738 64.071755636716262 21.451550769619644
leaf_count=5738 829 1139 485 119 623 8110 1596 171 965 3258 3495 661 2704 358
internal_value=2.35506e-11 -0.00495967 -0.00149215 0.0015374 0.0188489 0.000398099 0.0131043 -0.0204486 0.010208 -0.0261039 -0.0034177 -0.0211398 -0.0278128 -0.00256838
internal_weight=1634.66 1294.14 1111.81 963.275 340.523 941.486 217.438 33.791 224.269 182.33 724.048 148.531 119.109 105.875
internal_count=30251 27476 18480 13976 2775 13857 2252 656 2152 8996 11605 4504 3843 1187
is_linear=0
shrinkage=0.05


Tree=40
num_leaves=15
num_cat=0
split_feature=2 3 11 12 11 9 1 2 3 13 26 27 4 25
split_gain=55.8238 45.3709 29.1954 23.7081 20.9771 18.8895 14.4081 13.6662 13.5129 14.4399 13.479 13.2689 17.312 13.8218
threshold=0.031141241176452405 0.91137132048606884 0.97500000000000009 0.41421568627450983 0.59411764705882364 0.098780487804878067 0.89409205317497265 0.0090981644918511507 0.62861177325248729 0.13745866792631081 0.24264705882352941 0.33103004510133305 0.19157412531806078 0.16228070175438594
decision_type=2 2 2 2 2 2 2 2 2 2 2 2 2 2
left_child=1 3 5 -1 -5 6 8 -6 9 -2 -10 13 -13 -3
right_child=2 11 -4 4 7 -7 -8 -9 10 -11 -12 12 -14 -15
leaf_value=-0.028519669120349374 -0.037691475112064159 0.020409456703297652 0.030955497562045742 -0.021653208531344892 0.066934442283633322 0.012704506932781171 0.038053122012385296 -0.0017727627080739623 -0.010061484308990813 0.022621772482092115 -0.05071674314167636 -0.051800865835218937 0.061135288873961836 -0.0024938206323037652
leaf_weight=209.78398359473795 13.54756293678656 100.06213340023533 151.31125629413873 182.00391975202365 7.4263412738218895 309.71842885250226 14.753608449362217 284.50246871355921 51.635269625578076 37.100428307428956 33.68922398192808 4.0385811068117645 21.236966194119304 192.79425301612355
leaf_count=9540 327 962 843 6473 30 3151 125 3775 535 432 766 132 254 2906
internal_value=1.44264e-10 -0.00726724 0.0119013 -0.0145253 -0.00833082 0.00563967 -0.00887746 -2.49285e-05 -0.0139696 0.0064889 -0.0261137 0.00833159 0.0430901 0.00533169
internal_weight=1613.6 1001.85 611.756 683.717 473.933 460.445 150.726 291.929 135.972 50.648 85.3245 318.132 25.2755 292.856
internal_count=30251 24072 6179 19818 10278 5336 2185 3805 2060 759 1301 4254 386 3868
is_linear=0
shrinkage=0.05


Tree=41
num_leaves=15
num_cat=0
split_feature=2 14 4 1 1 14 23 9 11 18 26 4 25 27
split_gain=55.3837 32.2224 24.2304 19.438 17.4768 15.6817 21.5046 18.2977 15.3809 14.2189 13.9767 11.3965 10.9357 10.8754
threshold=0.037906227230011906 0.052304150164127254 0.50130119841854415 0.61993342638015758 0.78163710236549389 0.24182964268785265 0.095454545454545472 0.13188405797101446 0.97500000000000009 1.0000000180025095e-35 0.054093567251461951 0.55087568371714646 0.48684210526315791 0.33103004510133305
decision_type=2 2 2 2 2 2 2 2 2 2 2 2 2 2
left_child=1 4 5 9 -1 6 -3 -7 12 -4 -5 -12 -2 -8
right_child=8 2 3 10 -6 7 13 -9 -10 -11 11 -13 -14 -15
leaf_value=-0.0020427457076545104 0.020056264364068641 0.0654840915868697 -0.037762656257308416 0.033359497773188945 0.01650541584033088 -0.03084747608799366 -0.011006921356192367 0.015310612110465539 0.03615800352053597 0.0083133339291603849 -0.069329850560146719 -0.011156707195860704 -0.0027073415180472113 0.045363542644017429
leaf_weight=594.04868380946573 144.63531142752618 19.109454572433606 161.41630574164446 16.976760965306312 161.53179198666476 51.103726207045838 35.582217002985999 37.026549646630883 90.105610945727676 18.68178405193612 8.8945587710477394 157.51652459823526 83.057856627274305 11.264988162089137
leaf_count=8247 1154 171 8784 197 1410 1786 871 867 509 635 237 4189 996 198
internal_value=5.6528e-11 -0.00466088 -0.0142718 -0.0213155 0.00192257 0.00234421 0.0207823 -0.0114549 0.0186722 -0.0329831 -0.00985719 -0.014266 0.0117526 0.00254805
internal_weight=1590.95 1273.15 517.573 363.486 755.58 154.087 65.9567 88.1303 317.799 180.098 183.388 166.411 227.693 46.8472
internal_count=30251 27592 17935 14042 9657 3893 1240 2653 2659 9419 4623 4426 2150 1069
is_linear=0
shrinkage=0.05


Tree=42
num_leaves=15
num_cat=0
split_feature=2 14 4 14 23 11 4 1 22 27 26 9 27 9
split_gain=50.3794 37.7144 24.1716 18.6929 19.429 16.8545 16.2906 15.7152 19.8931 16.1099 17.4164 12.3322 12.0466 20.7675
threshold=0.043297037094216555 0.025795648619532454 0.50130119841854415 0.24182964268785265 0.095454545454545472 0.82843137254901966 0.42795739585136233 0.68245059251785289 0.47727272727272729 0.048703339446009956 0.2817460317460318 0.082207207207207159 0.099999999999999964 0.011610688564313102
decision_type=2 2 2 2 2 2 2 2 2 2 2 2 2 2
left_child=1 5 3 4 -3 12 -6 8 9 -4 -11 -5 13 -1
right_child=-2 2 7 11 6 -7 -8 -9 -10 10 -12 -13 -14 -15
leaf_value=-0.041322121832492079 0.028124052686300718 0.063896033931538407 -0.034971180509401699 -0.032887520105256127 0.033798583620493858 0.011676454273593349 -0.020911218868461631 -0.0055894043594961031 0.041681842199710356 0.024529178179628915 -0.02445318973520088 0.0031943195673757724 0.020883267850532464 -0.001868829990681253
leaf_weight=37.419065347407013 144.61524467077106 20.764546616701409 201.6567706631613 37.552420757710934 27.832287259865552 399.77700363937765 26.620845880825073 166.40671493718401 10.842746270354835 26.611933228094131 57.056472550611943 64.110444656573236 46.793780614621937 307.09143706876785
leaf_count=962 1027 184 9723 1399 562 2819 620 3295 216 523 2762 1467 558 4134
internal_value=-1.06048e-10 -0.00284311 -0.0118729 0.00384764 0.0227445 0.00445599 0.00705226 -0.0178842 -0.0247923 -0.0273184 -0.00887365 -0.0101337 -0.00292082 -0.00615406
internal_weight=1575.15 1430.54 639.455 176.881 75.2177 791.081 54.4531 462.575 296.168 285.325 83.6684 101.663 391.304 344.511
internal_count=30251 29224 20751 4232 1366 8473 1182 16519 13224 13008 3285 2866 5654 5096
is_linear=0
shrinkage=0.05


Tree=43
num_leaves=15
num_cat=0
split_feature=2 1 1 9 3 14 9 14 25 15 23 2 0 23
split_gain=47.6682 28.7812 19.7178 17.7317 17.5505 20.7011 16.7928 14.7423 14.8507 13.1975 11.7284 14.0263 10.3415 11.1265
threshold=0.037677357650866855 0.52498853206634533 0.98200485110282909 0.014389233954451302 0.94903895258903515 0.07586423903703686 0.22474747474747472 0.0010419890284538002 0.75735294117647067 1.0000000180025095e-35 0.15587044534412953 0.013455062127540902 13.925067910515878 0.10263157894736842
decision_type=2 2 2 2 2 2 2 2 2 2 2 2 2 2
left_child=1 3 4 9 5 6 -3 8 -2 -1 -8 -12 13 -7
right_child=7 2 -4 -5 -6 12 10 -9 -10 -11 11 -13 -14 -15
leaf_value=-0.052486616793298801 0.031897059660961166 -0.0057155309902992358 0.048530395313499938 -0.01182848142997827 0.0092822734628534003 0.0017323973477756172 0.041388492878031286 0.0052803136480321609 -0.014566052658461627 0.009510594277257086 0.064324527559949926 0.0010270532814632292 -0.00070945301427036915 -0.029670703352658947
leaf_weight=53.587183226598427 157.67776824883185 322.0285000501899 19.932435291819274 177.72567294701003 264.35760622285306 34.924421180505306 32.627972856163979 143.90173748834059 19.303007523529232 10.22130557685159 9.6603890652768296 93.080228506121784 67.505703718634322 146.64793112693587
leaf_count=3778 971 5238 119 4832 2800 1121 180 1675 129 345 60 983 1431 6589
internal_value=-3.27782e-12 -0.0044698 -0.000696947 -0.0199459 -0.00170765 -0.00581999 0.000495974 0.0171656 0.0268294 -0.0425555 0.0152725 0.00697872 -0.0174184 -0.0236305
internal_weight=1553.18 1232.3 990.765 241.534 970.833 706.475 457.397 320.883 176.981 63.8085 135.369 102.741 249.078 181.572
internal_count=30251 27476 18521 8955 18402 15602 6461 2775 1100 4123 1223 1043 9141 7710
is_linear=0
shrinkage=0.05


Tree=44
num_leaves=15
num_cat=0
split_feature=2 3 12 0 23 27 27 14 9 13 14 23 9 23
split_gain=43.5622 32.2445 30.2784 22.2653 19.8913 13.4369 18.6666 16.1455 12.6373 12.3907 11.9513 10.9211 10.7041 12.154
threshold=0.043297037094216555 0.92334356904029857 0.45227272727272733 19.124430422700879 0.10263157894736842 0.49374151441512987 0.33103004510133305 1.0000000180025095e-35 0.18634259259259259 0.37617924528301888 0.082693250625535064 0.80625000000000013 0.13188405797101446 0.97368421052631593
decision_type=2 2 2 2 2 2 2 2 2 2 2 2 2 2
left_child=1 2 9 4 8 6 7 11 -4 -1 -6 -3 13 -9
right_child=-2 5 3 -5 10 -7 -8 12 -10 -11 -12 -13 -14 -15
leaf_value=-0.027156903096595006 0.026504455649122145 0.02046906800218163 0.00063081406017067773 0.01682182162241834 -0.005488655140071008 -0.053690644389436916 0.051411291582241947 -0.019873055240666543 0.039240431887641154 0.0038296074004105043 -0.022801418370368941 -0.022717713142136765 0.0075823092491400972 0.039015328199660984
leaf_weight=219.84760696045123 140.80610767751932 187.0404427817557 59.189355454698671 122.5208172830753 313.69554063631222 8.6263139527291042 24.875075260875747 92.641109246760607 33.014803626574576 37.810547104571015 146.11334559787065 15.881729593966154 123.06581826112233 9.6771659860387427
leaf_count=10611 1027 1282 1178 1247 4325 226 282 1625 244 980 5128 181 1790 125
internal_value=-1.27623e-10 -0.00267718 -0.00802953 -0.00246019 -0.00673989 0.00812692 0.00930362 0.0068581 0.0144555 -0.0226097 -0.0109901 0.017089 -0.00235323 -0.0143034
internal_weight=1534.81 1394 932.192 674.534 552.013 461.808 453.181 428.306 92.2042 257.658 459.809 202.922 225.384 102.318
internal_count=30251 29224 23713 12122 10875 5511 5285 5003 1422 11591 9453 1463 3540 1750
is_linear=0
shrinkage=0.05


Tree=45
num_leaves=15
num_cat=0
split_feature=2 3 11 12 11 9 27 4 25 5 14 23 0 2
split_gain=40.9765 34.8193 22.5707 17.7023 16.6954 12.9539 11.9649 14.1924 12.1426 12.0716 13.3507 11.2152 13.2516 10.7841
threshold=0.031141241176452405 0.91137132048606884 0.97500000000000009 0.37980769230769235 0.59411764705882364 0.098780487804878067 0.33103004510133305 0.32037593748197118 0.17156862745098037 1.0000000180025095e-35 1.0000000180025095e-35 0.31414473684210531 14.73431064081063 0.0090981644918511507
decision_type=2 2 2 2 2 2 2 2 2 2 2 2 2 2
left_child=1 3 5 -1 -5 -2 8 -8 9 -3 -11 -7 -13 -6
right_child=2 6 -4 4 13 11 7 -9 -10 10 -12 12 -14 -15
leaf_value=-0.02701790577437807 -0.0075407371211909076 0.038260427965286864 0.028163114688182823 -0.019845925838443041 0.062143784444416532 0.022380451208532159 -0.033169679034951757 0.05980826973083208 -0.00315808636670868 0.019757741769394398 -0.033313407935363346 -0.013374069376850839 0.014691329616035469 -0.0020327967371101935
leaf_weight=167.56642145884689 140.51960604893975 43.669557217042893 137.92232796922326 183.74486330279615 6.7031403100118032 123.67684824811295 5.1734370039775994 19.859743697103113 181.51195811619982 37.614057299215347 17.300811466993764 73.756370614981279 97.87076407764107 279.08942962740548
leaf_count=8451 2185 421 843 7323 30 1079 158 228 2856 287 304 927 1145 4014
internal_value=1.03105e-10 -0.00641462 0.0105344 -0.0130664 -0.00808745 0.00495556 0.00747414 0.0405932 0.00451418 0.0186402 0.00303779 0.0109019 0.00263029 -0.000527563
internal_weight=1515.98 942.233 573.746 637.104 469.537 435.824 305.13 25.0332 280.096 98.5844 54.9149 295.304 171.627 285.793
internal_count=30251 24072 6179 19818 11367 5336 4254 386 3868 1012 591 3151 2072 4044
is_linear=0
shrinkage=0.05


Tree=46
num_leaves=15
num_cat=0
split_feature=2 1 9 12 1 23 14 22 12 22 9 22 19 14
split_gain=38.3065 25.1693 24.9776 16.2031 15.4396 14.3127 12.6108 13.7696 11.7007 12.7484 11.3271 9.95671 9.56907 9.32103
threshold=0.037677357650866855 0.55358192324638378 0.013423423423423403 0.97500000000000009 0.98200485110282909 0.93095238095238109 1.0000000180025095e-35 0.074175824175824162 0.45227272727272733 0.12916666666666668 0.12060606060606062 0.11437908496732026 -1.0000000180025095e-35 0.10165506660938256
decision_type=2 2 2 2 2 2 2 2 2 2 2 2 2 2
left_child=1 2 -1 11 5 6 -3 10 9 -4 -8 12 -2 -13
right_child=3 4 8 -5 -6 -7 7 -9 -10 -11 -12 13 -14 -15
leaf_value=-0.042332573195205184 0.0040646662493310504 0.0090785525456020567 -0.032816882123562575 0.032230394077953479 0.045437053146678313 -0.024720906887587664 -0.0044505772330737286 -0.015208260759773842 0.0053932550040402989 -0.0017059839424805369 0.014804862362692545 0.022935365803874026 -0.034699931325381426 -0.024036167156003027
leaf_weight=72.084072545170784 76.981308656278998 297.02047758316621 68.937291675480083 100.09761360497214 18.393395118415356 58.59652329783421 228.18297119869385 176.02430156304035 90.403257066383958 63.039864070247859 114.79950757790357 99.601596752181649 20.070463177748024 11.814517545513807
leaf_count=5050 829 2364 2819 623 119 1652 6514 3770 1467 1650 2071 735 358 230
internal_value=3.76729e-11 -0.00407844 -0.0167551 0.0156954 0.000101588 -0.00085182 0.00086215 -0.00383999 -0.00846425 -0.0179565 0.0019944 0.00775603 -0.00395192 0.0179545
internal_weight=1496.05 1187.48 294.464 308.565 893.017 874.624 816.027 519.007 222.38 131.977 342.982 208.468 97.0518 111.416
internal_count=30251 27476 10986 2775 16490 16371 14719 12355 5936 4469 8585 2152 1187 965
is_linear=0
shrinkage=0.05


Tree=47
num_leaves=15
num_cat=0
split_feature=3 11 1 1 25 2 1 13 4 26 19 24 2 0
split_gain=36.2834 34.3054 20.1286 17.4815 17.416 12.9102 12.5487 11.3939 10.6871 12.503 10.4746 10.3642 9.4885 9.43114
threshold=0.94903895258903515 0.55277777777777792 0.410419762134552 0.87224537134170543 0.10818713450292396 0.045279077179939252 0.98200485110282909 0.27361853832442068 0.6663815357055175 0.28991596638655465 -1.0000000180025095e-35 0.55857650111546575 0.013362128497352051 15.506184387262593
decision_type=2 2 2 2 2 2 2 2 2 2 2 2 2 2
left_child=1 7 8 4 10 6 12 -1 9 13 -2 -12 -4 -3
right_child=3 2 5 -5 -6 -7 -8 -9 -10 -11 11 -13 -14 -15
leaf_value=-0.023949304401423753 0.0047906020662179735 0.047676636631270336 0.02636001594764183 0.036497292223839066 0.0016838901397325566 0.037791675805768213 0.043916617157671603 -0.0025840982911706839 -0.048065384018108032 -0.040717758515481067 -0.0600453348183052 0.04410888611392972 -0.00059022135009052866 -0.063833699450453793
leaf_weight=242.60677154245786 34.131699327379465 11.273854933679106 34.580937425373122 63.405571281211451 272.24570835498162 26.348113954532892 17.434350521303713 84.010349546908401 29.995103246066719 12.289727325667625 2.4950995463877907 55.890432586893439 587.86107593146153 2.2795549137517801
leaf_count=12286 350 119 528 433 3505 157 107 2699 1161 453 34 370 7983 66
internal_value=-8.73194e-11 -0.00500774 0.00107447 0.0122651 0.00805287 0.00349129 0.00207891 -0.0184539 -0.0277614 -0.00419543 0.0267945 0.0396579 0.00090705 0.0289217
internal_weight=1476.85 1048.68 722.063 428.169 364.763 666.224 639.876 326.617 55.8382 25.8431 92.5172 58.3855 622.442 13.5534
internal_count=30251 25559 10574 4692 4259 8775 8618 14985 1799 638 754 404 8511 185
is_linear=0
shrinkage=0.05


Tree=48
num_leaves=15
num_cat=0
split_feature=3 11 1 1 25 1 2 1 9 4 2 23 26 3
split_gain=34.3537 30.7154 18.335 16.325 13.9112 12.5042 11.2504 10.9936 10.8372 10.7027 9.6631 9.1579 9.15558 9.08271
threshold=0.94903895258903515 0.55277777777777792 0.410419762134552 0.87224537134170543 0.10818713450292396 0.98200485110282909 0.045279077179939252 0.60600233078002941 0.026491228070175402 0.65435254138889165 0.0088585487609199026 0.76696832579185525 0.21825396825396823 0.080243274569511372
decision_type=2 2 2 2 2 2 2 2 2 2 2 2 2 2
left_child=1 7 9 4 -2 6 10 8 -1 12 -4 -9 -3 -12
right_child=3 2 5 -5 -6 -7 -8 11 -10 -11 13 -13 -14 -15
leaf_value=-0.044009009156986884 0.024951921294041116 0.034683348849733536 0.062026972851150511 0.035781086587146876 0.0022651788376676254 0.04502644013912533 0.03535988965530238 -0.0037211288540950566 -0.016206622264626977 -0.044222287233125102 -0.017895287459625597 -0.031866173207511367 -0.031812913525314866 0.0021645117168459745
leaf_weight=60.94294595962856 90.224407072644681 10.337808829965072 6.3660122281871727 61.803277951898053 269.12015122454613 17.386555144563317 24.395342300646007 142.41116250306368 82.497975112288259 33.957139396341518 62.88243848294951 36.261511843651533 10.368003323092124 549.84445356752258
leaf_count=5129 754 133 35 433 3505 111 153 4538 3736 1247 1325 1582 419 7151
internal_value=1.39298e-10 -0.00488822 0.000883576 0.0120439 0.00796138 0.00318545 0.00205494 -0.0177096 -0.0280189 -0.026946 0.000742554 -0.00943315 0.00138673 0.000105831
internal_weight=1458.8 1037.65 715.538 421.148 359.345 660.875 643.488 322.114 143.441 54.663 619.093 178.673 20.7058 612.727
internal_count=30251 25559 10574 4692 4259 8775 8664 14985 8865 1799 8511 6120 552 8476
is_linear=0
shrinkage=0.05


Tree=49
num_leaves=15
num_cat=0
split_feature=3 0 1 1 1 2 17 27 9 14 23 14 4 1
split_gain=32.0111 27.4652 17.4926 15.798 13.5705 12.4542 11.577 10.7966 15.3245 11.4059 10.3789 10.2716 13.3436 10.5685
threshold=0.94903895258903515 8.8826423116055793 0.81741803884506237 0.85910403728485119 0.98200485110282909 0.045279077179939252 0.052111410601976611 0.083861350508311824 0.18634259259259259 0.069263624784847017 0.48684210526315791 7.92190432548079e-05 0.7556851051824407 0.77112555503845226
decision_type=2 2 2 2 2 2 2 2 2 2 2 2 2 2
left_child=1 2 7 10 5 6 -3 8 -1 -9 11 -2 -13 -14
right_child=3 4 -4 -5 -6 -7 -8 9 -10 -11 -12 12 13 -15
leaf_value=-0.026287851179176341 0.025723129751551627 -0.022551780118587272 0.02055699603474502 0.033359945524494422 0.046818923406492359 0.036187058055036823 0.0022637613358784982 0.021548272447777857 -0.0014527414235742254 -0.014778771286204341 -0.0028141224794299663 0.016763543366212993 -0.038035385743606209 0.024728029534080893
leaf_weight=262.80160294321831 102.89839251944795 52.33498547738418 34.660596856614575 69.887578514870256 16.962923066690564 24.551149533363059 460.9772303334903 34.581912948284298 81.339487459277734 57.594357715570368 146.54156743129715 63.580437942408025 25.808624136261642 9.0623644487932307
leaf_count=10707 733 1047 429 508 113 155 7342 596 1859 3311 2137 725 484 105
internal_value=1.40898e-10 -0.0047516 -0.0136315 0.011667 0.0027863 0.00139762 -0.000266319 -0.0163474 -0.0204179 -0.0011499 0.00730909 0.0146767 0.00313136 -0.0217243
internal_weight=1443.58 1025.8 470.978 417.779 554.826 537.863 513.312 436.317 344.141 92.1763 347.891 201.35 98.4514 34.871
internal_count=30251 25559 16902 4692 8657 8544 8389 16473 12566 3907 4184 2047 1314 589
is_linear=0
shrinkage=0.05


Tree=50
num_leaves=15
num_cat=0
split_feature=3 11 1 1 1 25 2 9 13 24 11 10 13 13
split_gain=30.5556 24.7953 16.4086 16.2662 13.698 12.7903 12.6776 10.8522 9.42707 10.342 9.17254 9.39273 9.12988 8.36643
threshold=0.94903895258903515 0.44722222222222224 0.30484414100646978 0.87224537134170543 0.98200485110282909 0.10818713450292396 0.045279077179939252 0.014389233954451302 0.06504494976203061 0.82933466751285068 0.89181286549707617 14.500000000000002 0.29818990155604957 0.23132664437012262
decision_type=2 2 2 2 2 2 2 2 2 2 2 2 2 2
left_child=1 12 -3 5 6 7 8 -2 9 -4 11 -11 -1 -10
right_child=3 2 4 -5 -6 -7 -8 -9 13 10 -12 -13 -14 -15
leaf_value=-0.026441705247276293 -0.072585146043783771 -0.030258184030815649 -0.095446437439584114 0.035860963053964377 0.046548076403649635 0.0019194103571297195 0.035300667043577524 0.027087700896781655 0.0060177080503430605 0.078164814517750938 0.013493670768645724 -0.039402888342341486 0.0030165630356462593 -0.0049753848342179961
leaf_weight=151.15671539842151 2.8209589975886038 45.283439178252593 4.3919613163452587 58.780824045883492 15.95619153510779 263.21775985183194 24.281095834914595 85.533351548947394 322.37868352851365 1.8096965074073548 17.478709914255887 27.736363406525925 31.842969693243504 373.71755324630067
leaf_count=9808 53 1799 123 433 112 3505 156 701 5602 21 190 1007 1355 5386
internal_value=4.41936e-11 -0.00465073 -0.000989776 0.0115152 0.000692704 0.00744475 -0.000255317 0.0239054 -0.00141026 -0.0220703 -0.0152172 -0.0322019 -0.0213158 0.000115777
internal_weight=1426.39 1016.03 833.034 410.353 787.75 351.572 771.794 88.3543 747.513 51.4167 47.0248 29.5461 183 696.096
internal_count=30251 25559 14396 4692 12597 4259 12485 754 12329 1341 1218 1028 11163 10988
is_linear=0
shrinkage=0.05


Tree=51
num_leaves=15
num_cat=0
split_feature=3 0 1 1 1 1 25 27 9 14 14 14 2 24
split_gain=29.2329 24.2168 15.6194 14.2115 12.9621 11.887 11.1964 10.0705 13.0382 9.86641 9.79687 9.33862 8.7103 8.41098
threshold=0.94903895258903515 8.8826423116055793 0.87224537134170543 0.81741803884506237 0.98200485110282909 0.30484414100646978 0.10818713450292396 0.083861350508311824 0.18634259259259259 -0.028615193814039198 0.015838321260007754 0.069263624784847017 0.026647044623650803 0.90008187416089525
decision_type=2 2 2 2 2 2 2 2 2 2 2 2 2 2
left_child=1 3 6 7 5 -3 -2 8 -1 -10 -7 -9 -5 -12
right_child=2 4 -4 12 -6 10 -8 11 9 -11 13 -13 -14 -15
leaf_value=-0.02510002274185176 0.022868614586861881 -0.02802849029805056 0.0355832483373867 -0.012048867713595394 0.047372806943356036 0.0096325841681609171 0.0021912235983660108 0.019916785577217481 0.030725515905529906 -0.011343757766627157 0.009465200360548447 -0.013285438814037874 0.039687399963423804 -0.010904600600704558
leaf_weight=253.61388740281109 87.288932499475777 32.654996163211763 57.029443399049342 13.878247731365262 15.646106719039379 267.64512246637605 261.88645865791477 34.153631228487939 17.879914688877761 63.199851278797723 74.503700304543599 55.744588890811428 19.660587447462603 158.46423538797535
leaf_count=10707 754 1271 433 283 113 2319 3505 596 181 1678 1347 3311 146 3607
internal_value=-8.94859e-11 -0.00456715 0.0113227 -0.0130543 0.00251633 0.00120024 0.00736028 -0.0155293 -0.0195201 -0.00206654 0.00310683 -0.000671435 0.0182791 -0.00439029
internal_weight=1413.25 1007.04 406.205 458.131 548.914 533.268 349.175 424.592 334.694 81.0798 500.613 89.8982 33.5388 232.968
internal_count=30251 25559 4692 16902 8657 8544 4259 16473 12566 1859 7273 3907 429 4954
is_linear=0
shrinkage=0.05


Tree=52
num_leaves=15
num_cat=0
split_feature=3 11 1 1 2 1 23 1 14 5 3 9 2 13
split_gain=27.7089 21.4567 14.933 14.2133 11.8052 11.186 10.4641 9.82794 9.44932 9.33894 13.2613 12.1936 10.9062 9.8254
threshold=0.94903895258903515 0.44722222222222224 0.85910403728485119 0.30484414100646978 0.045279077179939252 0.98200485110282909 0.77350427350427364 0.67300665378570568 1.0000000180025095e-35 1.0000000180025095e-35 0.97515767812728893 0.014389233954451302 0.036028340146901504 0.37123169681309215
decision_type=2 2 2 2 2 2 2 2 2 2 2 2 2 2
left_child=1 -1 6 -3 5 -5 8 -8 -2 10 11 -10 -11 -14
right_child=2 3 -4 4 -6 -7 7 -9 9 12 -12 -13 13 -15
leaf_value=-0.020274217805825449 0.020621540826226928 -0.028864969913459999 0.033047969296445816 -0.0014456337913790803 0.034767724640340447 0.044058478881729139 0.0059066794894834761 -0.035146357058979123 -0.069318781268607119 -0.025430360146064059 -0.0089783069040941851 0.04228400351504568 0.032217004048255123 -0.03021544098405872
leaf_weight=176.6556364481803 131.84227317944169 43.529568325378932 64.904442941537127 738.23502664163243 24.339410722954199 13.757257422432302 32.966099670389667 26.136892665177584 2.6244641151279202 45.639695348916575 31.242502855136991 36.297830957919359 20.915112085174773 9.0195195281412435
leaf_count=11163 987 1799 508 12329 160 108 681 355 68 924 474 368 196 131
internal_value=-4.21733e-12 -0.00446847 0.0110882 -0.0010628 0.000496092 -0.000613163 0.00685491 -0.012248 0.0109223 0.002148 0.0152838 0.0347588 -0.0100476 0.0134057
internal_weight=1398.11 996.517 401.589 819.861 776.332 751.992 336.684 59.103 277.581 145.739 70.1648 38.9223 75.5743 29.9346
internal_count=30251 25559 4692 14396 12597 12437 4184 1036 3148 2161 910 436 1251 327
is_linear=0
shrinkage=0.05


Tree=53
num_leaves=15
num_cat=0
split_feature=3 0 1 17 1 24 27 27 25 0 1 1 27 9
split_gain=28.7462 19.5466 13.6442 12.928 12.6191 12.4975 10.3329 21.848 12.9005 15.424 9.46029 9.34403 9.25996 12.7503
threshold=0.94903895258903515 8.8826423116055793 0.87224537134170543 0.032928475033738157 0.81741803884506237 0.95824728777917179 0.48060835446195205 0.21609640474436817 0.26491228070175438 19.869179435292914 0.9609353542327882 0.34934657812118536 0.083861350508311824 0.011610688564313102
decision_type=2 2 2 2 2 2 2 2 2 2 2 2 2 2
left_child=1 4 6 5 12 11 7 8 -2 -10 -5 -3 13 -1
right_child=2 3 -4 10 -6 -7 -8 -9 9 -11 -12 -13 -14 -15
leaf_value=-0.034288847191685644 0.015956543775758836 -0.063476526470986561 0.034829089229686847 0.0030167068332469962 0.017257769209094484 -0.059852438724803281 -0.036619044788631781 0.051144608565651374 -0.015123390198467005 0.01994027103666339 0.038844584487348191 0.0042725848236256731 -0.0002940034078791927 -0.01233911840626826
leaf_weight=92.162160468986258 147.50786725757644 6.0304759684950104 53.768662314629182 467.18374029779807 33.495430841343477 15.171380188781766 12.648996144533156 28.651117922505364 106.80115854041651 44.402850426267833 19.181256795302033 32.613478749291971 88.444145734072663 234.5114324191818
leaf_count=5956 1469 303 433 7436 429 396 296 286 1635 573 151 371 3907 6610
internal_value=-5.41055e-12 -0.00454978 0.0114246 0.0018567 -0.0122639 -0.0213971 0.0077235 0.00943685 0.00543643 -0.00482653 0.00442969 -0.00629982 -0.014646 -0.0185316
internal_weight=1382.57 988.794 393.781 540.18 448.613 53.8153 340.012 327.363 298.712 151.204 486.365 38.644 415.118 326.674
internal_count=30251 25559 4692 8657 16902 1070 4259 3963 3677 2208 7587 674 16473 12566
is_linear=0
shrinkage=0.05


Tree=54
num_leaves=15
num_cat=0
split_feature=2 3 14 23 4 1 13 9 27 27 1 23 11 12
split_gain=28.6541 20.0111 17.6631 13.4646 11.8929 11.9789 12.4676 10.4104 10.2877 16.3715 10.1744 9.38676 11.7012 9.28154
threshold=0.043297037094216555 0.91796475648880016 0.07586423903703686 0.97368421052631593 0.51804820237218419 0.61993342638015758 0.64258064516129043 0.22902097902097898 0.49374151441512987 0.33103004510133305 0.78163710236549389 0.31414473684210531 0.90454545454545465 0.19374999999999998
decision_type=2 2 2 2 2 2 2 2 2 2 2 2 2 2
left_child=1 2 3 7 -4 6 -6 13 9 10 -3 -9 -13 -1
right_child=-2 8 4 -5 5 -7 -8 11 -10 -11 -12 12 -14 -15
leaf_value=-0.03723124713625995 0.023583938864008596 0.00012765377185332605 -6.0407257678691968e-05 -0.039629117585327334 -0.036812664715997034 -0.010844622561205386 0.072070914830726196 0.028700283636163816 -0.049349770020425447 0.046419945362602702 0.018051941058144595 0.012677960029258221 -0.030836786584142448 -0.0020057010671528331
leaf_weight=19.780720446491614 117.7060894689057 285.15829722071066 81.344419457251206 21.831809263443574 107.0589534281753 111.01340739568695 2.695223666727542 53.144693412818015 8.078633829019962 25.527554624830373 109.59920365875587 61.376180739607662 20.645664333365858 342.31523109367117
leaf_count=946 1027 4287 2815 544 7951 3533 43 454 236 318 1020 883 155 6039
internal_value=7.28699e-12 -0.00222154 -0.00679143 -0.00119722 -0.0164035 -0.0224253 -0.0341388 0.000490091 0.00653928 0.00761356 0.0051041 0.0123311 0.00172489 -0.00393002
internal_weight=1367.28 1249.57 821.206 519.094 302.112 220.768 109.754 497.262 428.364 420.285 394.758 135.167 82.0218 362.096
internal_count=30251 29224 23363 9021 14342 11527 7994 8477 5861 5625 5307 1492 1038 6985
is_linear=0
shrinkage=0.05


Tree=55
num_leaves=15
num_cat=0
split_feature=2 3 14 23 3 9 4 1 13 27 27 1 4 26
split_gain=28.0307 19.8954 15.0208 15.5766 11.6104 11.0548 10.6012 11.2466 11.962 9.08331 14.8359 9.04954 9.21055 9.68842
threshold=0.043297037094216555 0.91796475648880016 0.07586423903703686 0.97368421052631593 0.91595447063446056 0.22902097902097898 0.51804820237218419 0.61993342638015758 0.65058139534883741 0.49374151441512987 0.33103004510133305 0.78163710236549389 0.5656300708800418 0.14835164835164832
decision_type=2 2 2 2 2 2 2 2 2 2 2 2 2 2
left_child=1 2 3 4 5 -1 -4 8 -8 10 11 -3 -13 -14
right_child=-2 9 6 -5 -6 -7 7 -9 -10 -11 -12 12 13 -15
