tree
version=v4
num_class=1
num_tree_per_iteration=1
label_index=0
max_feature_idx=27
objective=lambdarank
feature_names=bm25_score vector_score hybrid_score rerank_score param_score param_match param_tier_0 param_tier_1 param_tier_2 name_bonus candidates_count bm25_rank_score vector_rank_score name_edit_dist score_gap_to_top1 dual_recall param_main_exact param_main_rel_dist param_main_direction param_material_match param_n_checks book_match token_overlap param_tier_rank family_size param_score_rank rerank_within_tier dist_to_tier_best
feature_infos=[0:82.713256764804029] [0:1] [0.0067532467532467003:0.046721311475409803] [1.6134101315401495e-05:0.99996769428253163] [0:1] [0:1] [0:1] [0:1] [0:1] [0:1] [10:20] [0.050000000000000003:1] [0.050000000000000003:1] [0:1] [-0.28588134124875059:0.9191540092229844] [0:1] [0:1] [0:1] [-1:1] [-1:1] [0:4] none [0:1] [0:1] [0.22767024869695299:1] [0:1] [0:1] [0:0.69999999999999996]
tree_sizes=1775 1782 1775 1774 1776 1773 1773 1774 1770 1775 1770 1779 1774 1778 1773 1765 1787 1773 1767 1782 1781 1780 1771 1776 1777 1780 1769 1770 1763 1771 1774 1774 1764 1765 1765 1773 1772 1768 1768 1773 1771 1766 1769 1771 1764 1765 1746 1769 1784 1765 1762 1762 1775 1769 1774 1775 1758 1752 1777 1788 1763 1764 1766 1772 1763 1763 1773 1765 1759 1756 1761 1757 1774 1754 1762 1757 1745 1755 1784 1764 1764 1763 1750 1765 1765 1754 1769 1769 1767 1767 1760 1748 1774 1770 1741 1761 1763 1768 1758 1768 1767 1755 1755 1758 1760 1764 1771 1749 1750 1758 1772 1768 1769 1751 1753 1758 1749 1764 1775 1762 1738 1761 1767 1783 1756 1757 1749 1762 1770 1766 1753 1766 1773 1759 1732 1765 1755 1748 1756 1747 1756 1761 1764 1748 1768 1755 1728 1735 1749 1756 1753 1745 1745 1764 1760 1741 1757 1752 1752 1758 1752 1753 1765 1747 1760 1765 1753 1738 1767 1768 1763 1753 1747 1731 1754 1747 1756 1748 1765 1753 1774 1755 1745 1751 1752 1750 1758 1749 1743 1758 1750 1763 1761 1737 1752 1734 1743 1752 1759 1756

Tree=0
num_leaves=15
num_cat=0
split_feature=14 14 12 11 12 11 12 15 24 3 12 14 9 12
split_gain=3466.18 479.255 439.286 115.711 108.639 92.5709 85.9671 60.3126 65.606 50.049 43.8843 39.7728 39.4612 36.4962
threshold=0.0017964854836463502 -1.0000000180025095e-35 0.82843137254901966 0.70294117647058829 0.84807692307692317 0.80625000000000013 0.82085561497326209 1.0000000180025095e-35 0.70235417975995973 0.94983473420143139 0.41421568627450983 1.0000000180025095e-35 0.025320512820512803 0.93933823529411764
decision_type=2 2 2 2 2 2 2 2 2 2 2 2 2 2
left_child=1 6 3 9 7 13 12 8 -3 -2 -5 -9 -1 -4
right_child=2 4 5 10 -6 -7 -8 11 -10 -11 -12 -13 -14 -15
leaf_value=-0.083807849817147909 -0.083624894757211965 -0.095587835878807204 -0.045375162950141518 -0.062448742245108262 0.091188736878773075 0.038815068528678331 0.042312744225353971 0.07763206591686031 0.034989225872859263 -0.03571460715618581 -0.017938687779992402 0.0065987363752244349 -0.014691316466803262 0.0067798389469957299
leaf_weight=25.785412346129306 726.95520840544486 12.911232689395545 79.330397645593621 105.80440648872172 685.08755927253515 106.28842413361417 64.187999689951539 114.91989396139979 37.729871750809252 58.92900370026473 116.1911693168804 23.784671106841415 103.71746874117525 58.114646679838188
leaf_count=533 15296 70 1651 2187 1453 1288 714 268 266 1310 2157 403 1734 958
internal_value=-1.85209e-09 0.0661607 -0.0564614 -0.0710282 0.0819235 0.00377449 -0.00500176 0.0484004 0.00169787 -0.0800324 -0.0391524 0.0654515 -0.0284532 -0.0233229
internal_weight=2319.74 1068.12 1251.61 1007.88 874.433 243.733 193.691 189.346 50.6411 785.884 221.996 138.705 129.503 137.445
internal_count=30288 5441 24847 20950 2460 3897 2981 1007 336 16606 4344 671 2267 2609
is_linear=0
shrinkage=0.05


Tree=1
num_leaves=15
num_cat=0
split_feature=14 14 11 1 5 12 3 15 9 14 26 12 7 20
split_gain=4003.73 1178.06 702.568 271.829 166.323 160.198 119.051 118.227 109.942 82.3047 65.3233 60.3388 59.2639 51.0272
threshold=1.0000000180025095e-35 -1.0000000180025095e-35 0.41885964912280699 0.56976148486137401 1.0000000180025095e-35 0.97500000000000009 0.93948701024055492 1.0000000180025095e-35 0.014389233954451302 0.05585174560546876 0.324561403508772 0.6132478632478634 1.0000000180025095e-35 1.0000000180025095e-35
decision_type=2 2 2 2 2 2 2 2 2 2 2 2 2 2
left_child=1 4 6 8 10 9 -2 -6 -4 -5 -1 -10 -7 -11
right_child=2 -3 3 5 7 12 -8 -9 11 13 -12 -13 -14 -15
leaf_value=0.083571748991532857 -0.07419299499818284 0.081226403655564119 -0.079836366990819543 0.0024044633790943123 -0.055134515085068052 0.06163037807077372 -0.022797144416445345 -0.00050136605920576697 -0.042608569975285893 -0.046972435966151582 -0.022040109617848719 0.00042724584324618147 0.0032394136909881625 -0.01510417952619437
leaf_weight=61.870642280206084 952.91760192904621 1373.5532580260187 167.00192059762776 531.68876478681341 151.37937101628631 110.28170259296894 127.78120359778404 286.32187699340284 339.51944702723995 179.02555053401738 19.18036587536335 107.15188725898042 71.712085548788309 420.99180293222889
leaf_count=126 10402 1555 1844 3177 1187 272 931 1557 3344 1574 111 638 271 3299
internal_value=3.81524e-10 0.0569818 -0.0358459 -0.0177516 -0.00721323 -0.00491784 -0.068116 -0.0193963 -0.0452252 -0.0119197 0.0585792 -0.0322847 0.0386222 -0.0246126
internal_weight=4900.38 1892.31 3008.07 1927.37 518.752 1313.7 1080.7 437.701 613.673 1131.71 81.051 446.671 181.994 600.017
internal_count=30288 4536 25752 14419 2981 8593 11333 2744 5826 8050 237 3982 543 4873
is_linear=0
shrinkage=0.05


Tree=2
num_leaves=15
num_cat=0
split_feature=14 12 12 14 11 14 14 14 9 12 12 11 7 0
split_gain=3026.75 723.837 519.395 198.04 144.377 125.46 99.9842 119.796 90.1073 84.3061 70.7616 68.0802 103.807 63.0442
threshold=0.012900017201900451 0.86190476190476206 0.82843137254901966 -0.0024023428559302499 0.34166666666666673 1.0000000180025095e-35 -1.0000000180025095e-35 1.0000000180025095e-35 0.073622402890695507 0.24264705882352941 0.39444444444444443 0.90454545454545465 1.0000000180025095e-35 18.060446825053543
decision_type=2 2 2 2 2 2 2 2 2 2 2 2 2 2
left_child=1 3 4 -1 -2 -5 13 -8 -4 -6 -7 12 -11 -3
right_child=2 6 8 5 9 10 7 -9 -10 11 -12 -13 -14 -15
leaf_value=-0.025318951080059871 -0.072762195606768706 -0.0036945882834839281 -0.023246320819547639 0.045461828547983862 -0.068347532004335743 -0.044805264166152839 0.081648242576404517 0.02850941458845906 0.018563525674625044 -0.022076560812384224 0.014600208086395561 0.0048083775912795904 -0.058012935593462184 0.065796755184819214
leaf_weight=270.79173219017684 599.1135218301788 69.297383770346642 206.32774303667247 355.40252419793978 246.87096883310005 65.45740770176053 905.43097729980946 120.13366590440273 343.25850384868681 401.24704275839031 214.05801025545225 94.413034290075302 402.57211951585487 61.695709083229303
leaf_count=1956 7765 344 1597 979 2988 674 1094 544 1866 3836 1387 560 4535 163
internal_value=1.23886e-10 0.0439558 -0.0395189 0.0104819 -0.0528744 0.0257509 0.0701696 0.0754236 0.00286712 -0.0424692 0.000688531 -0.0353568 -0.0400744 0.0290348
internal_weight=4356.07 2062.27 2293.8 905.71 1744.22 634.918 1156.56 1025.56 549.586 1145.1 279.515 898.232 803.819 130.993
internal_count=30288 7141 23147 4996 19684 3040 2145 1638 3463 11919 2061 8931 8371 507
is_linear=0
shrinkage=0.05


Tree=3
num_leaves=15
num_cat=0
split_feature=14 12 12 14 14 11 0 14 14 5 24 5 12 12
split_gain=2464.2 616.932 427.948 167.293 119.118 105.655 96.7588 86.3447 109.791 78.3684 68.2266 78.7932 57.4259 57.347
threshold=0.012900017201900451 0.86190476190476206 0.7947368421052633 -7.6368078589461583e-05 1.0000000180025095e-35 0.60555555555555574 10.630002447640662 -1.0000000180025095e-35 1.0000000180025095e-35 1.0000000180025095e-35 0.55857650111546575 1.0000000180025095e-35 0.93933823529411764 0.24264705882352941
decision_type=2 2 2 2 2 2 2 2 2 2 2 2 2 2
left_child=1 3 5 -1 10 -2 12 -3 -9 -6 -5 -12 -4 -7
right_child=2 7 6 4 9 13 -8 8 -10 -11 11 -13 -14 -15
leaf_value=-0.019838605932639169 -0.061961470214546135 0.02633953058582866 -0.038077521273536211 -0.03202354267874661 0.076593622192686783 -0.06450491014166361 0.016800335878058851 0.077606643202243739 0.025980095885471302 -0.0075134466915384836 -0.049485212010260328 0.064125238422875278 0.004531828118454621 -0.024380103262013071
leaf_weight=313.56476749945432 963.89872025488876 120.77880928479135 209.09056700160727 23.675092130899429 31.360542772337794 115.82263865275308 308.84045313112438 832.69557426124811 117.51545943878591 237.01256106141955 16.319551102817059 235.35272977128625 127.16762820631266 385.20981208607554
leaf_count=2392 13272 507 2055 77 107 1598 1789 1094 544 1954 39 427 735 3698
internal_value=-2.71181e-10 0.0408572 -0.0373378 0.00924647 0.0260199 -0.0522804 -0.00340525 0.0661603 0.0712218 0.00231482 0.0491245 0.0567582 -0.0219633 -0.0336557
internal_weight=4038.3 1928.28 2110.03 857.285 543.72 1464.93 645.099 1070.99 950.211 268.373 275.347 251.672 336.258 501.032
internal_count=30288 7141 23147 4996 2604 18568 4579 2145 1638 2061 543 466 2790 5296
is_linear=0
shrinkage=0.05


Tree=4
num_leaves=15
num_cat=0
split_feature=14 12 12 14 14 14 11 14 9 24 5 0 12 5
split_gain=2146.56 520.748 351.331 125.843 101.819 123.247 101.091 96.4444 74.8426 60.6738 59.5976 56.473 47.6529 43.3835
threshold=0.012900017201900451 0.84807692307692317 0.82843137254901966 -7.6368078589461583e-05 -1.0000000180025095e-35 1.0000000180025095e-35 0.60555555555555574 1.0000000180025095e-35 0.073622402890695507 0.40809465205421813 1.0000000180025095e-35 18.439100541579403 0.24264705882352941 1.0000000180025095e-35
decision_type=2 2 2 2 2 2 2 2 2 2 2 2 2 2
left_child=1 3 6 13 11 -6 -2 9 -4 -5 -9 -3 -8 -1
right_child=2 4 8 7 5 -7 12 10 -10 -11 -12 -13 -14 -15
leaf_value=0.035913388337859196 -0.058232368364049103 -0.0046718054477914881 -0.025269795214662168 -0.053614618800731345 0.074044550593274361 0.023912907208216618 -0.060241654708905593 0.063660407304123243 0.013793733271738202 0.054039397405843848 -0.010080369831873487 0.056329665633890517 -0.02294770783456777 -0.02808807951634661
leaf_weight=29.740335704758763 946.81567839719355 84.698407929390669 195.79931651242077 14.028496637940405 816.53619026765227 144.26074532419443 108.32368645071983 31.744433242827654 328.05230154190212 195.26992826163769 200.22028995212168 68.725498873740435 409.30665850453079 241.37678517308086
leaf_count=156 13936 505 1597 48 1153 733 1598 102 1866 420 1770 201 4150 2053
internal_value=2.12111e-10 0.0391308 -0.0359485 0.00574268 0.0604775 0.0665174 -0.0485191 0.0222151 -0.000806989 0.0468237 1.10749e-05 0.0226535 -0.0307522 -0.0210674
internal_weight=3814.9 1826.6 1988.3 712.38 1114.22 960.797 1464.45 441.263 523.852 209.298 231.965 153.424 517.63 271.117
internal_count=30288 7141 23147 4549 2592 1886 19684 2340 3463 468 1872 706 5748 2209
is_linear=0
shrinkage=0.05


Tree=5
num_leaves=15
num_cat=0
split_feature=14 12 12 11 9 14 14 14 14 12 1 3 9 12
split_gain=1805.7 461.933 310.735 142.033 112.041 93.4318 115.451 82.8309 67.302 60.9694 51.0941 40.1047 39.7722 38.6826
threshold=0.012900017201900451 0.84807692307692317 0.93541666666666667 0.41885964912280699 0.040833333333333312 -1.0000000180025095e-35 1.0000000180025095e-35 -7.6368078589461583e-05 1.0000000180025095e-35 0.6132478632478634 0.84848880767822277 0.93158742785453807 0.017000577923328802 0.44722222222222224
decision_type=2 2 2 2 2 2 2 2 2 2 2 2 2 2
left_child=1 4 3 -2 -1 10 -7 -6 -9 11 -3 -5 -11 -10
right_child=2 5 -4 9 7 6 -8 8 13 12 -12 -13 -14 -15
leaf_value=-0.041075115542784806 -0.059649264430395844 -0.00157467427930293 0.016358257808226619 -0.047774976842389148 -0.011688863790246272 0.071109280414861323 0.021595995199736203 0.049724605237832079 -0.030776413658825386 -0.04410011538646489 0.059256509286245401 -0.010949429800182802 -0.0082510827317495879 0.020608292240905393
leaf_weight=111.45639680465683 667.119774161838 94.046052858233452 266.10982533916831 425.77126659546047 205.90108042536303 768.57243057154119 139.02896503917873 180.36554285883904 49.876555592752993 99.334533107466996 54.53621506690979 89.468475988134742 349.87802906613797 137.86213783267885
leaf_count=1089 10507 538 1424 5850 1592 1153 733 398 578 1203 168 1095 3068 892
internal_value=-1.55579e-10 0.0367632 -0.0337404 -0.0419115 0.00479947 0.0575076 0.0635247 0.0137071 0.0279124 -0.0296421 0.020753 -0.0413804 -0.0161784 0.00695691
internal_weight=3639.33 1741.65 1897.68 1631.57 685.462 1056.18 907.601 574.005 368.104 964.452 148.582 515.24 449.213 187.739
internal_count=30288 7141 23147 21723 4549 2592 1886 3460 1868 11216 706 6945 4271 1470
is_linear=0
shrinkage=0.05


Tree=6
num_leaves=15
num_cat=0
split_feature=14 12 12 11 9 1 14 14 12 11 5 14 14 5
split_gain=1583.86 415.825 261.892 100.857 78.6245 77.8727 76.837 105.91 67.0623 52.1134 46.8848 43.7563 38.8543 38.6688
threshold=0.012900017201900451 0.84807692307692317 0.82843137254901966 0.36038961038961043 0.013423423423423403 0.51193851232528698 1.0000000180025095e-35 -1.0000000180025095e-35 0.97500000000000009 0.60555555555555574 1.0000000180025095e-35 -7.6368078589461583e-05 8.4941089153300911e-05 1.0000000180025095e-35
decision_type=2 2 2 2 2 2 2 2 2 2 2 2 2 2
left_child=1 3 4 -1 -2 -5 7 10 -4 -6 -3 -7 -13 -10
right_child=2 6 8 5 9 11 -8 -9 13 -11 -12 12 -14 -15
leaf_value=-0.045826808009502951 -0.060455128011341966 0.070971471116938897 -0.011709640356278181 -0.025859738160371699 -0.045844845232682119 -0.0015218937556784301 0.020450372129986627 0.068576524812790585 0.059661808534342192 -0.021032665333970933 0.0043826230941846457 0.047535299651549019 0.012596324224633373 0.003261938171058932
leaf_weight=86.698941858951002 465.85587830143049 35.324106637388468 361.04193083010614 109.99643390858546 481.772866636049 148.70034875208512 135.71285319700837 727.74365830421448 60.276659913361073 377.39321248140186 105.03919716924429 171.29359664954245 148.60250424873084 61.295601071789861
leaf_count=956 7549 81 2945 932 7765 1161 733 1153 178 4370 625 393 1107 340
internal_value=-3.60025e-10 0.03512 -0.0324287 0.00446483 -0.0439146 0.0120008 0.0554371 0.0609066 -0.000894118 -0.034946 0.0211405 0.020888 0.031305 0.0312255
internal_weight=3476.75 1669.11 1807.64 665.292 1325.02 578.593 1003.82 868.107 482.614 859.166 140.363 468.596 319.896 121.572
internal_count=30288 7141 23147 4549 19684 3593 2592 1859 3463 12135 706 2661 1500 518
is_linear=0
shrinkage=0.05


Tree=7
num_leaves=15
num_cat=0
split_feature=14 12 12 9 0 14 14 9 14 14 24 3 0 15
split_gain=1385.95 369.299 232.012 83.0198 70.0028 69.6918 93.2857 62.2962 58.7605 67.9853 51.3776 46.3172 44.4856 42.6773
threshold=0.012900017201900451 0.84807692307692317 0.7947368421052633 0.030776515151515155 10.630002447640662 -1.0000000180025095e-35 1.0000000180025095e-35 0.013423423423423403 -1.0000000180025095e-35 1.0000000180025095e-35 0.99198722210667711 0.94983473420143139 18.439100541579403 1.0000000180025095e-35
decision_type=2 2 2 2 2 2 2 2 2 2 2 2 2 2
left_child=1 3 7 13 -4 12 -7 -2 -5 -10 -6 -9 -3 -1
right_child=2 5 4 8 10 6 -8 11 9 -11 -12 -13 -14 -15
leaf_value=-0.0648092335830288 -0.059173966451749084 -0.0054228271158167432 -0.021505607128127963 -0.0091451521912912174 0.03058156052886693 0.066224009068448081 0.020226341644483503 -0.040198453075741762 0.048310644305520185 0.0035219327972181255 -0.014607183454226628 -0.0057706410902711169 0.052615840034166583 0.0061122179447227329
leaf_weight=59.46479248162359 410.8303790143691 75.436363346874714 287.21768773952499 209.238676618319 170.82622264511883 688.106041835621 131.25050332024693 654.32177367876284 159.55938054807484 180.65323606133461 99.559467056766152 114.83899565087631 58.712686261162162 32.974480802193284
leaf_count=770 7142 505 2790 1694 1014 1153 733 10004 338 1502 775 1422 201 245
internal_value=-5.51458e-11 0.0336486 -0.0308949 0.00432913 -0.00431658 0.0533862 0.0588558 -0.0434545 0.0117047 0.0245278 0.0139425 -0.0350582 0.0199788 -0.0395105
internal_weight=3332.99 1595.4 1737.59 641.891 557.603 953.506 819.357 1179.99 549.451 340.213 270.386 769.161 134.149 92.4393
internal_count=30288 7141 23147 4549 4579 2592 1886 18568 3534 1840 1789 11426 706 1015
is_linear=0
shrinkage=0.05


Tree=8
num_leaves=15
num_cat=0
split_feature=14 12 12 11 11 1 3 12 14 11 7 11 14 1
split_gain=1206.33 326.465 206.505 109.646 107.496 86.632 67.7175 48.6153 41.7825 36.1624 40.8505 33.5531 29.3544 36.9139
threshold=0.012900017201900451 0.91287878787878796 0.93541666666666667 0.80625000000000013 0.41885964912280699 1.0000000180025095e-35 0.68703916668891918 0.24264705882352941 1.0000000180025095e-35 0.7947368421052633 1.0000000180025095e-35 0.39444444444444443 -1.0000000180025095e-35 0.84848880767822277
decision_type=2 2 2 2 2 2 2 2 2 2 2 2 2 2
left_child=1 3 4 6 -2 -5 -1 -6 12 10 -9 -8 13 -3
right_child=2 8 -4 5 7 -7 11 9 -10 -11 -12 -13 -14 -15
leaf_value=-0.036425155178936706 -0.053202391466547719 -0.0076915997342058909 0.013555552779814711 -0.067373332198028879 -0.051520394306652201 0.0365796175352344 -0.031922662301655302 -0.013611626154640705 0.019642498295298967 -0.0062799643365147075 -0.04475168357007233 0.012992344014964836 0.064817618585643388 0.065974572405046991
leaf_weight=127.99138020304963 578.30867192335427 33.180522540584207 240.07945208624005 21.228372784331441 146.59823608119041 358.67636871524155 48.74538372643292 209.82609713729471 67.265930008143187 289.17267101537436 211.44835202582181 282.88861885899678 565.98412155546248 34.884868152439594
leaf_count=1449 10507 203 1424 197 2528 1477 539 2634 345 2825 3229 1865 977 89
internal_value=3.49431e-10 0.0319309 -0.0293659 0.0108956 -0.036545 0.0307709 -0.00553234 -0.025305 0.0571117 -0.0198956 -0.0292416 0.00639049 0.0610868 0.0300638
internal_weight=3216.28 1540.85 1675.43 839.53 1435.35 379.905 459.625 857.045 701.315 710.447 421.274 331.634 634.05 68.0654
internal_count=30288 7141 23147 5527 21723 1674 3853 11216 1614 8688 5863 2404 1269 292
is_linear=0
shrinkage=0.05


Tree=9
num_leaves=15
num_cat=0
split_feature=14 12 12 11 14 14 14 14 12 12 24 5 11 7
split_gain=1077.07 301.65 179.858 93.0742 79.1049 56.2691 52.7703 59.4321 41.9207 38.8581 36.712 35.1638 32.074 36.0988
threshold=0.012900017201900451 0.86190476190476206 0.93541666666666667 0.41885964912280699 -0.0024023428559302499 8.4941089153300911e-05 1.0000000180025095e-35 -1.0000000180025095e-35 0.24264705882352941 0.39444444444444443 0.40809465205421813 1.0000000180025095e-35 0.7947368421052633 1.0000000180025095e-35
decision_type=2 2 2 2 2 2 2 2 2 2 2 2 2 2
left_child=1 4 3 -2 -1 10 7 11 -5 -7 -6 -3 13 -10
right_child=2 6 -4 8 5 9 -8 -9 12 -11 -12 -13 -14 -15
leaf_value=-0.020232652532604915 -0.051105466658581983 0.068034915793940651 0.012077578154144024 -0.049568962969265468 -0.053460894034573631 -0.042466173313131753 0.01762162819362174 0.062697138037892203 -0.013650532828774695 0.00924393195267653 0.036328059765560652 0.0017316000969954443 -0.0065774386179143834 -0.043494964151071021
leaf_weight=196.00062870373949 550.34343775734305 27.993004113435745 235.9044695943594 139.45581803354435 11.900759931653736 45.81958232820034 98.446217443794012 594.05703885108232 203.35020242026076 175.42637163354084 262.26339052245021 70.007407143712044 282.66389820165932 201.94492158852518
leaf_count=1956 10507 70 1424 2528 51 655 544 1094 2634 1330 1004 437 2825 3229
internal_value=2.19681e-10 0.0307762 -0.0282635 -0.0351708 0.00665528 0.017293 0.0518735 0.0567459 -0.0245721 -0.00146512 0.0324306 0.0206706 -0.019505 -0.028521
internal_weight=3095.58 1481.91 1613.66 1377.76 691.411 495.41 790.504 692.057 827.415 221.246 274.164 98.0004 687.959 405.295
internal_count=30288 7141 23147 21723 4996 3040 2145 1601 11216 1985 1055 507 8688 5863
is_linear=0
shrinkage=0.05


Tree=10
num_leaves=15
num_cat=0
split_feature=14 12 12 11 3 11 1 3 9 22 9 14 12 12
split_gain=968.884 277.141 161.862 90.516 64.6834 64.2516 61.8719 54.2656 44.8778 41.8075 36.796 34.3893 32.4578 31.0569
threshold=0.012900017201900451 0.91287878787878796 0.69615384615384623 0.82843137254901966 0.95734539628028892 0.7947368421052633 1.0000000180025095e-35 0.94983473420143139 0.054299754299754262 0.18465909090909091 0.080540540540540509 1.0000000180025095e-35 0.97500000000000009 0.39444444444444443
decision_type=2 2 2 2 2 2 2 2 2 2 2 2 2 2
left_child=1 3 7 4 9 10 -5 -2 -6 13 -4 -3 -7 -1
right_child=2 11 5 6 8 12 -8 -9 -10 -11 -12 -13 -14 -15
leaf_value=-0.061340397291300468 -0.045420805561883271 0.058235660693389195 -0.037096756462570539 -0.061152231158335825 0.063422826742278476 0.00022313414004154991 0.033563768622910231 -0.0059479032457147168 0.0031678347360091412 0.015294535614198796 -0.0063184200975238448 0.019426570255571818 0.040245589096022841 -0.018406676272137906
leaf_weight=56.258112432900816 797.99026716407388 572.06731943506747 192.91102918423712 18.169773783534765 45.383003501221538 207.28990919794887 337.65363151859492 97.733434259425849 96.845209903083742 69.103467875160277 195.53469472751021 63.408596020191908 67.042670432478189 167.62211311748251
leaf_count=819 14888 1269 2729 196 189 1749 1467 1351 746 540 2166 345 264 1570
internal_value=4.73516e-11 0.0297748 -0.0272531 0.0100218 -0.00527156 -0.00852083 0.0287272 -0.0411139 0.0223943 -0.0187019 -0.0216036 0.0543632 0.010004 -0.0291953
internal_weight=2985.01 1426.51 1558.5 791.035 435.212 662.778 355.823 895.724 142.228 292.984 388.446 635.476 274.333 223.88
internal_count=30288 7141 23147 5527 3864 6908 1663 16239 935 2929 4895 1614 2013 2389
is_linear=0
shrinkage=0.05


Tree=11
num_leaves=15
num_cat=0
split_feature=14 14 11 1 5 26 9 15 27 3 11 5 12 24
split_gain=866.238 323.079 194.513 122.293 71.7529 60.0849 56.1518 45.8853 36.5599 32.2073 31.9577 31.9259 29.3778 26.9958
threshold=8.4941089153300911e-05 -1.0000000180025095e-35 0.34166666666666673 0.61224889755249035 1.0000000180025095e-35 0.4330357142857143 0.014389233954451302 1.0000000180025095e-35 0.49374151441512987 0.95536091923713695 0.8973684210526317 1.0000000180025095e-35 0.6132478632478634 0.93998077186651618
decision_type=2 2 2 2 2 2 2 2 2 2 2 2 2 2
left_child=1 4 -2 6 -1 8 -4 -6 9 10 -5 -11 -8 -7
right_child=2 -3 3 5 7 13 12 -9 -10 11 -12 -13 -14 -15
leaf_value=0.048237731742278335 -0.050865297340593155 0.053965805597724896 -0.05492128987707065 -0.007079023329030521 -0.04406823064070553 0.0037598240282655966 -0.028665101028961162 -0.0011437519123753874 -0.055537336925670693 0.053170981235917819 0.025489389740174968 0.0087536527380118381 0.00074786577049405431 -0.027966047203506525
leaf_weight=53.533928800374269 422.90966174495406 739.75841710343957 160.59161413833499 211.83841552957892 91.372551843523979 100.72783519420773 289.40656310250051 195.40160494204611 19.960360269993544 83.843928972259164 116.88087672647089 78.176667368039489 120.13590112701058 200.55503015918657
leaf_count=237 8584 1668 3057 2275 1187 1100 4744 1557 251 428 666 654 1144 2736
internal_value=6.83011e-11 0.0354181 -0.021193 -0.0121136 -0.00490074 0.000349085 -0.029863 -0.0148204 0.0107959 0.0134939 0.00450114 0.0317391 -0.0200371 -0.0173591
internal_weight=2885.09 1080.07 1805.03 1382.12 340.308 811.983 570.134 286.774 510.7 490.74 328.719 162.021 409.542 301.283
internal_count=30288 4649 25639 17055 2981 8110 8945 2744 4274 4023 2941 1082 5888 3836
is_linear=0
shrinkage=0.05


Tree=12
num_leaves=15
num_cat=0
split_feature=14 14 11 1 14 5 12 14 15 9 24 12 3 3
split_gain=763.543 250.094 161.76 97.3307 81.4025 61.6983 47.324 40.4861 38.4359 35.7218 33.1396 37.1399 26.6666 25.0066
threshold=0.0017964854836463502 -1.0000000180025095e-35 0.34166666666666673 0.56665930151939403 1.0000000180025095e-35 1.0000000180025095e-35 0.93541666666666667 0.039592394217782156 1.0000000180025095e-35 0.014389233954451302 0.40809465205421813 0.74342105263157909 0.94983473420143139 0.94983473420143139
decision_type=2 2 2 2 2 2 2 2 2 2 2 2 2 2
left_child=1 5 -2 9 10 13 7 -5 -7 -4 11 -3 -9 -1
right_child=2 4 3 6 -6 8 -8 12 -10 -11 -12 -13 -14 -15
leaf_value=-0.024859966339639245 -0.049842953604084354 -0.097283121648540402 -0.057852948407865236 0.0066338492193976518 0.0070803486199758018 -0.041575677295873387 0.016124942826668865 -0.025854194868427452 -0.0016948313576948986 -0.024250352755948869 0.05476375074268091 0.051280519887151127 0.0061187782684114988 0.062148684879766707
leaf_weight=10.277342688292263 391.25409301556647 7.6853602156043079 110.69877282064408 223.00726160570048 112.02007559873164 87.599041470326483 223.32233885582536 339.89906781679019 194.68893307913095 276.99970482429489 674.34974094014615 9.2944757454097253 80.696833343245089 42.026020813733339
leaf_count=98 8478 41 2329 2225 905 1187 1366 5241 1557 4330 1497 17 878 139
internal_value=1.46547e-10 0.0314924 -0.0217735 -0.01302 0.0466198 -0.00482854 -0.00370689 -0.0105883 -0.0140706 -0.0338448 0.0530266 -0.0159619 -0.0197198 0.0450519
internal_weight=2783.82 1137.94 1645.88 1254.62 803.35 334.591 866.926 643.603 282.288 387.698 691.33 16.9798 420.596 52.3034
internal_count=30288 5441 24847 16369 2460 2981 9710 8344 2744 6659 1555 58 6119 237
is_linear=0
shrinkage=0.05


Tree=13
num_leaves=15
num_cat=0
split_feature=14 12 12 14 14 11 9 14 14 24 15 9 12 5
split_gain=692.547 219.204 126.928 53.2297 47.8341 46.9479 39.5282 38.9214 44.7519 35.1619 36.0651 27.9973 26.8857 26.3028
threshold=0.012900017201900451 0.86190476190476206 0.82843137254901966 -7.6368078589461583e-05 8.4941089153300911e-05 0.41885964912280699 0.073622402890695507 1.0000000180025095e-35 -1.0000000180025095e-35 0.66108096968816443 1.0000000180025095e-35 0.025320512820512803 0.24264705882352941 1.0000000180025095e-35
decision_type=2 2 2 2 2 2 2 2 2 2 2 2 2 2
left_child=1 3 5 11 9 -2 -4 8 -3 10 -5 -1 -7 -8
right_child=2 7 6 4 -6 12 13 -9 -10 -11 -12 -13 -14 -15
leaf_value=-0.055936801595382883 -0.046132619554945763 0.018675824785159317 -0.020954429622757592 -0.10317824460412928 -0.0012563488802787397 -0.04543112771000412 0.032454435945641562 0.015870449951343131 0.057169744794061006 0.041538139326961258 0.026284506023937851 -0.0068803907901930188 -0.018960404734577704 -0.00088722302626311378
leaf_weight=34.376379663124681 426.62901968345977 89.318045265972614 143.42892506252974 8.903431735932827 195.4103886175435 120.52687460905872 96.345081690698862 90.028230240568519 488.1659420710057 171.08454697299749 13.591296333819628 188.94456723239273 469.93377436744049 153.22532902099192
leaf_count=566 9988 507 1597 60 1985 2528 622 544 1094 517 42 1826 7168 1244
internal_value=1.03223e-10 0.0266302 -0.02417 0.00502476 0.0161949 -0.0334949 -3.71275e-05 0.0464489 0.051216 0.0338111 -0.024957 -0.0144318 -0.0243637 0.0119841
internal_weight=2689.91 1279.82 1410.09 612.311 388.99 1017.09 392.999 667.512 577.484 193.579 22.4947 223.321 590.461 249.57
internal_count=30288 7141 23147 4996 2604 19684 3463 2145 1601 619 102 2392 9696 1866
is_linear=0
shrinkage=0.05


Tree=14
num_leaves=15
num_cat=0
split_feature=14 12 11 12 14 14 14 11 3 5 24 0 1 14
split_gain=630.973 200.956 116.613 70.2572 48.5949 35.5275 40.5082 35.1276 32.6152 27.1576 58.4654 26.6711 26.3376 25.5509
threshold=0.012900017201900451 0.86190476190476206 0.41885964912280699 0.7947368421052633 -0.021584269553422897 1.0000000180025095e-35 -1.0000000180025095e-35 0.81534090909090917 0.49990953505039221 1.0000000180025095e-35 0.99198722210667711 18.439100541579403 1.0000000180025095e-35 0.11159594306579002
decision_type=2 2 2 2 2 2 2 2 2 2 2 2 2 2
left_child=1 4 -2 -4 -1 6 11 8 -6 10 -5 -3 -9 -11
right_child=2 5 3 9 7 -7 -8 12 -10 13 -12 -13 -14 -15
leaf_value=-0.027347614905812025 -0.043705513660517059 -0.0075553819721298062 -0.024864715090506955 0.038286902030219644 -0.037597184282193899 0.015929286159174053 0.056051575554658374 -0.048692600906108961 0.0073260340876614653 0.00441301624471212 -0.059736807335273256 0.047666603693470512 0.029362915864074815 -0.029608724987272142
leaf_weight=96.89818686619401 464.90465460950509 45.519355971366167 521.19850411312655 99.659797842614353 49.658532094210386 87.979917768388987 462.64734357688576 11.362345805391667 216.78435299172997 189.21652079187334 17.951741073280573 42.077264189720154 221.14837395725772 77.909410540945828
leaf_count=1195 10759 350 9000 626 718 544 1094 119 1906 1570 248 157 1058 944
internal_value=2.40343e-10 0.0259359 -0.0233483 -0.0129015 0.00505413 0.0454313 0.0501484 0.0113466 -0.00104657 0.00330486 0.023325 0.0189706 0.0255485 -0.0055097
internal_weight=2604.92 1234.08 1370.84 905.936 595.852 638.224 550.244 498.954 266.443 384.737 117.612 87.5966 232.511 267.126
internal_count=30288 7141 23147 12388 4996 2145 1601 3801 2624 3388 874 507 1177 2514
is_linear=0
shrinkage=0.05


Tree=15
num_leaves=15
num_cat=0
split_feature=14 14 11 1 14 2 11 3 25 9 1 24 12 1
split_gain=569.387 187.683 123.416 77.1371 64.0629 49.1432 39.1813 51.3213 34.9852 31.1782 24.4386 20.6262 25.9224 20.0454
threshold=0.0017964854836463502 -1.0000000180025095e-35 0.34166666666666673 0.56665930151939403 1.0000000180025095e-35 0.042164555038725203 0.88562091503267981 0.94597187638282787 0.10818713450292396 0.014389233954451302 0.50016427040100109 0.40809465205421813 0.74342105263157909 0.67451247572898876
decision_type=2 2 2 2 2 2 2 2 2 2 2 2 2 2
left_child=1 5 -2 9 11 10 7 13 -9 -4 -1 12 -3 -5
right_child=2 4 3 6 -6 -7 -8 8 -10 -11 -12 -13 -14 -15
leaf_value=-0.046182982235973002 -0.045921393395779574 -0.087786186690061316 -0.055239387129883133 -0.02929421237479525 0.0075722146211959045 0.04765975230358134 0.015034583235677856 0.05647895464934647 0.00093622396144242147 -0.022051078044877503 -0.0046969958850826797 0.051044945993222825 0.048987362455407329 -0.0082346392132984936
leaf_weight=42.046185404993594 342.1070319886785 6.1007039397954932 97.940259238239378 211.2137455556076 106.9012816217728 40.892462903633714 215.12991443183273 39.478923195973039 100.58277556486428 255.0439545311965 227.96945138415322 583.23483387380838 8.0162572823464853 242.98594781197608
leaf_count=634 8478 41 2329 3573 905 200 1652 218 1181 4330 2147 1497 17 3086
internal_value=1.07415e-12 0.0289354 -0.0195244 -0.0117553 0.04322 -0.00342116 -0.0032493 -0.00986829 0.0165919 -0.0312596 -0.0111571 0.0495995 -0.0101199 -0.0180278
internal_weight=2519.64 1015.16 1504.48 1162.38 704.253 310.908 809.391 594.261 140.062 352.984 270.016 597.352 14.117 454.2
internal_count=30288 5441 24847 16369 2460 2981 9710 8058 1399 6659 2781 1555 58 6659
is_linear=0
shrinkage=0.05


Tree=16
num_leaves=15
num_cat=0
split_feature=14 14 12 14 9 5 3 11 25 3 0 15 27 8
split_gain=516.393 161.678 106.319 80.0999 65.7818 45.6667 33.9267 50.9241 49.7217 32.0323 31.8281 30.8543 21.7018 19.8717
threshold=0.0033776164054869504 -1.0000000180025095e-35 0.44097222222222227 1.0000000180025095e-35 0.016597796143250656 1.0000000180025095e-35 0.94983473420143139 0.7947368421052633 0.10818713450292396 0.83300325274467479 14.32838582921044 1.0000000180025095e-35 0.48060835446195205 1.0000000180025095e-35
decision_type=2 2 2 2 2 2 2 2 2 2 2 2 2 2
left_child=1 5 9 -3 10 -1 7 -6 -8 -2 13 -7 -10 -4
right_child=2 3 4 -5 6 11 8 -9 12 -11 -12 -13 -14 -15
leaf_value=0.042091428301779074 -0.047037885008511152 0.048831101463007287 -0.049130619755158422 0.0065769717039681338 -0.020956667866469898 -0.037846626799970105 0.059910776182587715 0.0092419315712590541 0.0089058511601759916 -0.016432203912324927 0.013485173122834985 -6.6091268703649922e-05 -0.050339196398747565 -0.013078413216551532
leaf_weight=47.285176318138838 339.44104576669633 566.9369403719902 154.28227885253727 139.81991372723132 336.98159901681356 77.087587023153901 48.33658794965595 238.3375475439243 98.794757421594113 114.27236837917008 31.904368675779551 180.75433511473238 18.324231774546206 50.809443288017064
leaf_count=237 8349 1555 3515 1244 5586 1187 236 1996 1065 2254 353 1557 269 885
internal_value=2.12672e-11 0.0273397 -0.0193258 0.0404718 -0.0100435 -0.0030779 -0.00270798 -0.00844629 0.0172452 -0.0393295 -0.0329721 -0.0113614 -0.000363525 -0.040199
internal_weight=2443.37 1011.88 1431.48 706.757 977.771 305.127 740.775 575.319 165.456 453.713 236.996 257.842 117.119 205.092
internal_count=30288 5780 24508 2799 13905 2981 9152 7582 1570 10603 4753 2744 1334 4400
is_linear=0
shrinkage=0.05


Tree=17
num_leaves=15
num_cat=0
split_feature=14 12 11 1 14 11 3 14 9 25 1 11 5 9
split_gain=460.691 151.246 104.374 62.9212 41.9018 35.931 43.0594 27.1554 26.9145 24.1526 23.9762 23.5983 23.4284 21.0293
threshold=0.0033776164054869504 0.86190476190476206 0.34166666666666673 0.56665930151939403 -7.6368078589461583e-05 0.88562091503267981 0.94597187638282787 -1.0000000180025095e-35 0.014389233954451302 0.10818713450292396 0.86648672819137584 0.54195804195804198 1.0000000180025095e-35 0.030776515151515155
decision_type=2 2 2 2 2 2 2 2 2 2 2 2 2 2
left_child=1 4 -2 8 13 6 -5 10 -4 12 -3 -6 -8 -1
right_child=2 7 3 5 11 -7 9 -9 -10 -11 -12 -13 -14 -15
leaf_value=-0.048790753384076929 -0.044368434465675691 -0.0012226330818962754 -0.053139555089038205 -0.017565582705595544 -0.022068888091516473 0.01478555292070277 0.067020741327837904 0.04937876553431525 -0.020842042134763906 0.0019314447875028577 0.055531721234866896 0.024588206937820201 -0.046214322330323535 -0.0047919569773474547
leaf_weight=32.277447948232293 305.15669711190276 54.447751969099045 88.494394146837294 425.18498883838765 30.937719649635255 200.9649621527642 30.687263233587146 443.75373486615717 237.94261251902208 92.646591610275209 28.27149785682559 218.53008146770298 5.3668229114264241 171.19046848500147
leaf_count=613 8446 397 2319 6552 375 1587 129 1400 4267 1128 110 1106 80 1779
internal_value=-1.74151e-10 0.0262513 -0.0185444 -0.0112564 0.00506766 -0.00332469 -0.00989558 0.044476 -0.0295976 0.0154436 0.0181747 0.018802 0.0501652 -0.0117718
internal_weight=2365.85 979.409 1386.44 1081.29 452.936 754.851 553.886 526.473 326.437 128.701 82.7192 249.468 36.0541 203.468
internal_count=30288 5780 24508 16062 3873 9476 7889 1907 6586 1337 507 1481 209 2392
is_linear=0
shrinkage=0.05


Tree=18
num_leaves=15
num_cat=0
split_feature=14 14 11 1 2 1 3 11 25 12 9 4 14 2
split_gain=412.669 172.305 112.608 67.6227 42.8551 38.9149 32.6731 41.4132 26.6313 24.3933 26.172 21.3377 20.3176 23.6331
threshold=1.0000000180025095e-35 -1.0000000180025095e-35 0.34166666666666673 0.46509060263633734 0.042164555038725203 0.96252781152725231 0.95374056696891796 0.71825396825396837 0.10263157894736842 0.84807692307692317 0.09404481132075472 0.72140806437277749 0.082345068676502958 0.032860404614872059
decision_type=2 2 2 2 2 2 2 2 2 2 2 2 2 2
left_child=1 4 -2 -4 -1 6 7 -5 11 10 -3 -8 -9 -14
right_child=2 9 3 5 -6 -7 8 12 -10 -11 -12 -13 13 -15
leaf_value=-0.0094418571332128623 -0.04312161726278186 -0.0091730622517812912 -0.039117916939081579 -0.021848077713882919 0.04717677581069743 0.060920276242662455 0.063070719279870666 0.010351843166366231 0.002608960481268074 0.051919533170298841 0.041451099805150472 -0.021529215648117973 -0.029202230509701756 0.012070646557345237
leaf_weight=254.81162825925276 298.96894416073337 36.369180623441935 158.94975103856996 391.60303568723612 38.466673329472542 22.530035957694054 35.84253297559917 236.2389505431056 181.63657982507721 397.64536460489035 85.668466936796904 9.4100372521206719 90.270474490243942 56.32616323698312
leaf_count=2781 8603 177 3455 7269 200 97 153 2137 2005 1153 225 113 1363 557
internal_value=-2.15632e-10 0.028626 -0.0157054 -0.00877557 -0.0020157 -0.00406505 -0.00552723 -0.0104159 0.0111592 0.0459184 0.0263643 0.0454786 0.0012781 -0.0133441
internal_weight=2294.74 812.961 1481.78 1182.81 293.278 1023.86 1001.33 774.439 226.889 519.683 122.038 45.2526 382.836 146.597
internal_count=30288 4536 25752 17149 2981 13694 13597 11326 2271 1555 402 266 4057 1920
is_linear=0
shrinkage=0.05


Tree=19
num_leaves=15
num_cat=0
split_feature=14 14 11 12 7 11 5 12 15 14 12 24 15 14
split_gain=374.348 153.422 102.13 63.6758 42.6684 43.8629 36.4477 27.632 27.4214 23.025 22.5486 26.6574 30.8054 17.5809
threshold=0.00021522492170330005 -1.0000000180025095e-35 0.34166666666666673 0.324561403508772 1.0000000180025095e-35 0.82843137254901966 1.0000000180025095e-35 0.97500000000000009 1.0000000180025095e-35 0.11159594306579002 0.84807692307692317 0.70235417975995973 1.0000000180025095e-35 0.039592394217782156
decision_type=2 2 2 2 2 2 2 2 2 2 2 2 2 2
left_child=1 6 -2 -4 7 9 -1 13 -8 -6 11 12 -3 -5
right_child=2 10 3 4 5 -7 8 -9 -10 -11 -12 -13 -14 -15
leaf_value=0.039456453066903804 -0.042333633229136178 -0.10203345284641729 -0.034011785140922741 0.017638558610788412 -0.015879551954898315 0.0050676752004923777 -0.035669094850749712 0.038490993391102638 0.0011294237662665839 -0.046020460954305037 0.049403838002992084 0.03481958706651244 0.025547726326256834 -0.0045174193710129018
leaf_weight=44.565325025469065 283.46816138247959 8.2395101431757212 204.77766158804297 132.26906774938107 177.71283177146688 180.52318801544607 71.809971870854497 61.870812337845564 171.60733040142804 98.470193990971893 389.45847212895751 111.04650058876723 11.112899860367179 277.13904768740758
leaf_count=237 8553 61 4733 1320 2703 1536 1187 296 1557 2337 1245 433 43 4047
internal_value=7.97156e-12 0.0271605 -0.0154928 -0.00877599 -0.00320723 -0.0140984 -0.00211537 0.00734714 -0.00972642 -0.026626 0.0433783 0.0253821 -0.0287714 0.0026406
internal_weight=2224.07 807.84 1416.23 1132.76 927.985 456.706 287.983 471.279 243.417 276.183 519.857 130.399 19.3524 409.408
internal_count=30288 4763 25525 16972 12239 6576 2981 5663 2744 5040 1782 537 104 5367
is_linear=0
shrinkage=0.05


Tree=20
num_leaves=15
num_cat=0
split_feature=14 14 11 1 2 7 14 12 11 1 14 12 24 4
split_gain=344.292 150.933 89.1093 56.6666 34.5521 31.6609 49.6769 22.3637 21.0182 20.3818 20.0703 17.8293 21.1439 17.7354
threshold=1.0000000180025095e-35 -1.0000000180025095e-35 0.34166666666666673 0.45299330353736883 0.042164555038725203 1.0000000180025095e-35 0.083556793845657618 0.97500000000000009 0.60555555555555574 0.50016427040100109 0.039592394217782156 0.84807692307692317 0.61383512434847665 0.45440258285825025
decision_type=2 2 2 2 2 2 2 2 2 2 2 2 2 2
left_child=1 4 -2 13 9 7 8 10 -7 -1 -5 12 -3 -4
right_child=2 11 3 5 -6 6 -8 -9 -10 -11 -12 -13 -14 -15
leaf_value=-0.042246924009467231 -0.040125185974088477 -0.031918448890962597 0.0061622446592503955 0.015773462035654051 0.044433962091254914 -0.023567833213727508 -0.03433049918434488 0.032950728333218042 0.006296986359600922 -0.0020778450663135324 -0.0068282706268242913 0.050193681345954227 0.035294059652031314 -0.045712982371500142
leaf_weight=37.137441319413483 275.03207336948253 13.279948728159068 19.142163203563541 146.81211426970549 35.832861993461847 78.839370381552726 178.40557099878788 60.958915408700705 233.10066481074318 210.98723276518285 296.77612745855004 356.79050851333886 98.416823919862509 118.30988605227321
leaf_count=634 8603 85 368 1596 200 1416 3723 297 2223 2147 4701 1153 317 2825
internal_value=-1.92286e-11 0.0273019 -0.0145968 -0.00839623 -0.001462 -0.00423873 -0.0132865 0.0045544 -0.00125101 -0.00809005 0.000652108 0.0447361 0.027303 -0.0384886
internal_weight=2159.82 752.445 1407.38 1132.34 283.958 994.893 490.346 504.547 311.94 248.125 443.588 468.487 111.697 137.452
internal_count=30288 4536 25752 17149 2981 13956 7362 6594 3639 2781 6297 1555 402 3193
is_linear=0
shrinkage=0.05


Tree=21
num_leaves=15
num_cat=0
split_feature=14 14 12 9 5 3 2 1 2 1 14 4 27 11
split_gain=308.627 140.272 85.9494 52.7749 30.9459 29.8876 24.6005 24.1951 22.0128 21.3767 17.646 18.1588 27.0174 17.4783
threshold=1.0000000180025095e-35 -1.0000000180025095e-35 0.44097222222222227 0.016597796143250656 1.0000000180025095e-35 0.83300325274467479 0.025019831509053903 0.96252781152725231 0.04451366696393675 0.56504216790199291 0.021038277447223502 0.50130119841854415 0.49374151441512987 0.64495798319327735
decision_type=2 2 2 2 2 2 2 2 2 2 2 2 2 2
left_child=1 4 5 9 -1 -2 -6 8 10 -4 -5 12 -12 -13
right_child=2 -3 3 7 6 -7 -8 -9 -10 -11 11 13 -14 -15
leaf_value=0.037675943834810793 -0.04235537124916991 0.043774833950446304 -0.052946484225660895 0.0083496594289460616 -0.025700129563046698 -0.011891390982487388 0.0065392895874598874 0.058800972234164209 0.033244233429248725 -0.01794912316374048 0.018091675663232398 -0.02670431506905474 -0.049518102899693418 -0.0045874759220263682
leaf_weight=43.06336185336113 281.95075740246102 445.86854803003371 61.244526350405067 220.77521576499566 110.17165399249643 112.69058315875009 127.82219423819333 17.179797908291221 43.634066805243492 151.72762786247768 101.4872926720418 158.95481481100433 17.294239957816899 203.93869008217007
leaf_count=237 8476 1555 1989 2016 1600 2457 1144 77 296 2891 1500 3306 352 2392
internal_value=-1.2942e-10 0.0263365 -0.0139653 -0.00600525 -0.00132751 -0.0336563 -0.00838492 0.00013563 -0.00121523 -0.0280133 -0.00335575 -0.00872091 0.00824789 -0.0142751
internal_weight=2097.8 726.926 1370.88 976.236 281.057 394.641 237.994 763.264 746.084 212.972 702.45 481.675 118.782 362.894
internal_count=30288 4536 25752 14819 2981 10933 2744 9939 9862 4880 9566 7550 1852 5698
is_linear=0
shrinkage=0.05


Tree=22
num_leaves=15
num_cat=0
split_feature=14 12 11 12 14 14 9 4 14 3 2 26 27 11
split_gain=276.973 112.123 58.6048 34.5242 34.3642 30.8828 30.7069 20.8681 25.8231 20.3831 19.1866 21.9683 18.8068 18.7635
threshold=0.017972568968931801 0.84807692307692317 0.41885964912280699 0.93541666666666667 1.0000000180025095e-35 -1.0000000180025095e-35 0.022991543340380501 0.50130119841854415 0.084432889844257605 0.93948701024055492 0.026057866431563301 1.0000000180025095e-35 0.48060835446195205 0.29705882352941176
decision_type=2 2 2 2 2 2 2 2 2 2 2 2 2 2
left_child=1 6 9 7 5 10 -1 12 -9 -2 -3 -12 -4 -8
right_child=2 4 3 -5 -6 -7 13 8 -10 -11 11 -13 -14 -15
leaf_value=-0.03436505926331164 -0.039735636754775698 -0.024561225418784846 0.012739127320254643 0.012160464374444844 0.010495706719572766 0.048594755357715187 -0.040288700195926959 -0.0076762925574046237 -0.031644578775345739 0.0011047706009258934 -0.034798481418970482 0.040348196543950138 -0.03828916956821999 0.0080503058990115204
leaf_weight=54.692031249403954 294.75033475691453 22.157369973137975 96.507442536763847 141.16824876237661 116.865333260037 321.35055329464376 21.176293524214998 212.21095344703645 238.86916625406593 34.084120894316584 11.540820237249134 61.833770678378642 22.212337180972099 386.04784643603489
leaf_count=1025 9868 243 1506 1093 901 1153 423 3564 5290 699 112 351 449 3611
internal_value=1.28113e-10 0.0188485 -0.0180484 -0.00997556 0.0344575 0.0411747 0.000812145 -0.0154598 -0.0203687 -0.0355025 0.0162152 0.0285287 0.00319179 0.0055366
internal_weight=2035.47 995.664 1039.8 710.968 533.748 416.883 461.916 569.8 451.08 328.834 95.532 73.3746 118.72 407.224
internal_count=30288 7819 22469 11902 2760 1859 5059 10809 8854 10567 706 463 1955 4034
is_linear=0
shrinkage=0.05


Tree=23
num_leaves=15
num_cat=0
split_feature=11 3 14 11 9 14 1 25 19 1 12 23 2 27
split_gain=250.374 103.863 70.2994 62.4738 34.9581 36.5839 34.8798 31.3194 23.7027 22.8681 19.917 14.2999 13.9642 13.5446
threshold=0.87083333333333346 0.94597187638282787 1.0000000180025095e-35 0.41885964912280699 0.07207792207792206 0.017096851207315852 1.0000000180025095e-35 0.10818713450292396 -1.0000000180025095e-35 0.67451247572898876 0.24264705882352941 0.97368421052631593 0.034068537255481403 0.019095659509643505
decision_type=2 2 2 2 2 2 2 2 2 2 2 2 2 2
left_child=1 3 6 -1 9 -6 -2 8 -3 13 -4 -8 -7 -5
right_child=2 7 10 4 5 12 11 -9 -10 -11 -12 -13 -14 -15
leaf_value=-0.037846644727286285 -0.063399711896515359 -0.0027565529159478824 -0.040599359865456944 -0.04573047695695838 0.014127624972668344 -0.023639672935294929 0.043342101223628221 0.0034575174691812783 0.057483338090306604 -0.00557641030485882 0.0099055292730796385 -0.0055556876758881598 0.0044439323907754643 -0.015485919042490732
leaf_weight=338.60235213208944 8.1283002104610187 23.035815630108118 21.104167094454169 119.45544856134802 184.81284999824129 161.89661069540307 357.60513059003279 229.05608713533729 56.08936570584774 92.623812628444284 260.177868232131 15.604321051388977 60.919821774587035 53.640235010534525
leaf_count=11087 125 264 510 2860 1638 3480 1529 2934 330 1214 2341 66 811 1099
internal_value=-4.88632e-11 -0.0125879 0.0250788 -0.0203275 -0.0115177 -0.00231949 0.039066 0.0128258 0.0399456 -0.0256283 0.00611622 0.0412976 -0.0159614 -0.0363581
internal_weight=1982.75 1320.13 662.62 1011.95 673.349 407.629 381.338 308.181 79.1252 265.719 281.282 373.209 222.816 173.096
internal_count=30288 25717 4571 22189 11102 5929 1720 3528 594 5173 2851 1595 4291 3959
is_linear=0
shrinkage=0.05


Tree=24
num_leaves=15
num_cat=0
split_feature=12 14 14 11 4 1 1 9 12 11 1 14 11 2
split_gain=230.824 106.305 64.438 40.8555 35.5902 26.9833 26.5002 22.6757 22.4805 20.1108 18.2307 18.1218 18.0868 15.5889
threshold=0.93541666666666667 0.039592394217782156 1.0000000180025095e-35 0.86190476190476206 0.50130119841854415 0.50016427040100109 1.0000000180025095e-35 0.082207207207207159 0.24264705882352941 0.7947368421052633 0.96252781152725231 0.24022956292759209 0.28991596638655465 0.012594341989162502
decision_type=2 2 2 2 2 2 2 2 2 2 2 2 2 2
left_child=1 3 -2 5 7 -1 -5 11 -6 -10 -4 -3 -7 -11
right_child=2 4 10 6 8 12 -8 -9 9 13 -12 -13 -14 -15
leaf_value=-0.037910887444781188 0.044242938310607972 0.011633830763793502 0.0039707939377494937 -0.051988246818721322 -0.051864643925875566 -0.038074448897289559 0.024401162759647845 0.011391622902541372 -0.031659421369203487 0.042931634159650109 0.056699285498881848 -0.040650752952082647 0.0024683955132683189 -0.014204894632927432
leaf_weight=55.001558099407703 291.62024773424491 23.947773192077875 199.8869645409286 11.957318171858786 96.555304364534095 29.724107059882954 224.75896980892867 100.74283517943695 332.74444671347737 13.417523670010267 17.857224093750119 53.81376387597993 369.1268048461061 108.25386932399124
leaf_count=1258 1255 504 1673 214 3645 795 1473 2073 9787 129 94 1450 4342 1596
internal_value=-1.62102e-10 -0.0103577 0.0288759 0.00370275 -0.0236682 -0.00508036 0.0205425 -0.00426511 -0.0299544 -0.0252988 0.00829506 -0.024549 -0.000553034 -0.00790406
internal_weight=1929.41 1420.04 509.364 690.569 729.476 453.852 236.716 178.504 550.971 454.416 217.744 77.7615 398.851 121.671
internal_count=30288 27266 3022 8082 19184 6395 1687 4027 15157 11512 1767 1954 5137 1725
is_linear=0
shrinkage=0.05


Tree=25
num_leaves=15
num_cat=0
split_feature=14 14 12 11 7 14 5 15 13 12 24 15 26 12
split_gain=211.559 105.276 66.6562 35.9876 27.3607 29.6845 25.8547 21.0054 18.7651 18.6795 19.921 19.2453 17.663 15.0439
threshold=1.0000000180025095e-35 -1.0000000180025095e-35 0.39444444444444443 0.34166666666666673 1.0000000180025095e-35 0.077414899125828218 1.0000000180025095e-35 1.0000000180025095e-35 0.37617924528301888 0.84807692307692317 0.70235417975995973 1.0000000180025095e-35 0.324561403508772 0.97500000000000009
decision_type=2 2 2 2 2 2 2 2 2 2 2 2 2 2
left_child=1 6 8 -4 13 -6 12 -8 -2 10 11 -3 -1 -5
right_child=2 9 3 4 5 -7 7 -9 -10 -11 -12 -13 -14 -15
leaf_value=0.057307338762496642 -0.037507052799712615 -0.097129698505074649 -0.029304239444544446 0.0036572474855582162 -0.00043211965345651146 -0.0287386253134298 -0.032440972350873773 0.0019558611331676984 0.0018850412844369829 0.04698443021953385 0.031699755082253721 0.014100271410096116 -0.021507303074966566 0.031654136637429331
leaf_weight=27.970562919974327 258.03308320161887 6.3084680438041696 136.78532750112936 359.62865837034769 248.61260959366336 147.60828578937799 61.52295132772997 159.33335771085694 34.244592437520623 277.61735608475283 82.51905164308846 10.13901542685926 9.5310247363522631 55.369859343394637
leaf_count=126 8715 60 4574 5045 2882 3401 1187 1557 837 1153 301 41 111 298
internal_value=1.22167e-10 0.0234722 -0.0120162 -0.00558008 -0.00157979 -0.0109774 -0.00110815 -0.00762591 -0.0328917 0.0403356 0.0216847 -0.0285622 0.0372766 0.00739264
internal_weight=1875.22 634.942 1240.28 948.005 811.219 396.221 258.358 220.856 292.278 376.584 98.9665 16.4475 37.5016 414.999
internal_count=30288 4536 25752 16200 11626 6283 2981 2744 9552 1555 402 101 237 5343
is_linear=0
shrinkage=0.05


Tree=26
num_leaves=15
num_cat=0
split_feature=14 14 11 1 2 1 2 17 14 12 24 15 4 25
split_gain=189.156 98.1569 62.164 38.356 24.2454 22.0659 19.699 18.677 21.2541 17.71 18.436 17.206 17.0319 21.0869
threshold=1.0000000180025095e-35 -1.0000000180025095e-35 0.34166666666666673 0.45299330353736883 0.026346194783844302 0.96252781152725231 0.043297037094216555 0.6708333333333335 0.083556793845657618 0.84807692307692317 0.70235417975995973 1.0000000180025095e-35 0.97470545351350213 0.10818713450292396
decision_type=2 2 2 2 2 2 2 2 2 2 2 2 2 2
left_child=1 4 -2 -4 -1 6 7 12 -9 10 11 -3 13 -5
right_child=2 9 3 5 -6 -7 -8 8 -10 -11 -12 -13 -14 -15
leaf_value=-0.017714753323285665 -0.035680545932424611 -0.094961978453080784 -0.033720899950630309 0.040706844650179819 0.013251949224521845 0.053371726698095451 0.023406679114927786 -0.0029761986875055731 -0.022895848774275709 0.046223670525640109 0.030984107817595159 0.011947241911659953 -0.030971723588173312 0.0023775674250906802
leaf_weight=117.89329642290249 216.94749906030484 5.9742301907390365 111.98223805450834 45.127033130265772 136.27204840444028 17.226881545037031 61.903853662312031 335.00352709786966 223.08804871793836 262.5989898648113 79.612761743366718 10.170226249843836 28.307010419666767 175.17883705464192
leaf_count=1773 8603 60 3193 401 1208 97 522 4475 5238 1153 301 41 436 2787
internal_value=3.06752e-11 0.0226549 -0.0114233 -0.00614924 -0.0011118 -0.00266378 -0.00377512 -0.00586096 -0.0109388 0.0395115 0.0211045 -0.0276143 0.00553777 0.0102289
internal_weight=1827.29 612.522 1214.76 997.817 254.165 885.835 868.608 806.704 558.092 358.356 95.7572 16.1445 248.613 220.306
internal_count=30288 4536 25752 17149 2981 13956 13859 13337 9713 1555 402 101 3624 3188
is_linear=0
shrinkage=0.05


Tree=27
num_leaves=15
num_cat=0
split_feature=12 14 14 4 11 1 1 13 14 9 14 12 1 4
split_gain=173.598 82.0364 50.7858 32.9664 32.3043 21.3818 20.8976 20.6001 18.6949 16.905 16.0457 14.837 14.4746 14.2331
threshold=0.93541666666666667 0.039592394217782156 1.0000000180025095e-35 0.50130119841854415 0.80625000000000013 1.0000000180025095e-35 0.50016427040100109 0.80277777777777792 0.084432889844257605 0.082207207207207159 0.25805984741332483 0.34166666666666673 0.96252781152725231 0.89981203125901466
decision_type=2 2 2 2 2 2 2 2 2 2 2 2 2 2
left_child=1 4 -2 9 6 -6 -1 8 -5 10 -3 -10 -4 -8
right_child=2 3 12 7 5 -7 13 -9 11 -11 -12 -13 -14 -15
leaf_value=-0.038678141880224934 0.041534771454364461 0.010511604277596965 0.0041439649843670184 -0.014459828953002716 -0.045572969433583445 0.019336791630042385 0.0075780102597513043 0.062572956544463931 -0.051785131848325019 0.01130936879684878 -0.038676812990940002 -0.0288619323679144 0.05298633887769319 -0.013369631160182142
leaf_weight=43.775429639033973 252.67748296679929 26.093249469995499 189.00879363063723 152.63430438819341 13.319894120097159 267.0735473963432 179.32731137936935 6.2158087096177033 99.305971650639549 96.758347479859367 45.472763997502625 244.10002529108897 16.492469189688563 148.02604202018119
leaf_count=1151 1255 588 1673 3632 266 2023 2392 105 4250 2073 1366 7170 94 2250
internal_value=7.84077e-11 -0.00919144 0.0265225 -0.0214681 0.00344433 0.0162533 -0.00623304 -0.027886 -0.0290195 -0.00231805 -0.0207425 -0.0354909 0.0080638 -0.00189431
internal_weight=1780.28 1322.1 458.179 670.58 651.522 280.393 371.129 502.256 496.04 168.324 71.566 343.406 205.501 327.353
internal_count=30288 27266 3022 19184 8082 2289 5793 15157 15052 4027 1954 11420 1767 4642
is_linear=0
shrinkage=0.05


Tree=28
num_leaves=15
num_cat=0
split_feature=11 3 14 11 9 1 12 25 14 19 3 1 12 0
split_gain=157.644 75.0443 50.379 45.7053 27.6252 26.8379 22.5519 21.2188 20.9247 18.5983 17.326 16.8875 15.5073 13.41
threshold=0.86190476190476206 0.94597187638282787 1.0000000180025095e-35 0.41885964912280699 0.22902097902097898 0.66357466578483593 0.44722222222222224 0.10818713450292396 0.00063486993312830014 -1.0000000180025095e-35 0.90978893637657177 0.55309259891510021 0.45227272727272733 22.249424159061736
decision_type=2 2 2 2 2 2 2 2 2 2 2 2 2 2
left_child=1 3 6 -1 5 12 10 9 -6 -3 -2 -4 -5 -10
right_child=2 7 11 4 8 -7 -8 -9 13 -11 -12 -13 -14 -15
leaf_value=-0.034241683935869176 -0.045715944342180889 -0.003535532368459967 -0.02039484889090374 -0.040593675959835956 0.031559224566098103 -0.0017438151227264663 0.03915026486381519 0.0041035145699096342 -0.01798455414714209 0.053000757214668431 0.034922988346543525 0.011566340424837888 -0.016016029325928365 0.030738497235151919
leaf_weight=283.84779091970995 14.547967386431994 20.799397530499846 51.50894196331501 109.93024934781715 60.742480845656246 193.75578784616664 285.28745834808797 211.38985956576653 63.671312723075971 48.387181566096842 12.287058900110422 209.12889824435115 154.2100703867618 18.147092283703387
leaf_count=11087 179 264 927 3348 447 2700 1472 2934 1325 330 70 1931 3008 266
internal_value=9.03146e-11 -0.0105603 0.0214775 -0.0177087 -0.00989327 -0.0158774 0.0350283 0.0119699 0.00932724 0.0360044 -0.00879348 0.00524996 -0.0262448 -0.00717792
internal_weight=1737.64 1164.88 572.76 884.305 600.457 457.896 312.122 280.576 142.561 69.1866 26.835 260.638 264.14 81.8184
internal_count=30288 25709 4579 22181 11094 9056 1721 3528 2038 594 249 2858 6356 1591
is_linear=0
shrinkage=0.05


Tree=29
num_leaves=15
num_cat=0
split_feature=12 26 14 9 14 3 27 2 9 1 4 1 24 2
split_gain=142.05 68.9405 47.8156 33.4105 18.8488 19.1503 18.3546 17.5322 17.4515 15.8466 15.0409 14.7372 13.3375 13.0795
threshold=0.93541666666666667 0.6132478632478634 1.0000000180025095e-35 0.013423423423423403 0.039592394217782156 0.94983473420143139 0.48060835446195205 0.031264018099955555 0.070598006644518263 0.59913843870162975 0.50130119841854415 0.96252781152725231 0.92063733819741544 0.026346194783844302
decision_type=2 2 2 2 2 2 2 2 2 2 2 2 2 2
left_child=1 3 -2 7 13 -6 10 9 -3 -1 -7 12 -4 -5
right_child=2 8 11 4 5 6 -8 -9 -10 -11 -12 -13 -14 -15
leaf_value=-0.046740008529535637 0.040125858567490201 -0.038608889807422518 0.022348895718638039 -0.00018267778569219621 -0.015435455307858651 0.043969441221825979 -0.044954020898629071 0.019221276709973097 -0.016130760919549857 -0.0099539555343081468 -0.0044001134194828215 0.053033292976066494 -0.0064297395233037418 0.016129481710397589
leaf_weight=68.752895262558013 232.78508207574487 174.81226996378973 59.358153111767024 227.46723411139101 207.4590584167745 38.530428388621658 11.380473457276819 20.256578594446182 170.62962007289752 50.986649718135595 27.573699672240764 15.875723076984285 125.13171544857323 267.28944155247882
leaf_count=2755 1255 6834 494 2939 5039 489 233 292 4644 1113 498 94 1179 2430
internal_value=8.55077e-11 -0.00846126 0.0247135 -0.00130801 0.00273015 -0.00751373 0.0136961 -0.0237983 -0.0275059 -0.031076 0.0237933 0.00680739 0.00282956 0.00862987
internal_weight=1698.29 1265.14 433.151 919.696 779.7 284.944 77.4846 139.996 345.442 119.74 66.1041 200.366 184.49 494.757
internal_count=30288 27266 3022 15788 11628 6259 1220 4160 11478 3868 987 1767 1673 5369
is_linear=0
shrinkage=0.05


Tree=30
num_leaves=15
num_cat=0
split_feature=12 26 14 9 9 2 14 3 27 17 11 23 22 1
split_gain=127.707 62.4107 45.127 30.4048 17.2039 17.1096 17.0915 19.0629 19.7874 19.3827 16.4926 14.5445 14.9599 14.5233
threshold=0.93541666666666667 0.6132478632478634 1.0000000180025095e-35 0.013423423423423403 0.070598006644518263 0.031264018099955555 0.0077588527146807513 0.94983473420143139 0.48060835446195205 0.97958333333333336 0.60555555555555574 0.94281045751633996 0.10263157894736842 0.96252781152725231
decision_type=2 2 2 2 2 2 2 2 2 2 2 2 2 2
left_child=1 3 -2 5 -3 -1 11 10 9 -9 -8 -5 -13 -4
right_child=2 4 13 6 -6 -7 7 8 -10 -11 -12 12 -14 -15
leaf_value=-0.030492502792631777 0.039293128792580026 -0.037820516585202642 0.0024598886823697396 0.012488951349547918 -0.015133018596327165 0.019603531276608778 -0.026208390399501666 0.031771404385431766 -0.047757679397198022 -0.023500442037008171 -0.0018879792999385099 -0.087733074295634608 0.0063805499369367471 0.05262684607630979
leaf_weight=115.60567897232249 222.46049201441929 167.69524694979191 181.60991798434407 353.89278273796663 166.54595050169155 19.991525143384933 112.63174425717443 78.362401732942089 11.871366909705101 19.887017130851746 182.91734302695841 7.4831364676356342 9.6903117820620519 15.671776261180637
leaf_count=3868 1255 6834 1673 3274 4644 292 3499 1104 233 312 2994 107 105 94
internal_value=5.16879e-12 -0.00803214 0.0238543 -0.00126051 -0.0265158 -0.0231067 0.00255325 -0.00454029 0.0132162 0.0205836 -0.0111563 0.0103083 -0.0346284 0.00644508
internal_weight=1666.32 1246.57 419.742 912.333 334.241 135.597 776.736 405.67 110.121 98.2494 295.549 371.066 17.1734 197.282
internal_count=30288 27266 3022 15788 11478 4160 11628 8142 1649 1416 6493 3486 212 1767
is_linear=0
shrinkage=0.05


Tree=31
num_leaves=15
num_cat=0
split_feature=11 3 14 11 9 1 1 25 19 14 2 17 14 4
split_gain=119.633 61.7035 39.3855 38.523 23.864 23.1459 20.3805 20.1071 17.8619 15.5782 15.1538 14.0199 12.2852 14.9397
threshold=0.86190476190476206 0.94597187638282787 1.0000000180025095e-35 0.41885964912280699 0.22902097902097898 0.66357466578483593 0.41449674963951111 0.10818713450292396 -1.0000000180025095e-35 0.00063486993312830014 0.021910893250452302 0.12916666666666668 -1.0000000180025095e-35 0.59814998546390574
decision_type=2 2 2 2 2 2 2 2 2 2 2 2 2 2
left_child=1 3 6 -1 5 11 -2 8 -3 -6 -4 -5 -8 -14
right_child=2 7 10 4 9 -7 12 -9 -10 -11 -12 -13 13 -15
leaf_value=-0.03228820099617212 -0.034008058024266236 -0.0032824264914573416 -0.014842472195024589 -0.061642463186925192 0.029103489680245405 -0.0013687995402222241 0.01500296969839034 0.0034361967577151496 0.052390671868067368 -0.0052649160703535682 0.012579312978210015 -0.020873814517397896 -0.10077935224205098 0.041711741331817473
leaf_weight=257.56871614151169 11.201261183246968 20.958715069573373 69.96748181572184 23.277209989726543 57.502553191501647 186.10634202160873 60.912723907269537 204.53964034700766 46.089007099624723 77.287483799969777 179.97849083505571 224.21220386098139 1.8557139541953791 210.9591908659786
leaf_count=11087 155 264 1148 597 447 2700 472 2934 330 1591 1710 5759 22 1072
internal_value=9.69859e-11 -0.00944922 0.0193894 -0.0162474 -0.00897833 -0.0146906 0.0320971 0.0112254 0.0349876 0.00939693 0.00490312 -0.0247082 0.0348022 0.0404692
internal_weight=1632.42 1097.54 534.875 825.955 568.386 433.596 284.929 271.587 67.0477 134.79 249.946 247.489 273.728 212.815
internal_count=30288 25709 4579 22181 11094 9056 1721 3528 594 2038 2858 6356 1566 1094
is_linear=0
shrinkage=0.05


Tree=32
num_leaves=15
num_cat=0
split_feature=12 3 14 14 1 11 14 1 2 1 9 12 27 4
split_gain=110.926 50.6781 49.056 34.3527 25.3429 20.3437 19.2579 14.3011 13.9759 14.5849 13.4098 13.6162 11.9011 14.7732
threshold=0.85357142857142876 0.9248645007610321 1.0000000180025095e-35 0.084432889844257605 0.52564382553100597 0.64852941176470591 -1.0000000180025095e-35 0.86648672819137584 0.043297037094216555 0.96252781152725231 0.69047619047619058 0.39444444444444443 0.52213567067925615 0.36723692858896523
decision_type=2 2 2 2 2 2 2 2 2 2 2 2 2 2
left_child=1 3 6 4 -1 -6 7 -2 9 -4 11 -5 13 -3
right_child=2 12 8 10 5 -7 -8 -9 -10 -11 -12 -13 -14 -15
leaf_value=-0.028081646973992326 -0.0061731727726601765 0.038595367530023968 -0.0032166412943353618 -0.042922256494473066 -0.016170185148043345 0.010222240138617063 0.042404200568046391 0.046519787490548206 0.03228286460180687 0.051223299206676134 0.057601334445736598 -0.021790116453158079 -0.064237974655700539 0.0048142398031369282
leaf_weight=104.81059907143936 41.85012751724571 36.712666624924168 227.07076205220073 120.26633119548205 116.72311109118164 194.98633934161626 191.79970486462116 18.599532269872725 38.228975440375507 13.007678870111702 4.47621140256524 208.1673369447235 5.6771009406074873 273.24190251878463
leaf_count=2715 397 524 2606 5969 3179 2230 1095 110 293 83 79 7069 150 3789
internal_value=1.46412e-10 -0.00930467 0.0186786 -0.0163828 -0.00681238 0.0003393 0.0346483 0.0100397 0.0042041 -0.000267033 -0.0283568 -0.0295283 0.00750148 0.00881546
internal_weight=1595.62 1065.06 530.557 749.43 416.52 311.709 252.249 60.4497 278.307 240.078 332.91 328.434 315.632 309.955
internal_count=30288 25704 4584 21241 8124 5409 1602 507 2982 2689 13117 13038 4463 4313
is_linear=0
shrinkage=0.05


Tree=33
num_leaves=15
num_cat=0
split_feature=11 3 1 11 14 9 1 13 0 13 25 12 19 9
split_gain=102.123 49.7811 34.3047 32.6445 29.6539 17.6767 23.7224 16.642 16.3498 15.2719 15.2444 15.1247 14.206 13.0241
threshold=0.86190476190476206 0.95734539628028892 0.41449674963951111 0.48684210526315796 1.0000000180025095e-35 0.22902097902097898 0.66357466578483593 0.29818990155604957 5.9738694531995966 0.13150783642586919 0.10818713450292396 0.39444444444444443 -1.0000000180025095e-35 0.19615384615384618
decision_type=2 2 2 2 2 2 2 2 2 2 2 2 2 2
left_child=1 3 8 7 -4 6 11 -1 -2 -7 12 -5 -3 -10
right_child=2 10 4 5 -6 9 -8 -9 13 -11 -12 -13 -14 -15
leaf_value=-0.032780113595643298 0.049663656351093766 -0.0026592535594881124 0.033373555195058614 -0.042936709102161137 0.008436619604944167 -0.06316103242351466 0.0015276200756140646 -0.001964921923968032 -0.067838689088631651 0.012938837804443874 0.0042161848888047403 -0.014381182895615989 0.050618536219753242 0.010608669115490679
leaf_weight=255.37523764802609 5.2089488292112938 18.248768871184438 254.83406504965387 67.85322679230012 224.01530213234946 6.9617081116884938 171.52544465661049 52.888057081960142 19.958198511041704 124.38888693135232 171.09396321745589 146.46771200397052 39.798415517434478 7.1995463091880074
leaf_count=10995 34 224 1566 2449 2346 177 2481 1637 502 1812 2459 3181 294 131
internal_value=7.86042e-11 -0.00889036 0.0183402 -0.0146139 0.0217076 -0.00693741 -0.0123307 -0.0274932 -0.0314788 0.00890547 0.011728 -0.0234218 0.0338692 -0.0470422
internal_weight=1565.82 1054.6 511.216 825.46 478.849 517.197 385.846 308.263 32.3667 131.351 229.141 214.321 58.0472 27.1577
internal_count=30288 25709 4579 22732 3912 10100 8111 12632 667 1989 2977 5630 518 633
is_linear=0
shrinkage=0.05


Tree=34
num_leaves=15
num_cat=0
split_feature=12 11 1 14 0 11 9 17 13 14 14 4 20 25
split_gain=92.9616 50.1887 34.7444 25.0145 24.6824 19.2966 15.6052 15.3536 13.0914 12.2367 16.734 11.5143 11.4845 11.0359
threshold=0.97500000000000009 0.34166666666666673 0.41449674963951111 0.052079811686759458 14.412706025638512 0.86190476190476206 0.21583850931677012 0.97732832711646289 0.13150783642586919 -0.0050764583051203993 0.00063486993312830014 0.65011288702806236 2.5000000000000004 0.06904761904761901
decision_type=2 2 2 2 2 2 2 2 2 2 2 2 2 2
left_child=1 -1 6 5 9 8 11 13 -4 -2 -11 -3 -12 -5
right_child=4 2 3 7 -6 -7 -8 -9 -10 10 12 -13 -14 -15
leaf_value=-0.029096819445515155 -0.082366723345419973 -0.014784495304760798 -0.02302363051250296 0.036541542552352792 0.042939675976121555 0.018683105475272261 0.0078185969787334126 -0.016743347898317017 0.0042901415272590072 0.036680086566862252 -0.018410808378264865 -0.05587540021695632 0.044202138476846814 -0.0017668549130860193
leaf_weight=187.4731366506312 3.4889828674495211 26.775100220926106 50.380382999312133 21.788377001881599 136.16247817641124 244.28450267296284 21.100700934417546 228.94127466948703 339.45291265647393 40.7906397304032 39.444920353591442 46.930531929712743 8.9933282565325481 137.07506568403915
leaf_count=9031 48 789 1020 248 831 1913 524 6424 4423 264 358 1617 48 2750
internal_value=8.48495e-11 -0.00515788 -0.00113908 0.00154718 0.0293905 0.00766475 -0.0300944 -0.00845594 0.000760227 0.00949266 0.0130845 -0.0409483 -0.00678572 0.0034872
internal_weight=1533.08 1304.2 1116.73 1021.92 228.88 634.118 94.8063 387.805 389.833 92.7179 89.2289 73.7056 48.4382 158.863
internal_count=30288 28739 19708 16778 1549 7356 2930 9422 5443 718 670 2406 406 2998
is_linear=0
shrinkage=0.05


Tree=35
num_leaves=15
num_cat=0
split_feature=14 12 12 7 11 4 24 23 14 3 3 2 26 2
split_gain=86.0252 41.6075 29.0569 21.8068 19.8317 19.6444 19.431 15.6176 14.6116 14.0244 13.9371 13.9241 16.4229 13.8818
threshold=0.0033776164054869504 0.86190476190476206 0.39444444444444443 1.0000000180025095e-35 0.7947368421052633 0.9678502389062954 0.93998077186651618 1.0000000180025095e-35 -1.0000000180025095e-35 0.96567547321319591 0.16570226848125458 0.024374078796670903 1.0000000180025095e-35 0.0092338345864661029
decision_type=2 2 2 2 2 2 2 2 2 2 2 2 2 2
left_child=1 6 10 5 -5 7 9 -4 11 -1 -2 -3 -13 -8
right_child=2 8 3 4 -6 -7 13 -9 -10 -11 -12 12 -14 -15
leaf_value=-0.027817375287131147 -0.047467203210777381 -0.044233907899022373 0.031171185937334641 -0.02596641309138184 -0.00049254824110304941 -0.033973462572200096 -0.10731693185260438 0.0020033402947034354 0.035874450202036501 0.010918087095196566 -0.018206877949434111 -0.03543486400911592 0.035004382517670213 0.012668073124923008
leaf_weight=69.556363095529377 55.635946542490274 10.637241250835357 53.823274228256196 173.10981201473624 136.76466526067816 33.013821630738676 2.4375466653145841 311.47517474472988 206.16640299512073 35.188713246956468 151.55397949693725 10.692240953445433 36.600685899145901 218.41250844998285
leaf_count=950 3368 144 723 6042 1645 767 62 6058 1400 307 5905 101 262 2554
internal_value=2.92296e-11 0.0148933 -0.00959439 -0.00477596 -0.0147234 0.00296283 0.00293184 0.00630095 0.0296402 -0.0148043 -0.026064 0.00745345 0.0190791 0.0113438
internal_weight=1505.07 589.692 915.377 708.187 309.874 398.312 325.595 365.298 264.097 104.745 207.19 57.9302 47.2929 220.85
internal_count=30288 5780 24508 15235 7687 7548 3873 6781 1907 1257 9273 507 363 2616
is_linear=0
shrinkage=0.05


Tree=36
num_leaves=15
num_cat=0
split_feature=12 3 14 2 14 14 4 0 24 19 1 1 11 9
split_gain=77.9365 41.704 38.9551 26.7637 18.2225 16.0954 14.8504 14.392 13.5571 12.0254 11.8876 11.7281 11.3917 11.0143
threshold=0.85357142857142876 0.9248645007610321 1.0000000180025095e-35 0.033565661573333759 0.084432889844257605 -1.0000000180025095e-35 0.59814998546390574 8.1769217730877752 0.92063733819741544 -1.0000000180025095e-35 0.52564382553100597 0.86648672819137584 0.64852941176470591 0.69047619047619058
decision_type=2 2 2 2 2 2 2 2 2 2 2 2 2 2
left_child=1 3 5 4 10 11 -7 -5 -4 -9 -1 -2 -12 -6
right_child=2 -3 8 7 13 6 -8 9 -10 -11 12 -13 -14 -15
leaf_value=-0.026426032425008041 -0.0060896033241454066 0.0074960919635071142 0.019700949183364746 -0.043244045303388205 -0.029876505834785141 -0.14054078183958849 0.041290891462978874 0.017215407853767677 -0.004378664645260477 -0.068213557595927468 -0.018240247158387356 0.043897446839059009 0.00480280048825334 0.057091969666688773
leaf_weight=87.946529294596985 39.074834864586592 301.87882210500538 87.212065600790083 12.509036534931509 264.68356466782279 1.1307434141635884 161.71333799674176 97.215736923273653 177.26004730444402 4.3016212107613674 91.252767378231511 16.770254702307284 130.10791973024607 3.6913698189891866
leaf_count=2566 397 4463 898 447 12250 14 1081 1294 2084 123 2873 110 1630 58
internal_value=2.59359e-10 -0.00800996 0.0164719 -0.0147772 -0.0191468 0.0320848 0.0400283 0.00736004 0.00356181 0.0135955 -0.0108748 0.00892148 -0.00469637 -0.0286803
internal_weight=1476.75 993.587 483.161 691.709 577.682 218.689 162.844 114.026 264.472 101.517 309.307 55.8451 221.361 268.375
internal_count=30288 25704 4584 21241 19377 1602 1095 1864 2982 1417 7069 507 4503 12308
is_linear=0
shrinkage=0.05


Tree=37
num_leaves=15
num_cat=0
split_feature=12 14 2 4 0 12 13 27 14 9 14 24 13 2
split_gain=70.7948 41.9782 25.2832 24.7637 22.824 18.6368 16.4681 18.0407 13.7413 13.5818 12.6278 13.3735 11.9951 10.7843
threshold=0.97500000000000009 0.054709826725033557 0.023227922259927702 0.50130119841854415 14.412706025638512 0.24264705882352941 0.15047169811320757 0.48060835446195205 -0.0050764583051203993 0.22474747474747472 0.00063486993312830014 0.85465073644984402 0.80277777777777792 0.043297037094216555
decision_type=2 2 2 2 2 2 2 2 2 2 2 2 2 2
left_child=1 2 9 6 8 -5 -3 -8 -2 -1 -10 -12 -7 -4
right_child=4 3 13 5 -6 12 7 -9 10 -11 11 -13 -14 -15
leaf_value=-0.014867710340003788 -0.082885170045405937 -0.036404037984362307 0.0080801654905162841 -0.048798408951119955 0.040691860317283078 -0.018463698291014824 0.016794937250288779 -0.032066485904642207 0.034351888848076426 0.011402881145323809 0.045059838353762843 -0.018821808844146568 0.058186127971877534 0.031518906408793512
leaf_weight=201.23791413800791 4.0294589735567561 24.008988495916128 368.33674058387987 54.536884408909827 122.98989965068176 328.92093427479267 111.90997885982506 22.727946354076266 35.350928835105151 65.119801761000417 10.458939626812933 37.812184154987335 5.1845609662123016 56.618708868511021
leaf_count=4045 48 952 4565 3397 831 11060 2495 729 264 978 69 337 82 436
internal_value=-1.37713e-12 -0.00455728 0.00363278 -0.0149026 0.0267975 -0.0216979 0.00174407 0.00854674 0.00730134 -0.00844501 0.0116471 -0.00498053 -0.0172743 0.011203
internal_weight=1449.24 1238.6 691.313 547.289 210.641 388.642 158.647 134.638 87.6515 266.358 83.6221 48.2711 334.105 424.955
internal_count=30288 28739 10024 18715 1549 14539 4176 3224 718 5023 670 406 11142 5001
is_linear=0
shrinkage=0.05


Tree=38
num_leaves=15
num_cat=0
split_feature=11 3 2 9 1 4 14 14 4 11 0 2 14 1
split_gain=66.0157 41.3587 27.4279 24.8724 24.6029 14.9349 13.5231 12.9617 13.1276 12.5875 11.8512 11.8921 11.6367 11.0081
threshold=0.86190476190476206 0.95374056696891796 0.030674770541958007 0.07207792207792206 0.66796958446502697 0.88222262840834553 1.0000000180025095e-35 0.019999388803768354 0.50130119841854415 0.44722222222222224 7.1696757025514026 0.030354624071670552 0.23417455727855369 0.96252781152725231
decision_type=2 2 2 2 2 2 2 2 2 2 2 2 2 2
left_child=1 3 13 4 -1 10 -4 9 -9 -5 11 -3 -10 -2
right_child=2 5 6 7 -6 -7 -8 8 12 -11 -12 -13 -14 -15
leaf_value=-0.03320518131373635 -0.0022417009844351589 0.039482864713076493 0.035677583997435584 -0.029631232404773607 -0.003872846007850839 -0.007695173728449585 0.013018923542745104 0.0071796892037722425 -0.014581780386761859 0.010208008012636386 0.0063413858144627027 -0.036421307626650544 -0.052360394122994328 0.045380046618625408
leaf_weight=216.68029397178907 175.73124774661846 71.132009168388322 152.88260789355263 22.718168202904053 106.68622183939442 70.939437889494002 115.66921991948038 61.723768474068493 153.43003470310941 155.79998324252665 78.506620725849643 5.563813215121626 23.506389606045559 13.035233031027017
leaf_count=10141 2259 831 1063 613 2420 1012 1179 1720 4859 1791 1237 84 1001 78
internal_value=-1.47416e-11 -0.00740465 0.0156521 -0.0131198 -0.0235278 0.0113106 0.0259182 -0.00505225 -0.0126746 0.00513808 0.0199977 0.0339765 -0.0196008 0.00104681
internal_weight=1424.01 966.687 457.318 740.545 323.367 226.142 268.552 417.178 238.66 178.518 155.202 76.6958 176.936 188.766
internal_count=30288 25709 4579 22545 12561 3164 2242 9984 7580 2404 2152 915 5860 2337
is_linear=0
shrinkage=0.05


Tree=39
num_leaves=15
num_cat=0
split_feature=2 9 1 14 4 12 26 25 14 27 11 4 12 15
split_gain=61.0399 35.7188 25.738 20.1003 20.8851 18.833 14.6709 13.8947 16.5246 13.7531 17.3211 13.5744 13.1812 12.0382
threshold=0.036953155594215609 0.013423423423423403 0.57213577628135692 0.013833195366896601 0.50130119841854415 0.97500000000000009 1.0000000180025095e-35 0.095454545454545472 0.24022956292759209 0.067489007046472718 0.97500000000000009 0.57581314813612805 0.59411764705882364 1.0000000180025095e-35
decision_type=2 2 2 2 2 2 2 2 2 2 2 2 2 2
left_child=1 2 13 6 7 -2 11 8 -5 10 -4 -3 -6 -1
right_child=5 3 9 4 12 -7 -8 -9 -10 -11 -12 -13 -14 -15
leaf_value=-0.051600484824001973 0.01182469884882704 -0.11079501422397475 -0.02802349454267157 0.073387141675206116 -0.024560782350190727 0.039289231308348133 0.012323650511043383 0.0013795968151799239 -0.0069771505417712473 0.013858460603855101 0.036226700936815334 -0.0077807838316682884 -0.0053137876011815181 -0.0020296057610405087
leaf_weight=76.048033786122687 199.93441236834042 3.351272413507103 83.908686289563775 16.328026495757516 156.42578181333374 90.750829608179629 318.59526447183453 99.747346589807421 10.516310663428156 43.673697527963668 11.988533125724642 69.87980878399685 206.2347789411433 14.598610688699408
leaf_count=5176 2457 25 2754 136 6226 663 3769 2642 265 1028 73 709 3848 517
internal_value=6.82745e-11 -0.00533584 -0.0228723 -0.000753724 -0.00751212 0.020399 0.00768512 0.00997304 0.0419043 -0.00939923 -0.0199913 -0.012495 -0.0136156 -0.0436171
internal_weight=1401.98 1111.3 230.218 881.079 489.252 290.685 391.826 126.592 26.8443 139.571 95.8972 73.2311 362.661 90.6466
internal_count=30288 27168 9548 17620 13117 3120 4503 3043 401 3855 2827 734 10074 5693
is_linear=0
shrinkage=0.05


Tree=40
num_leaves=15
num_cat=0
split_feature=14 12 11 23 1 1 7 4 14 25 24 24 22 11
split_gain=55.1689 32.9423 21.7323 21.0774 16.6259 15.1175 12.6407 13.0612 11.5196 11.4535 11.229 10.6582 13.0405 15.5651
threshold=0.0033776164054869504 0.97500000000000009 0.34166666666666673 0.94281045751633996 0.48938515782356268 0.44584941864013672 1.0000000180025095e-35 0.97470545351350213 0.083556793845657618 1.0000000180025095e-35 0.92063733819741544 0.90008187416089525 0.13809523809523808 0.7947368421052633
decision_type=2 2 2 2 2 2 2 2 2 2 2 2 2 2
left_child=1 3 -2 4 -1 -4 7 9 -8 -7 -11 12 13 -6
right_child=2 -3 5 -5 11 6 8 -9 -10 10 -12 -13 -14 -15
leaf_value=-0.023574757352279957 -0.025837357603316177 0.035552638679816666 -0.026126784161624169 -0.041701574067064401 -0.042372598404042491 0.033094232243136436 -0.0017558463672213091 -0.0315863611163371 -0.02253836638429739 0.015912397535074854 -0.0043007526743194247 0.016531440443765224 0.027025880143549959 0.0088639269957152371
leaf_weight=36.623256985098124 141.78470338426996 120.37366344965994 71.70822416828014 22.057990732602775 29.340755915734917 37.407349335728213 172.67341893189587 23.428847450762987 108.6227428256534 113.55997482407838 173.96512737497687 275.66075691999868 24.26268575899303 29.95721843931824
leaf_count=743 8446 971 2945 337 442 385 3025 504 3796 1950 3457 2843 206 238
internal_value=-1.58002e-10 0.0125056 -0.00798369 0.00586703 0.00851773 -0.00437447 -0.00189722 0.00446883 -0.00978103 0.00706854 0.00368257 0.0117896 -0.00385331 -0.016488
internal_weight=1381.43 538.276 843.15 417.903 395.845 701.366 629.657 348.361 281.296 324.932 287.525 359.221 83.5607 59.298
internal_count=30288 5780 24508 4809 4472 16062 13117 6296 6821 5792 5407 3729 886 680
is_linear=0
shrinkage=0.05


Tree=41
num_leaves=15
num_cat=0
split_feature=11 3 2 11 9 14 1 4 0 9 4 3 11 17
split_gain=51.5658 33.8473 23.4191 20.5665 16.8041 15.1159 14.4748 13.0623 15.5454 11.4953 11.1052 10.9556 10.1339 10.1017
threshold=0.86190476190476206 0.94597187638282787 0.027597201747958506 0.41885964912280699 0.22902097902097898 1.0000000180025095e-35 0.66357466578483593 0.76827033657771227 7.1696757025514026 0.023603954880935755 0.88907746952312416 0.12912442535161975 0.48684210526315796 0.12916666666666668
decision_type=2 2 2 2 2 2 2 2 2 2 2 2 2 2
left_child=1 3 10 -1 6 -4 13 8 9 -3 -2 -6 -9 -5
right_child=2 7 5 4 11 -7 -8 12 -10 -11 -12 -13 -14 -15
leaf_value=-0.02575750502233163 -0.014456351751469233 -0.061183859084219396 0.033301597119387891 -0.057339227371892357 -0.069509934196021625 0.010135209633753752 -0.0009662526329137259 -0.029642148298490423 0.0032805019858099162 0.042461806678164654 0.012762605496906977 0.012448157557997412 0.0055548982911975712 -0.017525401860697339
leaf_weight=200.81601726741064 80.080336206359789 2.7982043121010056 153.60570139018819 17.420138140209019 4.2270306143909684 130.01260368898511 163.77609191485681 27.181799111654982 66.042830499587581 60.8631190455053 70.432253062259406 115.24808417446911 82.581281540682539 186.48587463551667
leaf_count=11087 1204 106 1174 597 159 1392 2700 562 1100 645 809 1879 1115 5759
internal_value=8.65929e-13 -0.0066573 0.0142221 -0.0122927 -0.00674226 0.022682 -0.0120358 0.00953287 0.0202754 0.0379061 -0.00171926 0.00954848 -0.00316132 -0.0209268
internal_weight=1361.57 927.44 434.131 687.973 487.157 283.618 367.682 239.467 129.704 63.6613 150.513 119.475 109.763 203.906
internal_count=30288 25709 4579 22181 11094 2566 9056 3528 1851 751 2013 2038 1677 6356
is_linear=0
shrinkage=0.05


Tree=42
num_leaves=15
num_cat=0
split_feature=2 14 4 1 9 12 2 13 23 14 14 4 9 27
split_gain=50.0996 34.3253 22.2661 19.3546 16.4289 16.0956 13.5422 11.5714 12.0583 12.6783 10.8039 10.1888 10.7762 10.1467
threshold=0.043297037094216555 0.021038277447223502 0.50130119841854415 0.77961206436157238 0.030776515151515155 0.24264705882352941 0.023227922259927702 0.12861869313482219 0.06904761904761901 0.24022956292759209 0.27827091974707752 0.44833333333333336 0.2124060150375939 0.022602396837087851
decision_type=2 2 2 2 2 2 2 2 2 2 2 2 2 2
left_child=1 3 7 4 6 -4 -1 -3 9 -9 13 -10 -13 -7
right_child=-2 2 5 -5 -6 10 -8 8 11 -11 -12 12 -14 -15
leaf_value=-0.045345427155785496 0.031807274318370646 -0.03267164254043739 -0.040840785333816777 0.02099691332667639 0.0042356042235339088 -0.015524986075328534 0.0037206719982493873 0.067941673671017763 0.011709670205790588 0.003684614418471652 -0.042028714786160548 -0.040080592290460348 0.023472747908576189 0.0025712695657972326
leaf_weight=33.065765896812081 113.35656639235094 18.009370334912091 58.501414670376107 155.04125586454757 371.34316491347272 289.88257718260866 24.469014820642769 16.249518419965174 81.784229090088047 14.550039615016429 29.554971108911559 22.796111247036606 9.4289400544948858 105.70943541848101
leaf_count=933 1029 774 3982 1506 4680 9029 384 141 2099 330 1732 693 203 2773
internal_value=-1.13957e-12 -0.00293043 -0.0108675 0.00585682 0.000383612 -0.0162515 -0.0244781 0.00512561 0.00982632 0.037586 -0.012868 0.00232707 -0.0214851 -0.0106893
internal_weight=1343.74 1230.39 646.467 583.919 428.878 483.648 57.5348 162.818 144.809 30.7996 425.147 114.009 32.2251 395.592
internal_count=30288 29259 21756 7503 5997 17516 1317 4240 3466 471 13534 2995 896 11802
is_linear=0
shrinkage=0.05


Tree=43
num_leaves=15
num_cat=0
split_feature=2 14 4 2 12 11 2 23 19 3 14 25 14 0
split_gain=44.4326 31.7547 20.9169 17.457 14.5618 12.3446 12.0228 11.8704 12.0515 10.8853 10.7381 14.7638 10.4534 9.44218
threshold=0.043297037094216555 0.021038277447223502 0.50130119841854415 0.025530663491456804 0.24264705882352941 0.63397129186602885 0.0099771953152036508 0.8377192982456142 0.85000000000000009 0.9248645007610321 0.28949739306450972 0.074175824175824162 0.27827091974707752 22.696780900224393
decision_type=2 2 2 2 2 2 2 2 2 2 2 2 2 2
left_child=1 3 10 5 -4 9 -7 -5 -9 -1 11 -3 -6 -12
right_child=-2 2 4 7 12 6 -8 8 -10 -11 13 -13 -14 -15
leaf_value=-0.033444269741867677 0.030212957580552785 0.05187046196110906 -0.039576795870697644 0.016900695097674303 -0.010389713635798103 -0.085130212111345735 0.0065724310029615781 -0.00069217963408367512 -0.078111609466794615 0.00084307612523781936 -0.019120060174591919 0.0051281604185615254 -0.041668276261626454 0.035724802890828349
leaf_weight=53.005185036337934 111.44650997570716 21.642954324604943 56.43578077876009 285.95423774956726 391.177931070677 3.6595719126053146 153.27284066425636 31.941928481217474 5.9654814815148702 41.094331065192819 53.513938314747065 76.982192517258227 28.669537364505231 9.1962711582891625
leaf_count=1539 1029 283 3982 3043 11802 82 1765 384 63 627 1894 1920 1732 143
internal_value=1.45321e-10 -0.00277699 -0.0104602 0.00574455 -0.0157309 -0.00415182 0.00443398 0.0134154 -0.0128757 -0.0184706 0.00509964 0.0153856 -0.0125256 -0.0110772
internal_weight=1323.96 1212.51 637.619 574.894 476.283 251.032 156.932 323.862 37.9074 94.0995 161.335 98.6251 419.847 62.7102
internal_count=30288 29259 21756 7503 17516 4013 1847 3490 447 2166 4240 2203 13534 2037
is_linear=0
shrinkage=0.05


Tree=44
num_leaves=15
num_cat=0
split_feature=11 3 2 9 1 4 0 3 12 14 13 9 24 11
split_gain=42.5419 30.6979 18.7168 17.8636 19.3757 13.3521 18.4315 11.8828 11.3576 10.9899 10.6382 10.0532 9.56496 9.55964
threshold=0.86190476190476206 0.94597187638282787 0.031049530134513354 0.22902097902097898 0.66357466578483593 0.76827033657771227 7.1696757025514026 0.18209865689277646 0.47213622291021679 1.0000000180025095e-35 0.31311274509803927 0.023603954880935755 0.49198722210667706 0.48684210526315796
decision_type=2 2 2 2 2 2 2 2 2 2 2 2 2 2
left_child=1 3 12 4 8 6 11 -5 -1 -4 -8 -3 -2 -7
right_child=2 5 9 7 -6 13 10 -9 -10 -11 -12 -13 -14 -15
leaf_value=-0.034352660915890294 -0.058428082425673426 -0.059836841185642697 0.032108088658451758 -0.054382382903078043 -0.0041280112542459255 -0.02964873153564105 -0.01468617142429935 0.0082115943627289276 -0.015185956288934783 0.01044611834967631 0.026843715225961018 0.043379532179350561 0.0032347292949940266 0.0049772581239024422
leaf_weight=139.98797340795863 6.528585748281329 2.4539444493129841 131.09553904202767 8.0615801054518652 209.83988473634236 26.662154207238927 39.587061720434576 127.50189525366295 172.5766150795389 105.80953623913229 25.258969914866611 61.034842053195462 171.31622922793031 78.981462982483208
leaf_count=8674 155 106 1056 426 4760 562 788 2664 5657 1146 312 645 2222 1115
internal_value=7.75983e-11 -0.00615198 0.0132302 -0.0116835 -0.0158803 0.00940301 0.0202399 0.00448931 -0.0237701 0.0224331 0.00149064 0.0393901 0.000971121 -0.00376159
internal_weight=1306.7 891.946 414.75 657.968 522.404 233.978 128.335 135.563 312.565 236.905 64.846 63.4888 177.845 105.644
internal_count=30288 25709 4579 22181 19091 3528 1851 3090 14331 2202 1100 751 2377 1677
is_linear=0
shrinkage=0.05


Tree=45
num_leaves=15
num_cat=0
split_feature=14 1 11 23 1 7 4 11 27 3 1 1 22 11
split_gain=38.8476 23.3408 16.549 15.8899 15.3068 11.2796 15.4825 13.2108 12.1527 13.745 10.6679 10.4829 10.377 28.216
threshold=0.0033776164054869504 0.77961206436157238 0.34166666666666673 0.94281045751633996 0.48938515782356268 1.0000000180025095e-35 0.99541787041378627 0.82843137254901966 0.48060835446195205 0.94983473420143139 0.92829564213752758 0.47632500529289251 0.06904761904761901 0.69615384615384623
decision_type=2 2 2 2 2 2 2 2 2 2 2 2 2 2
left_child=1 3 -2 4 -1 6 8 11 9 10 -4 -7 13 -6
right_child=2 -3 5 -5 12 7 -8 -9 -10 -11 -12 -13 -14 -15
leaf_value=-0.025012938407578372 -0.023480777540532263 0.02673296970942329 -0.0022535309918109798 -0.038441158514003738 -0.033548383070255004 -0.05132919993090327 -0.040454137047718081 0.0015274022038989489 -0.033785604754818711 0.021968604585370363 0.054677471886866572 -0.015168567186516883 0.018096298247731749 0.016562730463710231
leaf_weight=34.895440786611289 127.0062678407412 158.14539644611068 217.37098687165417 21.143532695714384 43.231170251965523 23.202497953549027 20.253884338075295 120.71355170174502 19.547657947055995 102.61906592221931 8.5522322813048941 147.1557476677699 168.44881418161094 80.211250305641443
leaf_count=746 8446 1468 5086 320 862 1575 561 1766 555 1476 60 4983 1609 775
internal_value=-1.08368e-10 0.0108058 -0.00695372 0.00356641 0.00628436 -0.00377054 0.00204259 -0.0111269 0.0045153 0.00679413 -9.84309e-05 -0.0200936 0.0100259 -0.000986845
internal_weight=1292.5 506.076 786.422 347.93 326.787 659.416 368.344 291.072 348.09 328.542 225.923 170.358 291.891 123.442
internal_count=30288 5780 24508 4312 3992 16062 7738 8324 7177 6622 5146 6558 3246 1637
is_linear=0
shrinkage=0.05


Tree=46
num_leaves=15
num_cat=0
split_feature=2 3 12 0 25 26 1 9 24 0 27 27 9 0
split_gain=38.0482 26.1909 25.2776 15.1774 12.5289 11.972 9.98981 8.76354 8.46474 8.36197 8.835 15.8285 8.0289 7.92839
threshold=0.043297037094216555 0.9248645007610321 0.45227272727272733 9.6170039441341881 0.20526315789473684 0.54195804195804198 0.98463732004165661 0.014389233954451302 0.49198722210667706 26.11046341222519 0.33103004510133305 0.49374151441512987 0.25657894736842107 12.257763889247894
decision_type=2 2 2 2 2 2 2 2 2 2 2 2 2 2
left_child=1 2 5 12 7 -1 -5 -3 -9 10 -6 -12 -4 -10
right_child=-2 4 3 6 9 -7 -8 8 13 -11 11 -13 -14 -15
leaf_value=-0.011351744750885871 0.028912587919574181 -0.036497936342574415 -0.01276293669288267 0.0046070091140831696 -0.0052750217248412907 -0.034074333892266342 0.050780827717343137 -0.0411039760900807 0.036912933958688492 0.028652557237032906 0.046948990720521222 -0.047621694172372449 0.013233037218587868 0.01070366191515955
leaf_weight=129.55467277625576 104.42505387635902 6.355354039464145 259.08003610628657 251.21569410036318 191.77195335971192 104.9098906860454 12.286948000546543 4.8441183613613239 71.353684138739482 25.5424800128676 19.952152604702864 5.6852607689797869 33.547953117638826 48.445312468800694
leaf_count=4611 1029 147 7706 3727 3124 7010 92 71 709 437 271 202 624 528
internal_value=-1.77481e-12 -0.0025926 -0.0077496 -0.00194448 0.00831018 -0.0215188 0.00676006 0.0207739 0.0236941 0.00158981 -0.00158967 0.0259773 -0.00978266 0.0263142
internal_weight=1268.97 1164.55 790.595 556.131 373.95 234.465 263.503 130.998 124.643 242.952 217.409 25.6374 292.628 119.799
internal_count=30288 29259 23770 12149 5489 11621 3819 1455 1308 4034 3597 473 8330 1237
is_linear=0
shrinkage=0.05


Tree=47
num_leaves=15
num_cat=0
split_feature=2 3 11 1 12 25 1 4 0 19 25 19 12 13
split_gain=36.2634 22.7893 17.4287 16.2298 13.3681 10.8722 10.6189 10.3468 9.10996 9.90926 8.72955 15.5491 8.94222 9.97779
threshold=0.036953155594215609 0.9248645007610321 0.41885964912280699 0.33702287077903753 0.97500000000000009 0.16228070175438594 0.98463732004165661 0.6663815357055175 11.527706846804596 -1.0000000180025095e-35 1.0000000180025095e-35 -1.0000000180025095e-35 0.7947368421052633 0.084219858156028365
decision_type=2 2 2 2 2 2 2 2 2 2 2 2 2 2
left_child=1 2 -1 7 -2 8 10 -4 9 -3 12 -12 -5 -14
right_child=4 5 3 6 -6 -7 -8 -9 -10 -11 11 -13 13 -15
leaf_value=-0.023272484203369203 0.0096021538987119473 0.0036038758189825995 -0.0083182181530093591 -0.0084156126584709629 0.034987270873028477 0.00079866432175277962 0.049735768332793716 -0.056003378293881134 -0.00027852272304314935 0.046240552598850848 -0.0023380852374484183 -0.035105877807256984 -0.087390526353157583 0.044420101496770226
leaf_weight=167.3914559809491 179.9108117215801 20.123395160771906 21.703786309110001 18.902045395690948 72.867632268695161 203.2504758653231 9.6749866749159974 23.905407156795263 32.186299853259698 42.21557840751484 394.62925635813735 39.860343370819464 1.5246842359192694 24.609083033632487
leaf_count=10664 2457 302 731 435 663 3548 72 1087 402 371 8410 910 35 201
internal_value=7.4673e-11 -0.00427707 -0.00919242 -0.00478547 0.0169198 0.00731409 -0.0021259 -0.0333117 0.0213237 0.0324772 -0.00317227 -0.00534422 0.0177819 0.0367301
internal_weight=1252.76 999.977 702.201 534.81 252.778 297.776 489.2 45.6092 94.5253 62.339 479.525 434.49 45.0358 26.1338
internal_count=30288 27168 22545 11881 3120 4623 10063 1818 1075 673 9991 9320 671 236
is_linear=0
shrinkage=0.05


Tree=48
num_leaves=15
num_cat=0
split_feature=14 14 4 5 11 17 1 9 24 15 2 7 14 23
split_gain=34.6957 28.1105 17.9799 16.4889 15.3736 11.6262 10.5733 10.9224 9.44539 15.1666 9.40604 9.16106 9.47045 8.13322
threshold=1.0000000180025095e-35 -1.0000000180025095e-35 0.57581314813612805 1.0000000180025095e-35 0.34166666666666673 0.56125000000000014 0.46509060263633734 0.057983193277310906 0.66108096968816443 1.0000000180025095e-35 0.010144991240643352 1.0000000180025095e-35 0.083556793845657618 0.94590643274853814
decision_type=2 2 2 2 2 2 2 2 2 2 2 2 2 2
left_child=1 3 -3 -1 -2 -5 7 -6 9 -4 -10 -8 -13 -12
right_child=4 2 8 5 6 -7 11 -9 10 -11 13 12 -14 -15
leaf_value=0.035827029306367102 -0.021945187077786945 -0.09706786127715411 -0.090107054599868744 -0.037170821928015095 -0.049221579708781583 -0.0012184722569175217 0.0048659870764479959 -0.0080195677006413852 -0.11276256613404052 0.018525620609253304 0.03438399117930982 -0.0012228624919895133 -0.02028941475773826 -0.014849037821828032
leaf_weight=26.012645710259676 124.23939104139572 2.9417564962059251 4.2160632705781618 26.759715809952468 23.093579313252121 140.81982218101621 337.49926245654933 53.000610006507486 1.1308848941698659 13.504282887559384 166.37870590342209 212.01887175207958 94.003733845311217 8.8339941715821606
leaf_count=237 8603 25 63 591 1460 2153 6509 1995 18 110 1275 3566 3619 64
internal_value=-2.15572e-10 0.0123208 0.0256175 -0.00121033 -0.00570297 -0.00695948 -0.00289881 -0.0205238 0.0274773 -0.0073205 0.030974 -0.00081471 -0.00707971 0.0319017
internal_weight=1234.45 390.598 197.006 193.592 843.855 167.58 719.616 76.0942 194.064 17.7203 176.344 643.522 306.023 175.213
internal_count=30288 4536 1555 2981 25752 2744 17149 3455 1530 173 1357 13694 7185 1339
is_linear=0
shrinkage=0.05


Tree=49
num_leaves=15
num_cat=0
split_feature=2 14 4 1 9 1 22 2 13 23 14 14 20 9
split_gain=32.7402 22.6134 15.6235 14.3292 10.9281 10.7073 9.68305 8.40668 8.34826 11.4332 10.9381 9.40128 8.17262 8.0113
threshold=0.043297037094216555 0.021038277447223502 0.50130119841854415 0.77961206436157238 0.030776515151515155 0.43210938572883606 0.14835164835164832 0.023227922259927702 0.15047169811320757 0.06904761904761901 0.24022956292759209 0.16062939843162885 2.5000000000000004 0.065942028985507203
decision_type=2 2 2 2 2 2 2 2 2 2 2 2 2 2
left_child=1 3 8 4 7 6 -4 -1 11 10 -10 -3 -11 -8
right_child=-2 2 5 -5 -6 -7 13 -9 9 12 -12 -13 -14 -15
leaf_value=-0.039427381014084821 0.027641850238130428 0.081120919149451895 -0.052378036125791588 0.018850309233149093 0.0033538916173693565 -0.011294470821275113 -0.064200591589024067 0.0016022611138784629 0.068264559489618168 -0.0050169757778630378 0.0042620968392522015 -0.034161028673257106 0.031061313698657913 0.017329142893657081
leaf_weight=28.576675950083882 98.452013640664518 1.9409679865930254 31.667833984945901 138.49865352618508 343.76398515724577 387.06995554547757 4.0920196976512662 22.169934915844351 14.376310136052782 82.361981751862913 12.462396169314159 19.902445876039565 19.392628995236009 11.42753246729262
leaf_count=933 1029 27 2321 1506 4680 14595 211 384 129 2458 298 938 390 389
internal_value=-8.35279e-11 -0.00243481 -0.00922517 0.005014 0.000156563 -0.0140358 -0.036522 -0.0215025 0.00466127 0.00951574 0.0385454 -0.0239173 0.00185891 -0.00416769
internal_weight=1216.16 1117.7 584.694 533.009 394.511 434.257 47.1874 50.7466 150.437 128.593 26.8387 21.8434 101.755 15.5196
internal_count=30288 29259 21756 7503 5997 17516 2921 1317 4240 3275 427 965 2848 600
is_linear=0
shrinkage=0.05


Tree=50
num_leaves=15
num_cat=0
split_feature=2 11 9 1 1 3 23 13 25 2 4 26 24 3
split_gain=29.2514 21.0022 17.1557 20.1459 11.9002 9.54522 9.12566 8.54786 8.27622 12.9351 8.25749 8.00981 7.79995 7.77978
threshold=0.043297037094216555 0.34166666666666673 0.22474747474747472 0.30597621202468878 0.98463732004165661 0.083580769598484012 0.28991596638655465 0.38196555217831812 1.0000000180025095e-35 0.022559045815295754 0.89142378045283743 0.23303167420814477 0.49198722210667706 0.98558163642883312
decision_type=2 2 2 2 2 2 2 2 2 2 2 2 2 2
left_child=1 13 3 7 8 -4 -7 -3 9 -5 12 -9 -11 -1
right_child=-2 2 5 4 -6 6 -8 11 -10 10 -12 -13 -14 -15
leaf_value=-0.022960612281789007 0.026295762038225284 -0.051578709590237581 -0.069408869402106194 -0.01946492657385655 0.047126738004876677 0.024592172970973658 0.005139664115273463 0.040883771570144986 -0.0044644524696614138 -0.041221479906543151 -0.0094834179983202468 -0.056900110639955787 0.049119547303477534 0.036402399737749863
leaf_weight=133.06375313678291 97.209075080230832 29.915967273991555 3.6199025360401711 19.193870574934408 12.238964080344884 95.800931892124936 162.65748603479005 5.5768749662674946 590.93351656710729 2.5930733024142674 10.185909701511262 3.3536003695335239 30.39683536416851 5.7580195113550863
leaf_count=8991 1029 1537 152 414 108 1193 2901 66 13100 69 181 154 288 105
internal_value=4.17142e-11 -0.00231269 0.000299475 -0.00376393 -0.00172105 0.0112207 0.01235 -0.038764 -0.00263616 0.0146864 0.0298684 0.00416366 0.0420186 -0.0204984
internal_weight=1202.5 1105.29 966.467 704.389 665.542 262.078 258.458 38.8464 653.303 62.3697 43.1758 8.93048 32.9899 138.822
internal_count=30288 29259 20163 15917 14160 4246 4094 1757 14052 952 538 220 357 9096
is_linear=0
shrinkage=0.05


Tree=51
num_leaves=15
num_cat=0
split_feature=2 3 12 0 26 25 23 9 17 1 2 23 4 27
split_gain=28.5254 20.3327 17.2801 12.5804 10.137 9.48388 9.3368 9.18362 11.8899 8.42 7.46706 10.0896 7.77413 7.15638
threshold=0.043297037094216555 0.9248645007610321 0.45227272727272733 19.124430422700879 0.54195804195804198 0.16228070175438594 0.10263157894736842 0.017000577923328802 0.17172443139935398 0.60968539118766796 0.0145754677754677 0.93095238095238109 0.79783196409149337 0.49374151441512987
decision_type=2 2 2 2 2 2 2 2 2 2 2 2 2 2
left_child=1 2 4 6 -1 -3 9 -8 -9 -4 11 12 -10 -7
right_child=-2 5 3 -5 -6 13 7 8 10 -11 -12 -13 -14 -15
leaf_value=-0.0094976916367171538 0.025994802986954186 0.019633213483982524 -0.017009130313971495 0.014948865571312612 -0.031401684727846331 0.0033689330827723039 -0.022941463975406026 -0.03592935110241452 0.043044059864385746 0.022595191535731664 -0.0045933736188040752 -0.065928040126687459 -0.0084552581133703567 -0.052048536498320724
leaf_weight=122.32824728672858 96.944981391890906 111.11640068795532 18.607549845939502 89.432021200889722 92.960493994294666 238.34735950594768 87.213150432566181 26.952852322952822 24.032113825669512 48.14282664260827 215.19943166733719 3.1650721193291238 10.542862892849369 5.9715436096303156
leaf_count=4611 1029 1278 644 1241 7010 3982 3652 774 296 799 4383 84 276 229
internal_value=8.83662e-11 -0.00230351 -0.00703218 -0.00212665 -0.0189557 0.00752243 -0.00564648 -0.0087742 -0.00435975 0.011555 -0.000995737 0.0195185 0.0273405 0.00201444
internal_weight=1190.96 1094.01 738.577 523.288 215.289 355.435 433.856 367.105 279.892 66.7504 252.939 37.74 34.575 244.319
internal_count=30288 29259 23770 12149 11621 5489 10908 9465 5813 1443 5039 656 572 4211
is_linear=0
shrinkage=0.05


Tree=52
num_leaves=15
num_cat=0
split_feature=2 9 1 3 9 17 3 17 23 19 1 11 9 14
split_gain=25.8888 18.2592 18.394 10.6891 20.4232 15.3286 12.1452 9.84961 13.2006 10.4164 9.55856 11.2699 10.9142 9.03161
threshold=0.036953155594215609 0.013423423423423403 0.6068457067012788 0.94983473420143139 0.049390243902439006 0.16333333333333333 0.96252864599227916 0.068217054263565863 0.58578431372549034 -1.0000000180025095e-35 0.88238126039505016 0.97500000000000009 0.073622402890695507 0.0033776164054869504
decision_type=2 2 2 2 2 2 2 2 2 2 2 2 2 2
left_child=1 2 -1 5 6 -3 -5 8 9 -4 11 12 -2 -7
right_child=10 3 7 4 -6 13 -8 -9 -10 -11 -12 -13 -14 -15
leaf_value=-0.034149271454920097 -0.021456324950695101 -0.026775585951442249 0.048274803116228455 0.064673196343520131 0.0026232273162380033 0.0089778651227503097 -0.0038638297661395225 -0.014893141795028614 -0.052342095633722989 -0.024482992222499712 0.038304025212098705 0.033563499274720569 0.01104352984370871 -0.0056329474939041521
leaf_weight=89.259458115906455 32.467271557077765 65.062946059508249 22.563283834606413 23.458810208830982 178.24341629794799 156.00385733577423 8.9223404498770815 57.853114529629238 5.4642515392042688 6.290756582049652 36.485729789361358 41.861633992521092 126.41470473515801 328.46007185219787
leaf_count=6774 597 1966 412 185 2783 1945 108 1950 222 190 399 387 1737 10633
internal_value=9.45028e-11 -0.00371928 -0.0179713 -0.000317648 0.00925939 -0.00398837 0.0457884 -0.00230444 0.0189174 0.0324122 0.0147621 0.0104833 0.00440224 -0.000928071
internal_weight=1178.81 941.582 181.431 760.151 210.625 549.527 32.3812 92.1714 34.3183 28.854 237.229 200.744 158.882 484.464
internal_count=30288 27168 9548 17620 3076 14544 293 2774 824 602 3120 2721 2334 12578
is_linear=0
shrinkage=0.05


Tree=53
num_leaves=15
num_cat=0
split_feature=14 1 7 14 4 2 22 11 26 4 4 0 9 11
split_gain=24.9228 16.8778 11.7079 15.9367 12.8818 9.65649 9.66213 15.9495 12.2201 17.7842 10.6511 10.655 10.1186 9.58471
threshold=0.0033776164054869504 0.77961206436157238 1.0000000180025095e-35 0.11424137055208637 0.97757918051463377 0.0092338345864661029 0.10263157894736842 0.87867647058823539 1.0000000180025095e-35 0.68061227162269489 0.8566666666666668 12.915473790786942 0.043717152412804557 0.94868421052631591
decision_type=2 2 2 2 2 2 2 2 2 2 2 2 2 2
left_child=1 5 4 -4 -2 -1 7 10 9 -9 11 -7 -8 -5
right_child=2 -3 3 13 -6 6 12 8 -10 -11 -12 -13 -14 -15
leaf_value=-0.083202185999433589 0.0022801898036854903 0.023747917038130721 -0.0054021095729242588 -0.03590931831239124 -0.032200921979978155 0.0083231869251907363 -0.048109926372316848 -0.084239961590455104 0.029161491394780373 0.015117863287884344 -0.035498533535308338 -0.052346588392747799 0.015439099455842523 0.0099080431678848866
leaf_weight=3.2316568549722424 374.10205157706514 137.99501711025368 211.18721672194079 85.171909765689634 29.200805801199749 42.064594869269058 6.5456542575266203 6.7221327442675856 44.049959858995862 13.64685026090592 45.103205557446927 8.7405950445681793 145.51464081765153 13.181038909358902
leaf_count=85 10746 1468 6043 6448 1045 666 141 62 393 135 1023 201 1606 226
internal_value=-1.53541e-10 0.00916195 -0.00583017 -0.0131444 -0.000216386 0.00278468 0.00367421 -0.00488953 0.0143529 -0.017672 -0.0178141 -0.00211453 0.0127035 -0.029769
internal_weight=1166.46 453.614 712.843 309.54 403.303 315.619 312.388 160.327 64.4189 20.369 95.9084 50.8052 152.06 98.3529
internal_count=30288 5780 24508 12717 11791 4312 4227 2480 590 197 1890 867 1747 6674
is_linear=0
shrinkage=0.05


Tree=54
num_leaves=15
num_cat=0
split_feature=14 2 7 14 4 11 3 1 22 3 27 19 23 27
split_gain=24.4029 16.091 10.9846 14.4788 11.9093 10.1747 16.3661 9.11775 9.30271 9.03452 9.87227 9.28631 8.75164 8.12051
threshold=0.0033776164054869504 0.027474035038505252 1.0000000180025095e-35 0.11424137055208637 0.97757918051463377 0.94868421052631591 0.33966033160686498 0.87172695994377147 0.10263157894736842 0.93948701024055492 0.49374151441512987 1.0000000180025095e-35 0.97368421052631593 0.33103004510133305
decision_type=2 2 2 2 2 2 2 2 2 2 2 2 2 2
left_child=1 7 4 -4 9 -5 -7 8 -1 11 13 -2 -3 -11
right_child=2 12 3 5 -6 6 -8 -9 -10 10 -12 -13 -14 -15
leaf_value=-0.01496737202009662 -0.00054875166732503973 0.019534260789199218 -0.0054581508787055781 -0.035423618731490074 -0.031398416998626187 -0.049320164124224922 0.057186783401504286 0.03155957887447438 0.0074843830348944171 0.012250025496288525 -0.034169721712249732 -0.036664253478272346 -0.03710851323479808 0.051775346380134257
leaf_weight=99.500650332774967 232.62544468499254 234.88084615126718 211.10692948452197 83.602186339092441 28.594214035663754 6.4970083474181584 8.1081634545698744 19.292216381523758 86.025868454016745 96.052196005592123 10.042394889984278 19.273715026327409 7.023217885172925 15.02803765516728
leaf_count=1785 7650 2583 6043 6448 1045 150 76 151 1155 1785 289 833 106 189
internal_value=-2.47461e-10 0.0091579 -0.00575449 -0.0128365 -0.00030015 -0.0286969 0.00980791 -0.00115497 -0.00455683 0.00208371 0.0133053 -0.00331208 0.0178897 0.0175974
internal_weight=1157.65 446.723 710.93 309.314 401.616 98.2074 14.6052 204.819 185.527 373.022 121.123 251.899 241.904 111.08
internal_count=30288 5780 24508 12717 11791 6674 226 3091 2940 10746 2263 8483 2689 1974
is_linear=0
shrinkage=0.05


Tree=55
num_leaves=15
num_cat=0
split_feature=2 1 14 23 9 14 5 22 4 11 0 14 23 4
split_gain=23.1191 17.1393 14.4944 18.5034 10.8522 9.3502 12.2551 10.3827 7.76798 11.745 10.1578 8.73132 8.25737 16.1251
threshold=0.043297037094216555 0.49205422401428228 0.00021522492170330005 0.93541666666666667 0.21583850931677012 -1.0000000180025095e-35 1.0000000180025095e-35 0.06904761904761901 0.97470545351350213 0.91287878787878796 8.9706677899336196 0.28949739306450972 0.095454545454545472 0.51804820237218419
decision_type=2 2 2 2 2 2 2 2 2 2 2 2 2 2
left_child=1 4 3 5 -1 7 -7 -3 11 -10 -11 12 13 -4
