tree
version=v4
num_class=1
num_tree_per_iteration=1
label_index=0
max_feature_idx=22
objective=lambdarank
feature_names=bm25_score vector_score hybrid_score rerank_score param_score param_match param_tier_0 param_tier_1 param_tier_2 name_bonus candidates_count bm25_rank_score vector_rank_score name_edit_dist score_gap_to_top1 dual_recall param_main_exact param_main_rel_dist param_main_direction param_material_match param_n_checks book_match token_overlap
feature_infos=[0:92.626250417513617] [0:0.99994027614593517] [0.0064999999999999997:0.046721311475409803] [1.6105032045743428e-05:0.99994707107543956] [0:1] [0:1] [0:1] [0:1] [0:1] [0:1] [10:20] [0.050000000000000003:1] [0.050000000000000003:1] [0:1] [-0.33001452015978949:0.86455646753311155] [0:1] [0:1] [0:1] [-1:1] [-1:1] [0:4] none [0:1]
tree_sizes=3494 3506 3459 3499 3467 3477 3478 3460 3482 3494 3489 3489 3467 3482 3472 3465 3500 3499 3504 3493 3483 3499 3490 3457 3475 3477 3511 3461 3465 3488 3447 3485 3493 3436 3483 3459 3459 3476 3464 3489 3490 3487 3485 3487 3485 3465 3496 3474 3483 3462 3472 3473 3457 3445 3485 3466 3487 3463 3477 3476 3467 3457 3464 3475 3506 3477 3460 3466 3468 3486 3473 3477 3464 3482 3482 3484 3485 3483 3446 3456 3474 3479 3472 3454 3473 3455 3472 3450 3441 3446 3441 3493 3469 3478 3478 3450 3485 3453 3472 3458 3462 3456 3444 3484 3469 3490 3491 3435 3449 3474 3466 3486 3452 3475 3455 3498 3462 3485 3458 3471 3456 3485 3443 3439 3449 3480 3475 3410 3430 3427 3386 3476 3430 3468 3439 3443 3450 3460 3436 3463 3460 3456 3433 3427 3466 3448 3438 3439 3472 3463 3454 3450 3455 3450 3490 3466 3475 3471 3464 3463 3474 3474 3479 3468 3462 3460 3451 3436 3418 3477 3417 3463 3460 3453 3443 3480 3431 3457 3413 3473 3466 3432 3436 3467 3447 3459 3469 3434 3445 3446 3398 3426 3464 3367 3486 3432 3437 3415 3454 3373 3387 3413 3433 3458 3460 3474 3453 3430 3487 3399 3415 3434 3415 3414 3490 3484 3494 3480 3450 3475 3460 3488 3467 3465 3482 3474 3464 3479 3476 3447 3397 3402 3435 3420 3413 3385 3450 3359 3411 3466 3421 3410 3467 3435 3380 3430 3446 3459 3448 3434 3443 3434 3423 3397 3410 3485 3448 3447 3431 3448 3398 3437 3402 3435 3426 3453 3448 3465 3463 3482 3450 3468 3469 3426 3435 3378 3447 3402 3407 3475 3477 3439 3404 3459 3471 3474 3475 3404 3479 3447 3399 3443 3464 3490 3466 3475 3496 3435 3441 3457

Tree=0
num_leaves=31
num_cat=0
split_feature=12 14 14 11 1 11 11 11 18 18 0 1 12 3 12 3 14 2 6 4 9 4 0 2 12 7 9 11 12 0
split_gain=3854.84 631.229 390.472 166.675 195.104 112.106 91.7573 64.7909 57.0969 51.8548 49.7341 44.1261 42.4401 36.4506 27.3282 24.2637 20.3438 18.2536 17.3275 16.2638 15.6667 26.4883 15.6434 15.4888 15.4322 14.0462 13.9681 13.7141 12.583 12.3155
threshold=0.81534090909090917 0.013269608066632252 0.0013715878129005002 0.59411764705882364 1.0000000180025095e-35 0.89181286549707617 0.84807692307692317 0.94868421052631591 1.0000000180025095e-35 1.0000000180025095e-35 1.0000000180025095e-35 1.0000000180025095e-35 0.93541666666666667 0.94945466518402111 0.64852941176470591 0.79569423198699962 -1.0000000180025095e-35 0.0090637046400881011 1.0000000180025095e-35 0.021391987094404704 0.079473684210526321 0.49373032854887977 15.598313331690767 0.0079393939393939007 0.94868421052631591 1.0000000180025095e-35 0.14907407407407408 0.67543859649122828 0.94590643274853814 6.2516465836482533
decision_type=2 2 2 2 2 2 2 2 2 2 2 2 2 2 2 2 2 2 2 2 2 2 2 2 2 2 2 2 2 2
left_child=1 3 10 13 -5 9 12 8 15 14 24 -7 26 23 19 -6 -12 -16 -15 -3 -11 -22 -10 -1 -2 -19 -4 -23 -8 -9
right_child=2 5 6 4 7 11 28 29 22 20 16 -13 -14 18 17 -17 -18 25 -20 -21 21 27 -24 -25 -26 -27 -28 -29 -30 -31
leaf_value=0.013099088005465418 0.016617669190476185 -0.042964665812849218 -0.037268819803587462 -0.090463179781315434 -0.028431879772929554 -0.071525703321581924 0.032266046617689087 -0.0054121169263308087 0.084140060433930797 -0.069175481771362013 0.060662037174547573 0.004198491769939105 0.02419722763878868 -0.022699103751537188 0.016360506904577708 0.016267969720907851 0.09106531741155445 -0.051938357906008016 0.063199443454242304 -0.088473486693801076 0.029578601550419737 -0.066335759834580468 0.012596428420673654 -0.06765008438194757 0.062859863565627325 -0.081130651405355872 0.0040393982821193266 -0.012652588826213146 0.065084859305764034 0.071144812517037762
leaf_weight=5.9099729899317017 29.910534671507776 23.571126197522972 73.895586181082763 34.608361644204706 50.197645670268685 26.799510240321979 58.243372757919133 5.3011368513107291 29.661236051935703 38.527521886513568 69.712034952593967 61.790899636631366 70.182765928009758 17.879496212117377 6.2658569077029815 73.539739677216858 725.13902698596939 90.241717858822085 7.5136214019730678 667.89546985155903 14.541088994126765 29.92413627775386 10.934825998265294 93.891499851772096 49.907380766700953 97.23470692394767 27.620156110962853 20.679591705440544 68.652595108374953 90.38905220804736
leaf_count=57 291 551 1476 613 911 551 804 44 149 892 676 1029 1081 373 85 1103 1592 2067 98 13917 387 769 158 1924 235 2021 492 505 638 419
internal_value=0 -0.0531609 0.0678306 -0.00113051 0.0193945 -0.0734096 0.0183636 0.034326 0.0150734 -0.0782371 0.0846716 -0.0191957 -0.00546175 -0.0492445 -0.0821873 -0.00190829 0.0884847 -0.0646491 0.00395969 -0.0869937 -0.0439976 -0.0282108 0.0657556 -0.0627362 0.0460132 -0.0674556 -0.0260512 -0.0451649 0.0504307 0.0668398
internal_weight=2670.56 1497.3 1173.26 419.827 294.632 1077.47 298.594 260.024 164.333 988.881 874.669 88.5904 171.699 125.195 885.209 123.737 794.851 193.742 25.3931 691.467 103.672 65.1448 40.5961 99.8015 79.8179 187.476 101.516 50.6037 126.896 95.6902
internal_count=35908 28623 7285 5849 3397 22774 4491 2784 2321 21194 2794 1580 3049 2452 18641 2014 2268 4173 471 14468 2553 1661 307 1981 526 4088 1968 1274 1442 463
is_linear=0
shrinkage=0.05


Tree=1
num_leaves=31
num_cat=0
split_feature=12 14 14 15 3 15 14 11 11 7 12 9 0 3 17 5 11 12 12 9 14 14 12 22 9 11 4 2 11 22
split_gain=3891.45 1025.69 695.784 266.352 259.472 219.102 213.077 131.514 123.876 104.479 78.7225 72.3127 68.022 64.2984 80.0025 62.3973 60.8523 55.8274 51.9351 41.7505 50.7736 40.4681 40.4293 38.7578 38.3499 36.7533 34.4376 57.5975 32.6336 32.376
threshold=0.89181286549707617 0.029329331947832903 1.0000000180025095e-35 1.0000000180025095e-35 0.95643156766891491 1.0000000180025095e-35 -1.0000000180025095e-35 0.97500000000000009 0.97500000000000009 1.0000000180025095e-35 0.54772727272727284 0.079473684210526321 19.382041023829803 0.96149125695228588 0.94960317460317467 1.0000000180025095e-35 0.78759398496240618 0.44722222222222224 0.46862745098039221 0.075961538461538455 0.2408322461769872 -0.00018067806959139998 0.47213622291021679 0.057189542483660101 0.085410334346504566 0.93095238095238109 0.78307961007372939 0.018998374958329203 0.54772727272727284 0.16025641025641021
decision_type=2 2 2 2 2 2 2 2 2 2 2 2 2 2 2 2 2 2 2 2 2 2 2 2 2 2 2 2 2 2
left_child=1 4 6 9 5 10 25 19 18 11 -1 17 22 14 -6 -9 -15 -3 -7 20 -4 -10 -5 -18 -13 -2 -19 -28 -11 -20
right_child=2 3 7 12 13 8 -8 15 21 28 -12 24 -14 16 -16 -17 23 26 29 -21 -22 -23 -24 -25 -26 -27 27 -29 -30 -31
leaf_value=-0.061909953507915616 0.0091250293466711638 -0.080284469611000789 0.0008141295419952394 -0.060146324404410006 0.081168298547537931 -0.031868307981178672 0.079378760551037375 0.082472071231138006 -0.026447396138658843 -0.08370867074064392 -0.016880713482550661 -0.00047214521496253447 -0.0045771128610945996 -0.0058808882992567521 -0.036105497002333613 0.0027463052999964323 0.060039948070384569 -0.062396930969342762 -0.0068839294116886445 0.015463853789861282 -0.053678033809520881 0.063582720459037387 -0.023767793159152839 0.014638331791076944 -0.04236181944922543 0.055766515706721545 -0.052866503595635245 0.021856189643491619 -0.058905877899155502 0.027439046519097794
leaf_weight=214.32620572391897 138.55262879468501 262.40318271331489 222.45596414245665 134.76044881576672 102.31362562254071 125.60841375496238 1259.0938264280558 90.908476563170552 13.54165058583021 565.33854674175382 179.24133766116574 67.515457566827536 251.80910561047494 122.34926862735301 16.273539295420051 33.758155278861523 102.18287001922727 154.07197495363653 174.35326729901135 415.55557019961998 51.857584673911333 103.15015249699354 181.46038657054305 88.528850317001343 291.45998422568664 60.311672754585743 68.418311033397913 40.205932360142469 191.44134878041223 111.91661364026368
leaf_count=2177 505 2888 1022 1413 186 998 1424 118 42 6463 1335 504 2030 896 103 112 308 1637 1086 1761 303 148 1592 397 2809 160 682 275 2025 509
internal_value=0 -0.0326079 0.0511124 -0.0536031 0.00165923 -0.0133127 0.0717822 0.0140662 0.00771186 -0.0638195 -0.0415098 -0.0520058 -0.0240221 0.0336125 0.0648658 0.0611168 0.0215889 -0.0638615 -0.00519182 0.00548032 -0.00962673 0.0529566 -0.0394273 0.0391768 -0.0345204 0.0235037 -0.0471956 -0.0252161 -0.077527 0.00656597
internal_weight=5835.16 3562.67 2272.49 2208.88 1353.79 922.138 1457.96 814.536 528.57 1640.85 393.568 884.075 568.03 431.648 118.587 124.667 313.061 525.099 411.878 689.869 274.314 116.692 316.221 190.712 358.975 198.864 262.696 108.624 756.78 286.27
internal_count=35908 30503 5405 22318 8185 6295 2089 3316 2783 17283 3512 8795 5035 1890 289 230 1601 5482 2593 3086 1325 190 3005 705 3313 665 2594 957 8488 1595
is_linear=0
shrinkage=0.05


Tree=2
num_leaves=31
num_cat=0
split_feature=12 14 14 14 3 0 11 11 1 12 3 17 11 0 12 11 7 9 17 11 12 12 0 0 0 7 2 3 12 9
split_gain=3290.61 699.645 601.953 211.509 187.863 168.99 152.401 147.516 90.2808 87.9836 69.5965 63.9423 57.2733 55.4338 55.4115 46.381 45.0977 43.2089 41.1896 40.0374 38.2011 37.2568 36.5588 75.8244 56.2138 34.3083 36.503 31.0725 30.2244 28.4216
threshold=0.81534090909090917 0.020614437013864454 1.0000000180025095e-35 -1.0000000180025095e-35 0.95643156766891491 21.094763994733253 0.78174603174603186 0.92582417582417598 0.30344551801681524 0.48684210526315796 0.96149125695228588 0.94960317460317467 0.44722222222222224 33.787984810389169 0.47213622291021679 0.97500000000000009 1.0000000180025095e-35 0.014605543710021252 0.98894067796610197 0.48684210526315796 0.97500000000000009 0.97500000000000009 23.889028562774719 20.417190932200469 20.592129803813847 1.0000000180025095e-35 0.0079393939393939007 0.99276340007781994 0.55277777777777792 0.13188405797101446
decision_type=2 2 2 2 2 2 2 2 2 2 2 2 2 2 2 2 2 2 2 2 2 2 2 2 2 2 2 2 2 2
left_child=1 4 3 27 6 9 14 16 -8 29 11 -6 18 28 -1 -10 19 -18 -11 -4 -9 22 23 -5 -25 -14 -27 -2 -12 -3
right_child=2 5 7 21 10 -7 8 20 15 12 13 -13 25 -15 -16 -17 17 -19 -20 -21 -22 -23 -24 24 -26 26 -28 -29 -30 -31
leaf_value=-0.058404354903092565 0.01510426265043999 -0.074056395673892148 -0.01121700412911285 0.056992425984406327 0.075740005728754334 -0.013926256439114196 -0.074015942099236176 0.031132345465980368 0.0064523041881227169 -0.043931281262790091 -0.024624879313888348 -0.054077106057680804 -0.015779061426901563 0.055848616641012871 -0.019762745314083976 0.053001423046348396 -0.044875401322463426 -0.0014327612785644947 -0.077158934951111674 0.022240948249777445 0.072242421270543519 0.079818621294010503 0.07878191995472611 -0.092871668410039854 0.05201271354088613 0.070298752618374968 -0.051377832103262293 0.068467539648137413 0.018937191297002835 -0.05147094100724621
leaf_weight=169.26804747339338 207.24757806025445 730.09261636063457 129.66454117861576 148.81890242546797 95.412670604884624 237.66384996473789 26.648981703445315 160.82101580500603 169.6636812845245 209.31324478425086 74.541824977844954 9.7647264972329122 178.32772608473897 55.999272391200066 208.5912759732455 77.605171907693148 80.906968591734767 191.11823302693665 179.01287076342851 282.4063172955066 89.479873053729534 835.52112117782235 132.20768200606108 15.442627876996996 10.404413238167761 5.5225660242140284 168.82979842461646 30.724489197134972 83.167498376220465 187.89977209642529
leaf_count=1980 874 9254 870 260 170 2224 337 656 1003 2258 593 93 1641 177 1714 158 627 1042 2366 1427 171 1045 190 21 21 15 1947 81 473 2220
internal_value=0 -0.0357935 0.0443342 0.0653024 -0.00125909 -0.0534548 -0.0166452 0.0133163 0.0117158 -0.0591027 0.0301269 0.0632448 -0.0461391 0.0135859 -0.0371945 0.0212365 0.00127237 -0.014489 -0.0594204 0.0116991 0.0460776 0.0742342 0.0588034 0.0432905 -0.034599 -0.0313746 -0.0471163 0.0222726 -0.00164648 -0.0695
internal_weight=5182.09 2867.33 2314.76 1380.37 970.663 1896.66 651.777 934.397 273.918 1659 318.886 105.177 741.006 213.709 377.859 247.269 684.096 272.025 388.326 412.071 250.301 1142.39 306.874 174.666 25.847 352.68 174.352 237.972 157.709 917.992
internal_count=35908 28623 7285 2492 6698 21925 5192 4793 1498 19701 1506 263 8227 1243 3694 1161 3966 1669 4624 2297 827 1537 492 302 42 3603 1962 955 1066 11474
is_linear=0
shrinkage=0.05


Tree=3
num_leaves=31
num_cat=0
split_feature=12 14 14 15 3 15 14 11 5 9 11 3 1 11 11 1 3 14 14 8 11 11 14 12 3 14 17 22 22 14
split_gain=2724.07 704.026 417.372 204.7 161.663 147.57 111.305 85.5671 80.0367 67.3038 63.5749 57.7319 54.4763 51.8387 43.3078 42.9928 41.1067 37.967 36.761 32.2735 30.8866 30.2704 28.7343 25.8386 28.8927 25.8106 24.6307 24.4236 22.4031 21.4916
threshold=0.88562091503267981 0.013269608066632252 0.0013715878129005002 1.0000000180025095e-35 0.95643156766891491 1.0000000180025095e-35 -1.0000000180025095e-35 0.97500000000000009 1.0000000180025095e-35 0.018019480519480453 0.78759398496240618 0.9533560872077943 0.57308974862098705 0.97500000000000009 0.39444444444444443 0.51277896761894237 0.96149125695228588 0.033977312522257254 -0.021051594614982547 1.0000000180025095e-35 0.54772727272727284 0.7947368421052633 -1.0000000180025095e-35 0.47213622291021679 0.25077512860298162 1.0000000180025095e-35 0.87416666666666676 0.06904761904761901 0.17156862745098037 -0.00018067806959139998
decision_type=2 2 2 2 2 2 2 2 2 2 2 2 2 2 2 2 2 2 2 2 2 2 2 2 2 2 2 2 2 2
left_child=1 4 6 9 5 15 27 18 13 12 -5 20 -3 -4 -6 -1 26 21 -7 -14 -11 -10 -18 -22 -25 -24 -16 -2 -20 -9
right_child=2 3 8 10 14 7 -8 29 17 11 -12 -13 19 -15 16 -17 22 -19 28 -21 23 -23 25 24 -26 -27 -28 -29 -30 -31
leaf_value=-0.067441269778850274 0.008569072384972105 -0.07726980956909818 0.022343263993476997 -0.037645972773149773 -0.047057481012721392 -0.034593722573355301 0.071730526527559096 -0.014607477405971443 -0.0076191260375377563 -0.059363499105793777 -0.0042858400190252466 -0.0095246520360334312 -0.061915375930537322 0.072877233833712488 0.07256540282442149 -0.024138159251647764 0.00076916233081909065 -0.01202453032808834 -0.0039091357525191731 -0.023813317725194568 -0.048057825790589183 0.035998628982285071 0.057922223559701461 0.018019751820649663 -0.047352713496506382 0.015172581442779451 -0.0021207595868109174 0.04617195521961702 0.029710963166040147 0.062433883711348614
leaf_weight=84.995106115937233 84.052130125463009 487.06637451797724 169.57549801468849 292.67788883252069 15.29103549197316 67.987122725695372 1019.0880035348237 9.743904843926428 63.733336945995688 397.11185770109296 279.29968802537769 96.786205530166626 151.52356449281797 72.67577151954174 87.767790995538235 180.01792764291167 81.075602618046105 226.7375038638711 149.61250186339021 91.215594893321395 121.88308875449002 102.81172212772071 75.857537616044283 39.544992302544415 27.980275170877576 67.790903140790761 12.39530469290912 89.898676760494709 72.805380596779287 76.946542702615261
leaf_count=1104 369 6904 835 3559 141 555 1656 42 371 5225 2222 1098 1958 116 159 1588 522 1321 1137 953 1500 459 157 274 324 456 89 301 384 129
internal_value=0 -0.0295778 0.0479883 -0.046703 0.00503731 -0.00972146 0.0654143 0.0103601 0.0152167 -0.0569185 -0.0214007 -0.0454794 -0.0675451 0.0377614 0.0328569 -0.0382465 0.0367664 0.00125654 -0.00268512 -0.0477745 -0.0513778 0.0193313 0.0246701 -0.0343849 -0.00929123 0.0380266 0.0633439 0.0281839 0.00715728 0.0536497
internal_weight=4795.95 2967.38 1828.57 1985.09 982.287 642.108 1193.04 377.095 635.534 1413.11 571.978 683.306 729.806 242.251 340.178 265.013 324.887 393.283 290.405 242.739 586.52 166.545 224.724 189.408 67.5253 143.648 100.163 173.951 222.418 86.6904
internal_count=35908 30480 5428 24017 6463 4939 2326 2247 3102 18236 5781 8421 9815 951 1524 2692 1383 2151 2076 2911 7323 830 1135 2098 598 613 248 670 1521 171
is_linear=0
shrinkage=0.05


Tree=4
num_leaves=31
num_cat=0
split_feature=12 14 14 14 3 0 11 11 1 17 3 0 9 12 12 14 14 11 17 1 9 11 0 4 11 11 1 5 1 17
split_gain=2271.27 483.389 471.857 158.966 135.352 131.299 106.201 98.8438 63.731 59.707 57.6453 38.8672 36.2012 34.9253 34.6908 33.5788 41.1001 33.5124 33.2982 33.0659 28.8804 27.3423 26.4212 25.9314 25.7041 25.5947 25.2161 24.638 24.0299 23.3029
threshold=0.81534090909090917 0.024362871738580451 1.0000000180025095e-35 -1.0000000180025095e-35 0.95882451534271251 19.61412001568333 0.78174603174603186 0.89181286549707617 0.30344551801681524 0.98979166666666674 0.96149125695228588 33.787984810389169 0.18898809523809523 0.54195804195804198 0.48684210526315796 -0.021051594614982547 0.0013715878129005002 0.54772727272727284 0.94960317460317467 0.59695041179656994 0.028991596638655404 0.93095238095238109 9.7909714592122938 0.59791521206046316 0.97500000000000009 0.48684210526315796 0.65021979808807384 1.0000000180025095e-35 0.88632452487945568 0.83452380952380967
decision_type=2 2 2 2 2 2 2 2 2 2 2 2 2 2 2 2 2 2 2 2 2 2 2 2 2 2 2 2 2 2
left_child=1 4 3 21 6 9 13 19 -8 12 18 -12 14 26 -3 -10 -17 -11 -6 20 -4 28 -5 -24 -9 -21 -1 -26 -2 -7
right_child=2 5 7 22 10 29 8 24 15 17 11 -13 -14 -15 -16 16 -18 -19 -20 25 -22 -23 23 -25 27 -27 -28 -29 -30 -31
leaf_value=-0.057971366900339973 0.0044597600600891976 -0.061285983502003843 -0.066815204217752555 0.043982208158431346 0.069770201180781533 0.0026158585786377224 -0.066073607245266841 0.023328212619144188 -0.02783565112492159 -0.069571403030947276 -0.0015794448919060951 0.049254119596513213 -0.012801011656691617 -0.016526395609800716 -0.033186995248050924 0.041299954131903148 -0.0079326656122050802 -0.047659690662570461 -0.049436542414892037 -0.015638984957872627 -0.0050409569248999518 0.051286528101235462 -0.066124558218994697 0.07248314382793164 0.069770453441746774 0.010541499561001354 -0.01266474640230473 0.015253593028713276 0.068053148995273233 -0.028282540270920583
leaf_weight=141.79015210829675 146.76155736856163 218.03759281989187 32.382959021255374 101.32248344644904 78.210872288793325 112.4704182241112 24.119179034605622 197.703079842031 33.384169170632958 558.49616725090891 143.35290322545916 49.862679526209831 95.795992840779945 172.41650478634983 233.32822955865413 133.16663094609976 61.329677338711917 272.96662584878504 5.5815860424190751 126.58542385417968 44.531611002981663 56.411730602383614 2.6217083111405364 842.55551766976714 73.504797544330359 346.48929369263351 40.349489125423133 29.994479836896062 15.585026826709507 131.29209473542869
leaf_count=1968 732 3225 362 247 141 1242 359 974 251 8540 1127 182 1217 1556 2693 490 462 3416 68 952 289 186 7 1283 128 1956 415 132 37 1271
internal_value=0 -0.0317799 0.0394908 0.060151 -0.00201135 -0.0479778 -0.0152374 0.0111643 0.00954474 -0.053958 0.0268819 0.0116994 -0.0409545 -0.0328426 -0.0468771 0.0178238 0.0257889 -0.0624498 0.0612812 -0.00144696 -0.0316374 0.0215787 0.0690285 0.0719696 0.0341374 0.00350736 -0.0480858 0.0543163 0.0109745 -0.0140534
internal_weight=4522.4 2505.95 2016.45 1165.26 883.564 1622.39 606.556 851.192 252 1378.62 277.008 193.216 547.162 354.556 451.366 227.88 194.496 831.463 83.7925 549.989 76.9146 218.758 946.5 845.177 301.202 473.075 182.14 103.499 162.347 243.763
internal_count=35908 28623 7285 2492 7019 21604 5501 4793 1562 19091 1518 1309 7135 3939 5918 1203 952 11956 209 3559 651 955 1537 1290 1234 2908 2383 260 769 2513
is_linear=0
shrinkage=0.05


Tree=5
num_leaves=31
num_cat=0
split_feature=12 14 14 15 1 11 12 11 3 11 11 14 12 9 9 3 17 9 8 2 11 4 9 17 9 3 0 0 4 1
split_gain=1928.11 588.33 221.44 207.298 123.065 138.394 74.7304 70.7599 66.1733 55.5868 51.8752 46.3023 45.6177 38.8009 38.0455 35.4972 34.4589 26.1094 47.4799 31.1528 24.8146 27.3606 23.9826 23.8685 23.2834 20.5018 20.2591 20.2055 19.4034 18.3917
threshold=0.92582417582417598 0.013269608066632252 0.00011431127786635002 1.0000000180025095e-35 0.30344551801681524 0.43303571428571436 0.62019230769230782 0.97500000000000009 0.95643156766891491 0.8377192982456142 0.94590643274853814 -1.0000000180025095e-35 0.6858552631578948 0.18634259259259259 0.32291666666666669 0.96149125695228588 0.84058823529411775 0.013335704125177801 1.0000000180025095e-35 0.019992195872873552 0.48684210526315796 0.49373032854887977 0.26969696969696971 0.8522727272727274 0.13188405797101446 0.19966793060302732 17.067914860922748 10.104284041037536 0.79112781244591346 0.70554721355438244
decision_type=2 2 2 2 2 2 2 2 2 2 2 2 2 2 2 2 2 2 2 2 2 2 2 2 2 2 2 2 2 2
left_child=1 4 11 6 -1 -6 13 8 12 16 25 26 14 -3 -7 22 -5 18 -8 20 21 -19 -10 -15 28 -4 -2 -11 -17 -18
right_child=2 3 10 9 5 7 17 -9 15 27 -12 -13 -14 23 -16 24 29 19 -20 -21 -22 -23 -24 -25 -26 -27 -28 -29 -30 -31
leaf_value=-0.067902537000342086 0.0099920338553463467 -0.061793298135897956 -0.022142039166438698 -0.006340605734147034 -0.034021381904039652 -0.031305169113731941 -0.064167121078837777 0.050866870138245868 0.067635022071030559 -0.045519747443578895 0.045361211799510866 0.068618347595183343 0.014539666834145943 -0.0099457274425078859 0.02271758230151482 -0.044891184295078934 -0.047494200734378711 0.018494931226865862 -0.013513361579296251 -0.045851974453992847 0.016458170049737347 -0.042250450501944564 -0.012810085320225737 -0.053825418690827867 0.032017979584707638 0.013897133498807139 0.053013085276535088 0.0067338772340826058 0.0140148490537291 -0.013516385065764865
leaf_weight=49.510642230510712 51.026146290823817 782.03608419001102 46.335075285285711 124.47165655298159 138.57565071620047 136.49969624821097 124.58748418604955 149.20994827151299 77.596032500267029 18.97986725717783 137.19235176965594 787.35425230488181 247.32260614540428 64.975895554292947 41.80764376744628 19.968643495813012 167.19961291225627 25.579792905133218 74.713810787536204 78.084496614988893 63.911446345970035 61.28868744103238 10.059380794875322 59.857093896716833 122.01665626745671 235.80582430958748 60.338882647454739 247.45688518648967 40.878836454823613 54.089370598085225
leaf_count=742 204 12269 272 1571 1567 1419 1815 354 167 197 447 1336 1457 799 274 189 2163 249 712 931 441 769 75 856 602 1159 206 1821 266 579
internal_value=0 -0.0222672 0.0503343 -0.0384441 0.00821643 0.0121168 -0.0494882 0.0197172 0.0129701 -0.0143104 0.0202492 0.064328 0.000652938 -0.0576385 -0.0185545 0.0322575 -0.027508 -0.0321198 -0.0453653 -0.0204163 -0.00699572 -0.0242992 0.0583063 -0.0312862 0.0194946 0.00790358 0.0336102 0.00283656 -0.00564908 -0.0393097
internal_weight=4298.73 2980.68 1318.05 1947.23 1033.45 983.935 1335.03 845.359 696.149 612.197 419.333 898.719 425.63 906.869 178.307 270.52 345.761 428.166 199.301 228.864 150.78 86.8685 87.6554 124.833 182.864 282.141 111.365 266.437 60.8475 221.289
internal_count=35908 32284 3624 25172 7112 6370 18841 4803 4449 6331 1878 1746 3150 13924 1693 1299 4313 4917 2527 2390 1459 1018 242 1655 1057 1431 410 2018 455 2742
is_linear=0
shrinkage=0.05


Tree=6
num_leaves=31
num_cat=0
split_feature=12 14 14 14 3 0 11 11 17 1 3 17 0 12 9 12 11 11 0 5 14 1 14 14 12 22 4 11 11 11
split_gain=1670.44 371.802 367.287 133.95 103.531 102.901 91.8549 75.3681 48.4734 47.6192 28.0778 35.1019 33.342 27.7261 27.1293 29.3028 26.5188 24.815 23.4596 22.778 27.3566 21.7913 20.8902 31.347 20.8793 20.6509 20.4044 20.019 18.4432 18.2282
threshold=0.81534090909090917 1.0000000180025095e-35 0.024362871738580451 -1.0000000180025095e-35 0.94945466518402111 21.094763994733253 0.78174603174603186 0.89181286549707617 0.98979166666666674 0.30344551801681524 0.96149125695228588 0.94960317460317467 34.658817067748267 0.74342105263157909 0.21583850931677012 0.48684210526315796 0.54772727272727284 0.93095238095238109 1.0000000180025095e-35 1.0000000180025095e-35 0.042674092551595204 0.59695041179656994 -0.021051594614982547 0.0013715878129005002 0.55277777777777792 0.06904761904761901 0.98775574277535017 0.97500000000000009 0.97500000000000009 0.48684210526315796
decision_type=2 2 2 2 2 2 2 2 2 2 2 2 2 2 2 2 2 2 2 2 2 2 2 2 2 2 2 2 2 2
left_child=2 3 4 17 6 8 13 21 14 -8 11 26 24 -1 15 -4 -10 25 -5 27 -21 -3 -11 -24 -12 -2 -6 -9 -26 -23
right_child=1 7 5 18 10 -7 9 19 16 22 12 -13 -14 -15 -16 -17 -18 -19 -20 20 -22 29 23 -25 28 -27 -28 -29 -30 -31
leaf_value=-0.039839081299778832 -0.0084623103880462486 -0.027973410486023472 -0.054647814308140079 0.032309335153491651 0.062533704002299573 -0.0099500664533896908 -0.06266635101401527 0.017790520606846473 -0.063668965100123778 -0.021970283233846963 -0.022302379780976458 -0.023949467243512504 0.048428922642313965 0.00026773102086636577 -0.0074351546894261726 -0.028651780685743328 -0.043352297065537927 0.048409041983914082 0.066356454844118701 0.033674638909223939 -0.0074359659507795056 -0.014950382772895919 0.03635887949184971 -0.0091368310648966347 0.0042558247564895629 0.028285051359380278 -0.028106204175834204 0.065311287153286254 0.066448039545726659 0.0082587687819530454
leaf_weight=247.18021527375095 82.671688126400113 68.144549989141524 213.46154641848989 57.799464624375105 80.590972287580371 199.11013687681407 19.988958783447742 34.925015158951283 497.13839497417212 29.574300672858953 63.220274245366454 15.662011053413151 43.592071605846286 51.830466281622648 69.496636670082808 231.33445721771568 256.62015861645341 51.30700883641839 779.73048085346818 115.21045339666307 61.338301645591855 113.24981861561537 125.410524725914 53.335055221803486 63.034884200431406 69.364880196750164 6.0831793192774049 66.49514688923955 13.811451159417627 324.50147376954556
leaf_count=3315 458 651 3548 168 224 2163 346 197 8555 242 636 170 170 456 864 2941 3533 186 1369 549 360 952 468 437 482 311 52 128 21 1956
internal_value=0 0.0356451 -0.0285248 0.0552184 -0.00156255 -0.0434566 -0.0146984 0.00961067 -0.0487019 0.00914778 0.0226069 0.0434897 0.0107712 -0.0328926 -0.0366992 -0.0412333 -0.0568253 0.0186664 0.0640541 0.0304769 0.019402 -0.00188213 0.0163289 0.0227805 -0.00117357 0.00834584 0.0558671 0.0493293 0.0162077 0.00222259
internal_weight=4105.21 1824.74 2280.48 1040.87 813.314 1467.16 527.32 783.865 1268.05 228.309 285.995 102.336 183.659 299.011 514.293 444.796 753.759 203.344 837.53 277.969 176.549 505.896 208.32 178.746 140.067 152.037 86.6742 101.42 76.8463 437.751
internal_count=35908 7285 28623 2492 7019 21604 5264 4793 19441 1493 1755 446 1309 3771 7353 6489 12088 955 1537 1234 909 3559 1147 905 1139 769 276 325 503 2908
is_linear=0
shrinkage=0.05


Tree=7
num_leaves=31
num_cat=0
split_feature=12 14 14 15 11 1 12 17 3 14 0 9 0 0 9 5 1 9 19 3 12 4 2 3 9 4 17 11 2 3
split_gain=1457.17 452.92 168.38 139.575 116.348 102.809 53.5486 50.2409 47.7097 43.404 42.2915 39.9367 40.6332 38.8802 29.3352 29.1576 25.9526 25.1541 29.0167 23.8977 21.7577 21.2138 20.8384 20.0204 19.5657 19.4312 18.8054 18.579 17.4367 17.1107
threshold=0.92582417582417598 0.029329331947832903 0.00011431127786635002 1.0000000180025095e-35 0.59411764705882364 1.0000000180025095e-35 0.62019230769230782 0.80203761755485903 0.94945466518402111 -1.0000000180025095e-35 17.246927153614237 0.14907407407407408 28.844357060504148 50.535065913820766 0.027587519025875154 1.0000000180025095e-35 0.57308974862098705 0.080540540540540509 -1.0000000180025095e-35 0.93973138928413402 0.73030303030303045 0.8281135008391981 0.024106630844820304 0.95882451534271251 0.013335704125177801 0.96590869055777251 0.90727513227513246 0.85357142857142876 0.019478490948779553 0.97043102979660045
decision_type=2 2 2 2 2 2 2 2 2 2 2 2 2 2 2 2 2 2 2 2 2 2 2 2 2 2 2 2 2 2
left_child=1 4 9 6 8 -6 14 17 20 29 -4 12 16 23 -3 -10 21 18 -5 -16 -1 -7 24 -9 26 -13 28 -27 -8 -2
right_child=2 3 10 7 5 11 22 13 15 -11 -12 25 -14 -15 19 -17 -18 -19 -20 -21 -22 -23 -24 -25 -26 27 -28 -29 -30 -31
leaf_value=-0.042779472269405046 0.012412068474495401 -0.063080588476406504 0.0044541272324195112 0.0072446873434865965 -0.05686540479512342 0 -0.037143771197037982 -0.036082579358688784 0.049235011590559485 0.06361166933950213 0.037846252054686585 0.039421916638924095 0.039333080353858643 0.05118026049079967 -0.048673455459786442 -0.011385140372983792 0.0081555620398745931 0.018341919394538355 -0.059548609662327223 -0.012605560897954794 -0.0084012780355438143 -0.050906449409447288 -0.056974225416688208 0.0052434879859520602 -0.012835136155336957 -0.0029782378922142707 -0.05692440965037189 0.033100881571688591 0.013770509001359295 0.05427227427461831
leaf_weight=163.16748037794605 65.160857928916812 416.12376002315432 220.21888477541506 40.105029693804681 46.250353720970452 42.180553463287652 49.327884579077363 253.71259804163128 30.367508916184306 701.57583656162024 166.45675075426698 236.11805219203234 78.306148381903768 14.09080249071121 300.47803456755355 52.978571956977248 214.4049849214498 126.75194053177256 26.01285664178431 55.637552158907056 65.29224931076169 39.077127411961555 61.782169462181628 32.616545043885708 160.92085251072422 68.163910418748856 69.677088634576648 73.003800312057137 24.432711075991392 39.274428818374872
leaf_count=2390 279 7477 1163 416 781 311 573 3115 115 1336 715 1128 385 57 4955 573 1511 1271 347 799 534 372 956 300 1734 547 1141 298 198 131
internal_value=0 -0.0200738 0.0461109 -0.0368247 0.00457139 0.0146972 -0.0464489 -0.0145555 -0.0212755 0.0591181 0.0189023 0.0191793 0.00755113 -0.027311 -0.0539423 0.0109647 -0.000953668 0.00532538 -0.0194551 -0.0431035 -0.0330556 -0.0248568 -0.0305268 -0.0313557 -0.0249729 0.0306415 -0.0383722 0.0157462 -0.0202533 0.0285671
internal_weight=3933.67 2740.98 1192.69 1631.67 1109.31 797.505 1138.38 493.29 311.806 806.011 386.676 751.255 373.969 300.42 772.239 83.3461 295.663 192.87 66.1179 356.116 228.46 81.2577 366.141 286.329 304.359 377.286 143.438 141.168 73.7606 104.435
internal_count=35908 32284 3624 23339 8945 5333 17833 5506 3612 1746 1878 4552 2579 3472 13231 688 2194 2034 763 5754 2924 683 4602 3415 3646 1973 1912 845 771 410
is_linear=0
shrinkage=0.05


Tree=8
num_leaves=31
num_cat=0
split_feature=12 14 14 0 14 3 15 0 17 11 3 1 0 17 11 11 14 1 11 5 17 0 3 9 1 14 13 3 14 13
split_gain=1256.54 302.692 296.401 107.408 102.659 86.5314 61.8401 59.1734 43.7635 42.9066 38.9977 27.5726 26.6671 25.0138 24.3398 23.8813 23.6714 23.6654 30.5981 23.5 22.1035 21.6085 20.5569 19.5007 18.8084 17.9089 17.2449 16.2181 16.5498 16.1086
threshold=0.81534090909090917 0.0013715878129005002 0.013269608066632252 21.094763994733253 -1.0000000180025095e-35 0.95882451534271251 1.0000000180025095e-35 11.05606597104167 0.98979166666666674 0.94868421052631591 0.96149125695228588 0.51277896761894237 8.0747597300072957 0.31909090909090915 0.97500000000000009 0.54772727272727284 -0.012262743618339197 0.43682834506034851 0.38675213675213677 1.0000000180025095e-35 0.87416666666666676 34.658817067748267 0.94765833020210266 0.17519181585677748 0.76026135683059703 -0.0026734158396720998 0.31400560224089641 0.50099557638168346 0.11611607694625846 0.20638945233265718
decision_type=2 2 2 2 2 2 2 2 2 2 2 2 2 2 2 2 2 2 2 2 2 2 2 2 2 2 2 2 2 2
left_child=2 4 5 8 24 6 11 27 13 16 20 -1 -6 17 22 -10 -8 -4 26 -16 -7 -12 -9 -24 -2 -11 -19 28 -3 -13
right_child=1 7 3 -5 12 10 9 14 15 25 21 29 -14 -15 19 -17 -18 18 -20 -21 -22 -23 23 -25 -26 -27 -28 -29 -30 -31
leaf_value=-0.058601951403295098 0.0011143787737728991 -0.005640328714789992 -0.068332596415169589 -0.0055574854774283989 0.030201240439992862 0.067381440987977659 -0.038976889532093821 0.022350400460932632 -0.059047101306640051 -0.0065350686341314832 0.0025877515732667371 -0.034548629889041831 0.060693693708929908 -0.014384072319018582 0.060916055610448855 -0.039445584942918673 0.0025192978660209444 -0.050185297005799934 -0.013976276046065772 0.0030821849163655169 -0.02409171178818038 0.047921465338475563 -0.030666219537445819 0.01635464979998533 0.032799512991261139 0.048061103752581158 0.012723353076714497 0.0011973500286699551 -0.039548915737459486 0.00016947291137424215
leaf_weight=63.91113047581166 97.932537840679288 79.01798836607486 60.305965373758227 211.12974399421364 83.749274451285601 62.591754347085953 45.914674071595073 189.20894603431225 464.41087775863707 19.217496655881405 117.04382503032684 71.159062452381477 724.2361997589469 137.01856213493738 58.995980277657509 251.84074094193056 127.40456511080265 176.62657655868679 121.24318178370595 25.255756670609117 6.7826534220948806 33.051200686022639 42.718106348067522 43.449692461639643 89.497047338634729 62.142017314210534 11.088473735842852 175.50758302677423 66.318838112987578 61.670005756895989
leaf_count=1101 563 552 1123 2384 301 128 578 1173 8867 104 962 878 1538 2101 124 3737 1150 2862 1524 123 67 121 362 255 392 169 176 1233 669 591
internal_value=0 0.0322926 -0.0257182 -0.038547 0.049849 0.00170537 -0.010806 0.00656784 -0.0442309 0.00544611 0.0273945 -0.0317907 0.0575805 -0.0328286 0.0204731 -0.0522266 -0.00860547 -0.0396018 -0.0337753 0.0438776 0.0581519 0.0128545 0.0131615 -0.0069832 0.0163642 0.0351818 -0.046395 -0.00901794 -0.0213119 -0.0185115
internal_weight=3780.44 1675.89 2104.55 1433.66 995.415 670.888 451.419 680.473 1222.53 254.679 219.469 196.74 807.985 506.283 359.628 716.252 173.319 369.264 308.958 84.2517 69.3744 150.095 275.377 86.1678 187.43 81.3595 187.715 320.844 145.337 132.829
internal_count=35908 7285 28623 22774 2794 5849 4571 4491 20390 2001 1278 2570 1839 7786 2037 12604 1728 5685 4562 247 195 1083 1790 617 955 273 3038 2454 1221 1469
is_linear=0
shrinkage=0.05


Tree=9
num_leaves=31
num_cat=0
split_feature=12 14 11 3 15 15 14 11 14 7 12 17 12 3 12 1 1 9 0 5 12 4 14 19 14 4 11 17 14 22
split_gain=1104.21 325.278 210.552 96.4474 95.053 81.2296 59.958 49.3426 39.7722 35.7224 35.0022 29.7987 23.5092 23.3635 22.9825 22.558 27.8434 21.909 20.9712 20.0264 18.698 17.6561 16.8596 16.5486 16.5094 15.6421 16.992 16.1606 20.781 14.7907
threshold=0.89181286549707617 0.029329331947832903 0.93095238095238109 0.9513712227344514 1.0000000180025095e-35 1.0000000180025095e-35 0.0013715878129005002 0.90454545454545465 -0.00080159604549394998 1.0000000180025095e-35 0.97500000000000009 0.99352380952380959 0.59411764705882364 0.93973138928413402 0.46862745098039221 1.0000000180025095e-35 0.4143666028976441 0.18350168350168347 56.282701032971474 1.0000000180025095e-35 0.69615384615384623 0.49974937501201927 -0.0003929722588507999 -1.0000000180025095e-35 0.015480132997035953 0.60195179762781603 0.48684210526315796 0.46862745098039221 0.16230919606840383 0.06904761904761901
decision_type=2 2 2 2 2 2 2 2 2 2 2 2 2 2 2 2 2 2 2 2 2 2 2 2 2 2 2 2 2 2
left_child=1 3 6 5 9 12 8 14 29 13 24 17 -1 20 -7 -5 -17 23 -13 -18 -3 -15 -21 -6 -4 -8 -27 -28 -29 -2
right_child=2 4 10 15 11 7 25 -9 -10 -11 -12 18 -14 21 -16 16 19 -19 -20 22 -22 -23 -24 -25 -26 26 27 28 -30 -31
leaf_value=-0.045305239329257112 -0.014709695787055927 -0.047325643661894123 0.045285249290124813 -0.035794017289938813 -0.00060493721829069514 -0.032416729697489842 0.015611685507182713 0.032764557634591018 0.045605900388282633 -0.055706231403043815 0.061436065989188597 -0.030631783479630914 -0.014427757343663868 0.014830192360069978 0.0028777919959365331 0.059427334582297459 0.045065452924525455 0.02143545489523286 0.054522994247160061 -0.012909438949713728 -0.022954929618739239 -0.029048940368443722 0.02072336747146326 -0.042842224697445551 0.014194522717481931 -0.036876006547684782 0.019867478122858162 -0.0027579310878616909 -0.061718842757869985 0.02566332262529071
leaf_weight=137.15484960051253 46.032598337158561 324.07943038770463 171.24363760929555 14.017280563712118 69.620329175144434 64.828644647728652 127.37174134887755 113.81728652119637 183.29628090560436 440.81574181909673 495.7806820999831 219.62567380163819 114.81077058543451 33.782993838191032 152.92495605815202 54.186828405596316 59.069714149460196 68.483436855021864 6.5484977290034285 49.973652085289359 109.12345896149054 66.515424916520715 137.76241496624425 33.981814179569483 59.050708750262856 36.565118755213916 66.246110033243895 124.8587482701987 16.030276568606496 42.765224162489176
leaf_count=2329 241 5951 547 202 825 901 770 442 598 8488 1030 2894 1121 434 1350 142 258 795 22 439 1361 1049 1001 499 339 338 363 848 154 177
internal_value=0 -0.021379 0.0354505 0.00200396 -0.0366804 -0.0100235 0.0145739 0.0062271 0.0323563 -0.0450928 0.0538909 -0.0160262 -0.031368 -0.0362261 -0.00770723 0.024261 0.0271836 -0.00030049 -0.0279151 0.019873 -0.0412652 -0.0142195 0.0117232 -0.0147838 0.0374306 0.00146923 -0.00593559 -0.000298787 -0.00988941 0.00474762
internal_weight=3640.36 2271.12 1369.24 898.546 1372.58 583.537 643.166 331.571 272.094 974.317 726.075 398.26 251.966 533.501 217.754 315.01 300.993 172.086 226.174 246.806 433.203 100.298 187.736 103.602 230.294 371.072 243.7 207.135 140.889 88.7978
internal_count=35908 30503 5405 8185 22318 6143 3489 2693 1016 17283 1916 5035 3450 8795 2251 2042 1840 2119 2916 1698 7312 1483 1440 1324 886 2473 1703 1365 1002 418
is_linear=0
shrinkage=0.05


Tree=10
num_leaves=31
num_cat=0
split_feature=12 14 3 11 14 1 0 12 14 14 14 2 14 11 1 2 11 5 0 9 17 0 3 9 14 9 3 0 16 17
split_gain=978.355 258.172 239.651 167.054 92.5893 73.5791 44.1274 34.7611 33.4704 30.4217 30.609 28.7848 23.9143 20.9927 20.0385 21.4498 19.8304 20.5291 19.5235 18.6369 17.6427 17.4593 16.5467 15.7906 15.0544 14.4861 13.3397 17.1434 12.8379 11.7049
threshold=0.81534090909090917 1.0000000180025095e-35 0.94945466518402111 0.72474747474747481 -1.0000000180025095e-35 0.30344551801681524 9.5368750963803173 0.47213622291021679 0.013269608066632252 0.0020411700010299007 -0.00018067806959139998 0.0092483045849918507 0.15407901709388885 0.34166666666666673 1.0000000180025095e-35 0.024553317907805003 0.97500000000000009 1.0000000180025095e-35 7.9833685430425243 0.18634259259259259 0.84852941176470598 18.328505832337935 0.95986446738243114 0.045983086680761058 -0.067601207386363535 0.064172958133150257 0.95768123865127575 19.058312174156146 1.0000000180025095e-35 0.99900000000000011
decision_type=2 2 2 2 2 2 2 2 2 2 2 2 2 2 2 2 2 2 2 2 2 2 2 2 2 2 2 2 2 2
left_child=2 4 3 7 21 19 22 25 13 10 -7 -9 -13 -4 -15 24 26 -18 -6 -5 28 -2 -3 -10 -16 -1 -8 -28 -11 -26
right_child=1 6 8 5 18 9 16 11 23 20 -12 12 -14 14 15 -17 17 -19 -20 -21 -22 -23 -24 -25 29 -27 27 -29 -30 -31
leaf_value=-0.058915825454121121 0.0013804000899424757 -0.012119021374428988 -0.05006877534569424 -0.062679269514301417 0.028821117082373827 -0.0033921093250659524 0.019017446425605749 0.016774372821910907 -0.037828944990370032 0.025995819919715918 0.041190855871468958 -0.027733863788916957 -0.050923882749695441 -0.043590666431361447 -0.031090444449448987 0.0065972750446417891 0.057021799846205291 0.0018288619870216478 0.058954694465603842 -0.0082216091293862755 -0.019269025897077803 0.033039913320132216 0.020009253709351568 0.00089779399153119073 0.053107625894646709 -0.042142057697725083 -0.026599079995877357 0.016233683075108397 -0.017069394237515124 0.020202354143036713
leaf_weight=326.0341573478654 98.691910658031702 260.91482903063297 8.5769643848761898 63.059071958065033 62.78641415014863 74.837412149645388 217.14781410759315 26.137832798063755 30.947292059659958 46.931748455390334 77.571429527364671 307.09747256152332 180.73723540990613 9.0739079583436233 6.3367630187422028 73.131069117225707 54.89233012124896 24.486921537667513 620.4372982904315 21.549879981204867 150.28720968030393 77.560754362493753 46.287687866017222 147.96956874988973 96.074638545513153 244.05526615120471 42.543875213712454 49.34054390154779 26.090349301695824 40.691865623928607
leaf_count=6863 561 2167 113 1239 205 618 1408 240 590 431 272 4709 3427 134 58 583 127 128 1332 312 1749 394 302 1916 354 4500 323 338 274 241
internal_value=0 0.0295944 -0.0235174 -0.0325593 0.0479075 -0.00728972 0.00692397 -0.0432684 0.0102953 0.00222349 0.0193873 -0.03368 -0.0364223 0.0227132 0.025715 0.0288336 0.0181076 0.0402927 0.056239 -0.0491254 -0.00950272 0.0154483 -0.00721266 -0.00594602 0.0400378 -0.0518301 0.0122813 -0.00361756 0.0105186 0.0435714
internal_weight=3512.28 1555.09 1957.19 1544.39 859.476 460.327 695.614 1084.06 412.802 375.718 152.409 513.973 487.835 233.885 225.308 216.234 388.411 79.3793 683.224 84.609 223.309 176.253 307.203 178.917 143.103 570.089 309.032 91.8844 73.0221 136.767
internal_count=35908 7285 28623 24634 2492 4895 4793 19739 3989 3344 890 8376 8136 1483 1370 1236 2324 255 1537 1551 2454 955 2469 2506 653 11363 2069 661 705 595
is_linear=0
shrinkage=0.05


Tree=11
num_leaves=31
num_cat=0
split_feature=12 14 14 15 11 1 3 11 9 7 14 1 3 11 12 9 4 8 22 2 17 12 3 9 0 3 14 14 0 0
split_gain=878.484 289.777 121.791 100.396 74.7391 72.9501 38.165 38.0342 37.4077 34.9388 34.7777 32.5716 29.568 27.6909 25.1226 19.1664 18.7336 18.6453 18.6052 16.6069 16.7241 16.4316 15.7356 15.6251 14.3944 13.0688 12.6374 20.5248 17.5943 12.5664
threshold=0.92582417582417598 0.029329331947832903 0.00011431127786635002 1.0000000180025095e-35 0.43303571428571436 0.30344551801681524 0.95643156766891491 0.89181286549707617 0.013335704125177801 1.0000000180025095e-35 -1.0000000180025095e-35 0.57308974862098705 0.9513712227344514 0.72474747474747481 0.6858552631578948 0.18634259259259259 0.59791521206046316 1.0000000180025095e-35 0.074175824175824162 0.019344864932463155 0.072478991596638606 0.69615384615384623 0.97264641523361217 0.18634259259259259 56.282701032971474 0.36335432529449468 -0.00080159604549394998 0.00011431127786635002 9.5368750963803173 35.979835734294603
decision_type=2 2 2 2 2 2 2 2 2 2 2 2 2 2 2 2 2 2 2 2 2 2 2 2 2 2 2 2 2 2
left_child=1 4 10 8 -1 29 7 14 11 15 22 -3 21 -4 23 24 -14 -13 -8 -19 -21 -10 -2 -7 -5 -15 -9 28 -28 -6
right_child=2 3 13 9 5 6 18 26 12 -11 -12 17 16 25 -16 -17 -18 19 -20 20 -22 -23 -24 -25 -26 -27 27 -29 -30 -31
leaf_value=-0.029557826105553506 0.0079377948027139263 -0.060530122269536205 -0.0025372492721554398 -0.01226021162645923 -0.056956701314880225 -0.033956397606142115 0.037803666059051444 -0.00020324568216869519 -0.042381106414621596 -0.029753494613479953 0.056038053976947069 -0.04611618230896574 0.016948162821029011 0.00038140365709394056 0.0064050277083966189 0.019100075444057937 -0.032856517449078498 -0.031675471537002474 0.011813548405420092 0.036286611917388176 -0.060828599191073932 -0.019843529125045608 0.05065772148618547 0.0033759334289544495 0.055811216438786407 0.032408260106939465 -0.0085590705142037649 0.006379841695847298 0.052950556533105722 0.043962418879117865
leaf_weight=139.97541694086976 62.644900629296899 299.32274885801598 138.50529757142067 180.36551609169692 43.823690283112228 91.365351651329547 177.69536328641698 49.340482868254185 288.40957425069064 161.16013672016561 573.30806608498096 102.51886047748849 48.055531749501824 39.753248870372772 168.54736763890833 85.1290392735973 29.676740243565291 41.330074030905962 115.15685548819602 22.206705644726757 4.5028429673984638 117.5780689176172 32.543472303077579 39.661338295787573 7.1121256947517386 166.50307657383382 13.203286487609146 61.971606288105249 76.97630243934691 2.5405082013458005
leaf_count=2158 295 6749 863 2232 879 1380 894 330 5642 2299 1336 1992 585 231 1326 952 436 629 801 199 103 1498 115 466 23 784 50 440 199 22
internal_value=0 -0.0166732 0.0389374 -0.0313689 0.00413138 0.00977778 0.0133639 0.00495089 -0.0404367 -0.0113753 0.0513782 -0.0505349 -0.0305332 0.0147213 -0.00633178 -0.000423092 -0.00217865 -0.032714 0.0276757 -0.0120722 0.0181296 -0.0359311 0.0229699 -0.0226782 -0.00936892 0.0262912 0.0216989 0.028789 0.0438949 -0.0505099
internal_weight=3380.88 2367.63 1013.26 1387.37 980.258 840.282 793.918 501.066 953.601 433.767 668.496 469.881 483.72 344.762 299.574 272.607 77.7323 170.558 292.852 68.0396 26.7095 405.988 95.1884 131.027 187.478 206.256 201.492 152.151 90.1796 46.3642
internal_count=35908 32284 3624 23339 8945 6787 5886 4191 17833 5506 1746 9672 8161 1878 3172 3207 1021 2923 1695 931 302 7140 410 1846 2255 1015 1019 689 249 901
is_linear=0
shrinkage=0.05


Tree=12
num_leaves=31
num_cat=0
split_feature=11 12 3 12 1 14 14 17 0 14 9 1 2 9 0 14 0 4 3 0 9 11 9 4 22 4 14 3 4 17
split_gain=777.124 222.48 183.247 147.183 105.197 54.9478 39.573 31.9653 29.1886 28.6782 33.5486 24.478 21.9656 20.2619 20.0989 18.2925 15.9286 18.827 15.1225 14.9531 15.4539 13.7588 13.696 13.1977 16.6028 12.917 12.3093 14.2743 13.7332 11.5102
threshold=0.78759398496240618 0.97500000000000009 0.94765833020210266 0.74342105263157909 1.0000000180025095e-35 0.0020411700010299007 -1.0000000180025095e-35 0.99900000000000011 6.6136111972924798 0.019908198540986903 0.92857142857142871 0.53303351998329174 0.0086372950819671515 0.18634259259259259 9.2590789497600667 0.15407901709388885 19.963482005258054 0.54566316246188118 0.96149125695228588 57.537998650353323 0.075961538461538455 0.93095238095238109 0.018019480519480453 0.84887280276178656 0.080128205128205107 0.84155182340652479 0.12551596760749817 0.65931046009063732 0.87605831220471486 0.60511363636363646
decision_type=2 2 2 2 2 2 2 2 2 2 2 2 2 2 2 2 2 2 2 2 2 2 2 2 2 2 2 2 2 2
left_child=2 4 3 11 13 6 -6 9 26 10 18 22 -13 -2 -8 -14 17 -3 -4 20 -7 23 -1 24 -19 -11 28 -28 -5 -22
right_child=1 16 7 8 5 19 14 -9 -10 25 -12 12 15 -15 -16 -17 -18 21 -20 -21 29 -23 -24 -25 -26 -27 27 -29 -30 -31
leaf_value=-0.060549672756352271 -0.058449255964082937 -0.02986278298746985 0.054335220027805865 0.0030459723392463074 0.008730039403363074 -0.010800390618645567 0.0024973278763121809 -0.014926855033569639 0.010699866144837793 0.0083241472530106893 -0.063911492070971632 0.022101253435927504 -0.02998266251707038 -0.0039562780178806567 0.044218962667327236 -0.050483965475106155 0.058328754787420722 -0.044502068555152895 0.020738655306794116 0.054220812198176128 0.023087525043767765 0.053264124315290734 -0.041068265257171138 0.042945706872777635 0.037480431822696836 -0.030137390159724244 -0.041687446848733239 -0.0048160870789942141 -0.02250593563823582 0.0020572364594338933
leaf_weight=224.24608177226037 56.229739660862833 8.6495397426187974 70.428771173581481 110.40577946603298 157.65615761047229 140.54100964125246 32.745219878852367 105.02468047128059 141.04098364152014 96.096706172451377 7.6266324259340754 15.402147540822623 324.46336983982474 24.809137274511158 269.11162951588631 172.03139687888324 363.50511414557695 12.486537504941227 68.046339308843017 13.601180821657179 98.96178743429482 105.95914495363832 174.79986412078142 28.957560323178768 10.381593246012924 27.157800725661218 77.793196344748139 40.281036514788866 98.548344969749451 188.74974889913574
leaf_count=5373 1179 31 245 974 1107 1423 151 1134 1176 1251 89 187 5970 355 889 3729 874 71 505 47 798 282 3383 88 40 409 1126 462 898 1662
internal_value=0 0.0262534 -0.0226463 -0.0310644 0.0121389 0.0170603 0.0291488 0.00834809 -0.00823923 0.0174634 0.03237 -0.0427652 -0.0353503 -0.0420794 0.0397327 -0.0371834 0.0523374 0.0389519 0.0381289 0.00443989 0.00272458 0.04292 -0.0521524 0.0210685 -0.00706347 -0.00028454 -0.0164303 -0.0292969 -0.00903097 0.00936308
internal_weight=3265.74 1512.35 1753.39 1379.01 982.406 901.367 459.513 374.381 468.069 269.356 146.102 910.943 511.897 81.0389 301.857 496.495 529.939 166.434 138.475 441.854 428.253 157.785 399.046 51.8257 22.8681 123.255 327.028 118.074 208.954 287.712
internal_count=35908 8997 26911 23278 7611 6077 2147 3633 4636 2499 839 18642 9886 1534 1040 9699 1386 512 750 3930 3883 481 8756 199 111 1660 3460 1588 1872 2460
is_linear=0
shrinkage=0.05


Tree=13
num_leaves=31
num_cat=0
split_feature=12 11 14 14 1 12 3 11 3 7 14 4 0 9 2 1 14 13 2 9 0 9 9 14 5 3 12 14 2 9
split_gain=698.725 234.263 123.986 114.234 61.5597 42.2945 36.0105 32.1319 27.8903 26.6181 24.3673 21.6897 21.3576 18.2424 16.0276 15.9395 16.2171 15.0731 14.4381 12.7941 12.4608 19.37 12.1308 11.7916 11.7164 19.5019 13.038 11.6761 10.9866 10.8947
threshold=0.92582417582417598 0.44722222222222224 0.042674092551595204 1.0000000180025095e-35 0.30344551801681524 0.47213622291021679 0.95643156766891491 0.89181286549707617 0.85375130176544201 1.0000000180025095e-35 -1.0000000180025095e-35 0.88947325981519165 17.980978483338784 0.18350168350168347 0.0079393939393939007 0.4143666028976441 1.0000000180025095e-35 0.16064516129032258 0.036620918388360409 0.079473684210526321 56.282701032971474 0.061072261072261054 0.15192307692307691 0.20534809321165085 1.0000000180025095e-35 0.98810246586799633 0.55277777777777792 0.14280858773414232 0.026825599920154052 0.06030303030303031
decision_type=2 2 2 2 2 2 2 2 2 2 2 2 2 2 2 2 2 2 2 2 2 2 2 2 2 2 2 2 2 2
left_child=1 8 4 10 -3 13 7 11 27 19 28 18 -5 -4 -11 16 -8 -13 22 20 21 -7 -6 -16 25 -17 -26 -1 -2 -19
right_child=3 2 5 12 6 9 15 -9 -10 14 -12 17 -14 -15 23 24 -18 29 -20 -21 -22 -23 -24 -25 26 -27 -28 -29 -30 -31
leaf_value=-0.037245570337289285 0.0016558267908742153 -0.045984987588806397 -0.043886038746055928 0.0021100889243484793 -0.010605029424831276 -0.0020459420134885048 0.068193622329135645 0.019032471565384443 -0.021178109217555578 0.066706599159928368 0.053373614309131616 -0.046084652537292686 0.027786724976958856 -0.014959779262243103 -0.021149074262620596 0.056526589200389055 0.0018162593193395953 -0.04100368672532731 0.043600629451747225 0.010483250618273564 0.051247662032070075 -0.050061631546598095 0.017809979687694207 -0.055812234988290466 -0.0085163512989103567 -0.021299940031365854 0.021667779581855139 -0.052828597094926835 0.03793115631832783 -0.0013704054796835653
leaf_weight=253.67020426085219 33.503998123109341 48.591525608673692 194.10844679316506 197.96062946040183 99.581156770465896 66.50158657412976 36.029656396247447 203.83405224699527 159.85708605591208 3.6431654822081319 513.48298336006701 41.031252717599273 136.8239814825356 78.420947797596455 132.31112640630454 40.154718743637204 12.526860028505324 21.346914991736412 20.577928517013788 137.02718951087445 6.1093272790312758 29.923488663509488 58.946963444817811 30.397212270647287 46.587049735710025 9.3376287221908552 144.22963320836425 266.72079215047415 56.132499501109123 79.020959213841707
leaf_count=5100 190 1047 3917 1203 1286 818 53 1138 2697 14 1306 580 705 1236 2041 147 107 296 151 1416 21 478 562 587 488 96 922 6302 220 784
internal_value=0 -0.0152842 -0.00447903 0.036163 0.00810076 -0.0204544 0.0113912 0.00355453 -0.0396996 -0.0101665 0.0491526 -0.00630212 0.0126703 -0.0356658 -0.0254675 0.0255375 0.0515523 -0.0208777 0.00522914 0.000499354 -0.0127672 -0.0173588 0 -0.0279568 0.0200684 0.0416131 0.0142664 -0.0453281 0.0245953 -0.0101706
internal_weight=3158.39 2220.49 1540.24 937.904 861.796 678.442 813.205 524.339 680.248 405.913 603.119 320.505 334.785 272.529 166.352 288.866 48.5565 141.399 179.106 239.562 102.534 96.4251 158.528 162.708 240.309 49.4923 190.817 520.391 89.6365 100.368
internal_count=35908 32284 18185 3624 7657 10528 6610 4797 14099 5375 1716 3659 1908 5153 2642 1813 160 1660 1999 2733 1317 1296 1848 2628 1653 243 1410 11402 410 1080
is_linear=0
shrinkage=0.05


Tree=14
num_leaves=31
num_cat=0
split_feature=11 12 3 12 1 14 14 11 17 3 4 0 1 14 9 9 1 16 11 14 12 4 3 9 0 14 4 12 1 13
split_gain=624.029 200.344 151.067 122.681 85.6928 42.4911 39.1138 35.7713 26.5534 23.2422 29.6829 20.1179 19.0036 18.5487 16.8261 15.2827 14.5243 15.4787 14.2248 16.3755 13.042 12.5682 12.5389 12.3501 15.4136 12.0948 11.9527 11.4431 12.0208 10.9084
threshold=0.78759398496240618 0.97500000000000009 0.9513712227344514 0.69615384615384623 1.0000000180025095e-35 0.00011431127786635002 -1.0000000180025095e-35 0.48684210526315796 0.75162337662337675 0.96149125695228588 0.96723692858896537 8.7195481164370747 0.5210886299610139 0.12551596760749817 0.18634259259259259 0.045983086680761058 0.68047684431076061 1.0000000180025095e-35 0.97500000000000009 0.0064816385507582511 0.65833333333333355 0.63927953273760307 0.93973138928413402 0.075961538461538455 59.664933305469326 0.045992788753339106 0.46685925627921004 0.54195804195804198 0.4336692094802857 0.077677224736048267
decision_type=2 2 2 2 2 2 2 2 2 2 2 2 2 2 2 2 2 2 2 2 2 2 2 2 2 2 2 2 2 2
left_child=2 4 3 12 14 6 27 -5 9 10 15 -8 26 -9 -2 -4 17 -11 19 29 22 -15 -7 24 -22 -14 -1 28 -6 -3
right_child=1 18 8 7 5 20 11 13 -10 16 -12 -13 25 21 -16 -17 -18 -19 -20 -21 23 -23 -24 -25 -26 -27 -28 -29 -30 -31
leaf_value=-0.020487967620326633 -0.055863357910552594 -0.042272519701084879 -0.026051201380392214 -0.026634704409265637 0.040107114581251914 -0.016565844617506875 -0.002792325585313627 0.007128441382624336 -0.011726572441287995 0.013972047619404926 -0.054463994329400855 0.045459547624314006 -0.022064426713739468 0.0032937680592746662 -0.0049463444491457224 0.054592024042530718 0.019968921376175786 -0.034242544027122498 0.056523960097881312 0.0043954974479830386 -0.0075180096752358221 -0.035859442808494589 0.014238212793639436 0.017793255870045755 0.067879094289362785 -0.040184133518731652 -0.054028436967811982 0.014788307641532781 -0.034159181977332601 0.048066113893150519
leaf_weight=31.56469305139035 51.279174912720919 2.6514537446200839 5.7316963737830511 201.73775878595188 5.9511105604469803 102.98863552417606 23.736663125455379 242.17594693787396 107.55180617654696 30.74907049909234 6.8679573722183695 209.10731679573655 139.83524531149305 33.823102291673422 24.155522095039487 70.826341971755028 82.776874669827521 34.023268803022802 329.76539256051183 30.907573018223047 104.2856422457844 49.595836294814944 47.367695295717567 218.35190060874447 6.2410612702369681 308.44317325076554 291.60341870551929 122.42627096921206 24.844227568246424 114.00929924845695
leaf_count=639 1179 16 102 2850 36 1203 89 2051 1305 486 67 595 2557 330 355 331 689 460 838 171 972 721 458 1644 9 7041 7282 832 239 361
internal_value=0 0.0242713 -0.0210234 -0.0287736 0.0108551 0.0153267 0.0276531 -0.0101471 0.00869316 0.0182326 0.0391734 0.0405284 -0.0414699 0.000103572 -0.0399023 0.048232 0.0061747 -0.0114134 0.0506239 0.0371139 0.00534941 -0.0200742 -0.00679846 0.0109221 -0.0026453 -0.0346047 -0.0508412 0.00791872 -0.0188401 0.0456286
internal_weight=3055.38 1418.07 1637.31 1298.78 940.735 865.301 386.066 527.333 338.527 230.975 83.426 232.844 771.447 325.595 75.4347 76.558 147.549 64.7723 477.334 147.568 479.235 83.4189 150.356 328.879 110.527 448.278 323.168 153.222 30.7953 116.661
internal_count=35908 8997 26911 23471 7611 6077 1791 5952 3440 2135 500 684 17519 3102 1534 433 1635 946 1386 548 4286 1051 1661 2625 981 9598 7921 1107 275 377
is_linear=0
shrinkage=0.05


Tree=15
num_leaves=31
num_cat=0
split_feature=11 12 3 12 1 14 14 11 18 1 0 0 5 11 1 14 1 9 0 1 0 9 14 4 12 3 3 12 1 22
split_gain=556.996 182.598 137.405 110.095 79.285 37.1258 32.3364 29.7663 22.9167 23.875 18.6826 18.1037 17.2127 19.628 16.8144 16.548 16.3168 15.4076 14.892 14.1334 12.0056 14.9716 11.8857 13.558 11.0244 12.6294 10.9616 12.4971 10.5873 10.4957
threshold=0.78759398496240618 0.97500000000000009 0.9513712227344514 0.69615384615384623 1.0000000180025095e-35 0.00011431127786635002 -1.0000000180025095e-35 0.46410256410256417 1.0000000180025095e-35 0.60332235693931591 8.7195481164370747 21.759597062209 1.0000000180025095e-35 0.36038961038961043 0.81571048498153698 -0.032376553347428144 0.73061662912368786 0.18634259259259259 1.0000000180025095e-35 0.5210886299610139 57.537998650353323 0.073622402890695507 0.13212254727880154 0.59791521206046316 0.67543859649122828 0.93973138928413402 0.28319361805915838 0.97500000000000009 0.76825237274169933 0.16025641025641021
decision_type=2 2 2 2 2 2 2 2 2 2 2 2 2 2 2 2 2 2 2 2 2 2 2 2 2 2 2 2 2 2
left_child=2 4 3 11 17 6 28 26 9 29 -8 19 13 -11 -14 -10 22 -2 -3 -1 21 -7 -9 -24 25 -23 -5 -28 -6 -4
right_child=1 18 8 7 5 20 10 16 15 12 -12 -13 14 -15 -16 -17 -18 -19 -20 -21 -22 24 23 -25 -26 -27 27 -29 -30 -31
leaf_value=-0.050799277547098266 -0.055061800580587905 -0.0013388529139170356 -0.038616885994169417 -0.041936190999532122 0.0011745666904823778 -0.0094416540187727514 -0.0029059871333705668 -0.001853651879302344 0.065805721119434932 -0.019573421958910195 0.043495429431755418 -0.010295518671230524 -0.014391108899211273 0.037954386362470977 0.03383714450957611 0.01618601700719367 0.014730004023816254 -0.0054998938064557161 0.050825149756141788 -0.035865688748573779 0.051151723485089534 -0.015862774615509584 0.011530445908183692 -0.044172973265121249 0.0166343089775716 0.01976067024804859 -0.021702686439201591 0.029825842184694321 0.032846935203159365 0.010090556291415927
leaf_weight=289.95900428667665 49.009528994560242 13.875140672549604 44.219209613744169 65.943296571727842 116.45773918926716 141.68945699092001 23.955496894195676 157.78069396875799 23.672099426388741 18.041876956820488 200.12116079777479 48.696242953650653 83.624699561856687 68.555085805244744 21.963341627269983 57.170085396617651 111.37971950415522 23.537246191874146 440.16391136404127 398.29595465597231 12.952972784638403 68.232499127276242 14.398147719912229 38.751124813221395 210.99263429408893 37.795902602374554 116.9249225477688 12.121722309850155 33.285456869751215 13.971923189237712
leaf_count=7623 1179 75 791 1095 915 1494 89 1451 45 256 595 896 906 472 119 692 847 355 1311 9000 48 783 145 677 1608 353 1673 64 192 159
internal_value=0 0.023316 -0.0201797 -0.0277401 0.010459 0.0147796 0.0265313 -0.0100186 0.00843221 0.000899952 0.0385217 -0.0401425 0.00942815 0.0258252 -0.00408891 0.0314032 -0.000656795 -0.0393432 0.0492206 -0.042229 0.00541878 0.00400804 -0.00883642 -0.0290563 0.0100458 -0.0030514 -0.0253853 -0.0166319 0.00841918 -0.0268647
internal_weight=2957.54 1372.07 1585.47 1254.25 918.03 845.483 373.82 517.3 331.218 250.376 224.077 736.951 192.185 86.597 105.588 80.8422 322.31 72.5468 454.039 688.255 471.663 458.71 210.93 53.1493 317.021 106.028 194.99 129.047 149.743 58.1911
internal_count=35908 8997 26911 23471 7611 6077 1791 5952 3440 2703 684 17519 1753 728 1025 737 3120 1534 1386 16623 4286 4238 2273 822 2744 1136 2832 1737 1107 950
is_linear=0
shrinkage=0.05


Tree=16
num_leaves=31
num_cat=0
split_feature=12 14 14 3 7 15 14 9 11 0 11 12 22 4 12 4 22 7 22 2 11 2 9 11 0 9 11 14 14 12
split_gain=489.63 159.893 130.674 59.2274 49.7912 48.2724 41.6351 31.0551 22.3718 20.4638 18.3153 16.8468 15.5487 17.0465 15.3935 15.0306 14.1707 13.5344 13.5271 13.3378 11.8984 11.7866 21.0919 10.0713 10.0037 9.72511 9.41148 9.39314 9.22831 14.0468
threshold=0.89181286549707617 0.042674092551595204 1.0000000180025095e-35 0.9513712227344514 1.0000000180025095e-35 1.0000000180025095e-35 -1.0000000180025095e-35 0.079473684210526321 0.89181286549707617 17.980978483338784 0.97500000000000009 0.44722222222222224 0.074175824175824162 0.96265027898315847 0.54772727272727284 0.970900606622222 0.13809523809523808 1.0000000180025095e-35 0.06904761904761901 0.036620918388360409 0.75735294117647067 0.018998374958329203 0.069204980842911865 0.45227272727272733 59.664933305469326 0.045983086680761058 0.64852941176470591 -0.00018067806959139998 0.099102113189726268 0.48684210526315796
decision_type=2 2 2 2 2 2 2 2 2 2 2 2 2 2 2 2 2 2 2 2 2 2 2 2 2 2 2 2 2 2
left_child=1 3 6 5 7 14 18 11 17 -6 16 -3 13 -5 -1 20 19 23 -2 -7 -9 -13 -23 -4 -24 -14 -8 -12 -22 -30
right_child=2 4 8 12 9 10 26 15 -10 -11 27 21 25 -15 -16 -17 -18 -19 -20 -21 28 22 24 -25 -26 -27 -28 -29 29 -31
leaf_value=-0.039461085438749016 -0.0013009532765649832 -0.046073832151804883 -0.012024975582443875 0.038410756180286554 -0.047321499431899255 -0.017577076365833968 0.01345393641666342 -0.012714150561782109 0.021351620924261485 -0.013134839940764437 -0.021290101941786901 -0.035683777724323316 -0.060585283697541174 -0.001188046858939941 -0.013558349134885718 -0.056710603641690997 0.011988763547481893 -0.015470992023575931 0.032201924717210922 0.027405841241154805 0.034175342250992224 0.004250159862462465 -0.055420893463566705 0.013689116422302375 0.048910612949527428 0.0085960700658575789 0.050555362462052868 0.039363530173346796 -0.028780158914029554 0.018770333503001443
leaf_weight=111.10213398979977 58.555495770648122 118.65354776754975 51.142698092386127 123.14764546928927 347.80318343453109 125.27564117498696 19.040273033082485 194.44140717841219 173.95838595833629 51.610983107239008 6.6622941233217707 80.194764953572303 4.3201413918286553 34.408657213672996 122.43305959738791 14.375237436965106 110.3700682320632 105.60359879769385 60.306391092017293 17.965367721393704 25.366655984893441 72.656649908982217 24.878272989764813 139.72293097432703 1.708297312259673 109.01092047989368 455.3286682413891 44.517595184966922 25.70078351534903 36.102897788397968
leaf_count=2597 366 3156 508 794 9141 1619 75 3589 987 776 41 1583 65 361 1557 261 1132 923 299 140 235 1083 480 898 2 1003 1349 157 395 336
internal_value=0 -0.0158712 0.0268884 0.000625333 -0.0292999 -0.0089616 0.0424771 -0.0200506 0.00717128 -0.0429603 0.00413353 -0.0314249 0.0196584 0.0297783 -0.0260184 -0.00851128 -0.00139273 -0.00117627 0.0157824 -0.0117497 -0.00584123 -0.0215089 -0.00976305 0.00674617 -0.0470059 0.00540832 0.0491081 0.0311155 0.00940305 -0.00106712
internal_weight=2866.36 1802.71 1063.66 809.214 993.493 538.326 593.231 594.079 470.428 399.414 304.791 298.092 270.887 157.556 233.535 295.987 253.611 296.469 118.862 143.241 281.612 179.438 99.2432 190.866 26.5866 113.331 474.369 51.1799 87.1703 61.8037
internal_count=35908 30503 5405 9466 21037 7243 2089 11120 3316 9917 3089 6304 2223 1155 4154 4816 2891 2329 665 1759 4555 3148 1565 1406 482 1068 1424 198 966 731
is_linear=0
shrinkage=0.05


Tree=17
num_leaves=31
num_cat=0
split_feature=14 14 12 3 18 11 0 15 2 14 7 9 1 11 18 1 13 14 4 9 5 12 14 9 9 9 0 12 11 3
split_gain=446.951 161.956 153.525 67.4388 39.5774 35.3446 34.999 33.0262 29.5121 18.4818 16.4364 19.2597 15.2963 12.8829 12.8564 12.4264 11.6199 13.4523 10.8545 10.808 10.0819 9.85829 11.3721 9.81959 9.75158 17.7733 9.28607 8.76799 10.9891 8.69778
threshold=0.00076784938573830005 -1.0000000180025095e-35 0.73508771929824579 0.9513712227344514 1.0000000180025095e-35 0.91987179487179505 21.420377352716397 1.0000000180025095e-35 0.023080753547806605 1.0000000180025095e-35 1.0000000180025095e-35 0.015628815628815552 0.80646154284477245 0.47213622291021679 1.0000000180025095e-35 0.36686795949935919 0.083771929824561372 0.22124128571921292 0.54691729165464753 0.19615384615384618 1.0000000180025095e-35 0.54195804195804198 -0.0026734158396720998 0.22902097902097898 0.045983086680761058 0.047065337763012159 19.204505563261126 0.48684210526315796 0.44722222222222224 0.88695907592773449
decision_type=2 2 2 2 2 2 2 2 2 2 2 2 2 2 2 2 2 2 2 2 2 2 2 2 2 2 2 2 2 2
left_child=1 4 3 6 8 10 14 29 15 18 13 -12 21 -4 27 -1 -13 -18 -9 -8 -7 22 -10 -16 -5 -26 -27 -2 -29 -3
right_child=2 7 5 24 -6 20 19 9 12 -11 11 16 -14 -15 23 -17 17 -19 -20 -21 -22 -23 -24 -25 25 26 -28 28 -30 -31
leaf_value=-0.062447323532104297 -0.045783861534344737 -0.0088223981542788748 -0.010674397981046291 -0.028187365926446495 0.037401175767088221 0.036151403689063395 -0.021497297116718484 -0.048291207278472532 -0.046485724950318275 0.01403476936059242 -0.037902224594308739 0.03437098224475596 0.036245999334911759 0.0088438801425224488 -0.028265312294948594 -0.016524458799335392 -0.0052632410646922673 -0.059790505863096137 0.048650507948212997 0.01036923653019029 0.010853625359750395 0.0068878033494675492 0.017561052593269184 0.014012625434353511 0.055642953403294663 -0.014154868650403272 0.012899624694593654 -0.043260338387585813 -0.021572027750147316 0.024770047922422246
leaf_weight=15.834619103930889 386.2557109715417 33.038817436434329 128.38000422809273 23.98641390260309 62.26457794290036 69.745658110827208 60.199938469100744 2.1010845080018035 19.355086052790288 44.4887013155967 64.512849132996053 15.358435982838271 36.655206786468625 242.58493868168443 58.67913318623323 141.07891782466322 130.02934126160108 11.461199844721703 519.3830882711336 46.019957741722465 93.534551380202174 122.07298207655549 9.7144916970282775 16.990132596343756 14.816751044243572 62.342024118173867 62.495996532030404 128.70687054470181 115.70770879788324 43.420185538940132
leaf_count=428 10599 241 1632 558 450 303 953 13 316 377 1140 111 173 2098 1326 1774 1334 179 1594 608 645 1005 89 271 92 992 822 3369 2199 217
internal_value=0 0.0257349 -0.0156002 -0.0286875 0.00103341 0.00131674 -0.0345785 0.0413495 -0.00561036 0.0455146 -0.00436074 -0.0151129 0.00773044 0.0020652 -0.0386004 -0.0215564 -0.00552709 -0.0101038 0.0481587 -0.00767649 0.0218444 0.00058918 -0.025044 -0.0186484 0.000566481 0.00570594 -0.000576324 -0.0409531 -0.033143 0.0102633
internal_weight=2781.22 1049.41 1731.81 976.201 406.976 755.607 812.559 642.432 344.711 565.973 592.327 221.362 187.798 370.965 706.34 156.914 156.849 141.491 521.484 106.22 163.28 151.143 29.0696 75.6693 163.641 139.655 124.838 630.67 244.415 76.459
internal_count=35908 6677 29231 21789 4235 7442 19325 2442 3785 1984 6494 2764 1583 3730 17764 2202 1624 1513 1607 1561 948 1410 405 1597 2464 1906 1814 16167 5568 458
is_linear=0
shrinkage=0.05


Tree=18
num_leaves=31
num_cat=0
split_feature=12 11 1 14 14 11 18 17 3 14 14 9 14 0 11 2 17 13 17 1 0 9 14 4 5 9 1 18 3 2
split_gain=409.42 155.642 82.4864 80.648 56.9152 25.4203 24.9788 23.4906 21.7259 19.99 19.4366 17.2185 17.0643 22.3793 15.4261 13.0552 12.5107 14.7342 12.4277 12.3443 11.9598 11.6033 11.412 10.7025 10.5517 13.603 10.3587 10.1995 9.60932 9.5074
threshold=0.92582417582417598 0.44722222222222224 1.0000000180025095e-35 0.00011431127786635002 0.013269608066632252 0.84807692307692317 1.0000000180025095e-35 0.68126984126984136 0.94610661268234264 -0.0003929722588507999 -1.0000000180025095e-35 0.18634259259259259 1.0000000180025095e-35 8.2497341449034831 0.72474747474747481 0.0086372950819671515 0.98894067796610197 0.30094339622641514 0.87250793650793657 0.49341362714767462 17.067914860922748 0.073622402890695507 -0.025053995824418997 0.59791521206046316 1.0000000180025095e-35 0.12060606060606062 0.3912779688835144 -1.0000000180025095e-35 0.35437062382698065 0.018659191176470556
decision_type=2 2 2 2 2 2 2 2 2 2 2 2 2 2 2 2 2 2 2 2 2 2 2 2 2 2 2 2 2 2
left_child=1 8 11 10 6 7 9 29 16 24 20 27 13 -11 23 -9 17 -1 -13 -14 -2 -17 -18 -5 -4 -26 -8 -3 -16 -6
right_child=3 2 4 14 5 -7 26 15 -10 12 -12 18 19 -15 28 21 22 -19 -20 -21 -22 -23 -24 -25 25 -27 -28 -29 -30 -31
leaf_value=-0.033347755354828333 -9.7818663641933919e-05 -0.0012664301672443872 0.032959261542257937 0.015199004531138982 -0.019805392361680534 0.0047208787320510781 0.067913889199926233 0.036359868534652805 -0.0074906795236639474 -0.0094579438766432562 0.047685458339461723 0.0040490070803070278 -0.035781628120861796 0.037671040008133871 -0.0041319014243302284 -0.038821206103551796 -0.0042192018272167739 0.0078653788858627227 -0.047754488421034087 0.0089622317670521815 0.038379022597838201 -0.017397546873832395 -0.04771271738835111 -0.015069655941787006 -0.024224261945940732 0.0036109683569310845 0.02646392343212008 -0.056699321405020292 0.025223204586674593 0.0076565089849621572
leaf_weight=190.14388908678666 38.009706221520901 9.4362874524667841 15.829142887145279 45.973374262452126 44.04782037390396 208.33529562875628 19.893189311027527 7.4117498695850363 66.551093555986881 31.324907759204507 401.84914177469909 32.069549044594169 16.21513086464256 117.76121121551841 34.028998611494899 119.31329249870032 16.478100382257253 23.863592186826281 16.866884618997574 145.29594631423242 41.46545173227787 142.34740481059998 263.77885160408914 76.023384029977024 76.298078987747431 100.46967029687949 68.258365174755454 85.361947664059699 140.84196371026337 103.84477016795427
leaf_count=4115 204 226 103 289 729 2121 25 56 1090 148 1336 546 242 468 228 2954 297 507 374 1384 206 2540 8090 574 946 957 539 2372 787 1455
internal_value=0 -0.0123932 -0.00324339 0.030573 0.000996769 -0.00950814 0.0121106 -0.0166239 -0.034534 0.00775867 0.0431992 -0.0389278 0.0155916 0.0277383 0.0100085 -0.025396 -0.0381427 -0.0287137 -0.0143047 0.0042468 0.0201424 -0.0272961 -0.0451973 -0.0035917 -0.00486273 -0.00844408 0.0365309 -0.0513045 0.0194914 -0.000567153
internal_weight=2699.39 1921.2 1360.38 778.192 1216.65 625.3 591.346 416.965 560.816 503.194 481.324 143.735 310.597 149.086 296.868 269.072 494.264 214.007 48.9364 161.511 79.4752 261.661 280.257 121.997 192.597 176.768 88.1516 94.7982 174.871 147.893
internal_count=35908 32284 18185 3624 14667 9855 4812 7734 14099 4248 1746 3518 2242 616 1878 5550 13009 4622 920 1626 410 5494 8387 863 2006 1903 564 2598 1015 2184
is_linear=0
shrinkage=0.05


Tree=19
num_leaves=31
num_cat=0
split_feature=12 11 14 1 3 11 3 12 1 14 9 0 0 14 4 5 22 11 12 0 14 4 9 4 13 18 14 14 2 19
split_gain=366.411 145.305 76.0195 74.6752 52.5208 39.154 20.863 20.8476 20.8046 18.6993 16.4048 15.158 13.84 13.4149 12.149 14.2338 11.9596 11.8242 10.9142 10.8117 10.2929 9.91026 9.88421 9.82525 12.7545 8.77368 8.69917 8.54079 8.43499 8.36253
threshold=0.92582417582417598 0.44722222222222224 0.00011431127786635002 1.0000000180025095e-35 0.9513712227344514 0.89181286549707617 0.85763594508171093 0.6858552631578948 0.4143666028976441 -1.0000000180025095e-35 0.18634259259259259 23.668595594629817 16.135405525637228 0.091945151915308068 0.21796786508521063 1.0000000180025095e-35 0.17156862745098037 0.78759398496240618 0.39444444444444443 17.067914860922748 0.14280858773414232 0.70010178309172166 0.14907407407407408 0.49974937501201927 0.3087757313109426 -1.0000000180025095e-35 1.0000000180025095e-35 -0.0003929722588507999 0.0079393939393939007 -1.0000000180025095e-35
decision_type=2 2 2 2 2 2 2 2 2 2 2 2 2 2 2 2 2 2 2 2 2 2 2 2 2 2 2 2 2 2
left_child=1 6 9 10 5 7 20 11 26 19 25 28 -4 22 -10 -16 -12 -17 21 -2 -1 -7 29 -8 -25 -3 -6 -19 -5 -9
right_child=2 3 12 4 8 18 23 13 14 -11 16 -13 -14 -15 15 17 -18 27 -20 -21 -22 -23 -24 24 -26 -27 -28 -29 -30 -31
leaf_value=-0.031050506098685812 9.2775486039847376e-06 -0.0030255677480125562 -0.00074565661344963953 0.03159559138285465 0.065020952866270451 -0.043346108090101046 0.0057721610623398673 -0.001613872261027301 -0.024134022919014481 0.046723867226419399 -0.032875027042219084 0.0027247770250267696 0.021086010174969212 -0.019063678959912053 0.032415782629616412 -0.0064887301375718522 0.017230261927153122 -0.011308917963665009 0.014830027630349027 0.037073784969881375 -0.047539470599815357 0.0064810186245570214 0.017591469840227952 -0.034459385019142134 0.0076418075399439763 -0.055441739273036965 0.017764531378926737 0.023665509003402058 -0.029942522308576372 -0.052059222389382209
leaf_weight=202.86121365102008 37.914035039953887 9.2070368239656073 155.60736916353926 4.8583884621039024 28.602996698115021 15.474257186986504 35.933056182460859 127.10289526265115 20.193984845653176 381.3575627906248 29.732461798936129 46.623083029873669 134.27860826253891 99.578452683985233 83.458362474106252 83.499981846427545 18.494905658997595 20.186342207714915 218.05045912321657 40.5162118896842 202.2666018968448 24.421376024372876 74.804197077639401 74.612439021002501 22.948905292898417 80.571601492352784 16.472716286312789 101.86584424972534 219.01564329094253 7.8112502861767998
leaf_count=5132 204 226 1078 47 54 164 674 1447 287 1336 608 743 800 1657 690 1031 312 184 1589 206 6320 179 643 1559 414 2372 155 699 5011 87
internal_value=0 -0.0118474 0.0295074 -0.00296231 0.00107699 -0.00574446 -0.033732 -0.0129518 0.017192 0.0421338 -0.0376443 -0.0230682 0.00938756 -0.00404238 0.0124523 0.0151004 -0.0135987 0.00792284 0.0104237 0.019445 -0.039392 -0.0133104 0.00312293 -0.0163528 -0.0245283 -0.0502139 0.0486202 0.0177955 -0.0284503 -0.00493288
internal_weight=2618.32 1868.65 749.674 1330.03 1192.02 837.74 538.622 579.794 354.28 459.788 138.006 270.497 289.886 309.297 309.205 289.011 48.2274 205.552 257.946 78.4302 405.128 39.8956 209.718 133.494 97.5613 89.7786 45.0757 122.052 223.874 134.914
internal_count=35908 32284 3624 18185 14667 11567 14099 9635 3100 1746 3518 5801 1878 3834 2891 2604 920 1914 1932 410 11452 343 2177 2647 1973 2598 209 883 5058 1534
is_linear=0
shrinkage=0.05


Tree=20
num_leaves=31
num_cat=0
split_feature=14 12 12 3 1 11 0 9 9 0 11 7 9 13 3 2 1 5 18 2 22 1 11 18 14 13 11 9 3 9
split_gain=328.188 114.409 108.062 54.8547 39.2909 34.9502 33.7023 24.2205 20.815 28.6824 14.7129 14.9002 13.5411 15.74 15.1254 12.6644 11.6976 11.1138 11.0185 14.7049 10.6754 10.9052 10.6393 10.581 10.5246 14.3025 10.422 10.3376 10.1081 9.87088
threshold=0.0013715878129005002 0.97500000000000009 0.65833333333333355 0.93973138928413402 1.0000000180025095e-35 0.55277777777777792 20.670878212975655 0.26969696969696971 0.15959252971137519 28.4828169334302 0.46410256410256417 1.0000000180025095e-35 0.10762548262548262 0.31400560224089641 0.7106788456439973 0.0079393939393939007 0.61157733201980602 1.0000000180025095e-35 1.0000000180025095e-35 0.03701666542644886 0.24038461538461539 0.82568672299385082 0.37171052631578955 1.0000000180025095e-35 -1.0000000180025095e-35 0.18561584840654602 0.97500000000000009 0.040547945205479462 0.28319361805915838 0.018019480519480453
decision_type=2 2 2 2 2 2 2 2 2 2 2 2 2 2 2 2 2 2 2 2 2 2 2 2 2 2 2 2 2 2
left_child=1 4 3 7 -1 17 10 16 9 12 28 -12 14 -14 -7 -13 29 -6 19 -10 21 -19 -18 -5 25 -3 -8 -27 -4 -2
right_child=2 24 6 23 5 8 26 -9 18 -11 11 15 13 -15 -16 -17 22 20 -20 -21 -22 -23 -24 -25 -26 27 -28 -29 -30 -31
leaf_value=-0.060031588168222676 -0.049418060927354769 -0.033414104575387425 -0.037554208865804434 -0.0089701052115714469 0.024545218115466245 -0.013205714513747416 0.0093121895394649764 -0.002624345077224987 0.014875921809739635 0.036492431924381501 0.0069394936568395148 0.061825957417495539 -0.046006201454992623 0.012433533583619143 0.019762554111803127 -0.014569195966752227 -0.038184769771630531 -0.025627669925552522 0.052983928629812084 0.044839803771171978 0.033875697707950042 0.041192887461116184 -0.012986300281425393 0.019466109133980711 0.049409880061708822 -0.047115550120070626 0.034689492204334579 0.046530844049379877 -0.01120282292789037 -0.033184385661745967
leaf_weight=18.280521842651069 204.30778310168535 8.585085202008484 52.399803221225739 105.87177598383278 18.003918951377273 57.882495250552893 151.97022095136344 57.506179038900882 138.9874953343533 66.412879613228142 216.43797345925122 4.5970353037118903 29.760886438190937 17.678800120018423 83.898898438550532 180.68511583050713 83.782866224064492 95.190891614416614 40.148351182229817 58.692971144802868 8.5585878044366819 5.5823722314089528 87.521250843536109 46.137749847956002 299.99309784267098 2.4447960555553463 55.228705707937479 26.189247116446495 121.66175913391635 200.62973567191511
leaf_count=539 7070 51 1074 1851 152 551 1492 1111 997 386 1927 8 268 120 586 2278 2511 1572 144 245 93 34 1751 755 1090 15 223 102 1894 5018
internal_value=0 0.0227466 -0.0141616 -0.0272491 0.0102728 0.0124443 -0.0010033 -0.0337101 0.0184677 0.00848425 -0.00723255 -0.00194193 -0.00145996 -0.0243178 0.00626996 -0.0123252 -0.0367937 -0.0108212 0.0290973 0.0239785 -0.01686 -0.0215086 -0.0254897 -0.000235688 0.0462715 0.0202139 0.0162346 0.0370464 -0.0193335 -0.0414888
internal_weight=2545.03 976.291 1568.74 785.757 639.079 620.799 782.981 633.748 493.463 255.634 575.782 401.72 189.221 47.4397 141.781 185.282 576.242 127.336 237.829 197.68 109.332 100.773 171.304 152.01 337.212 37.2191 207.199 28.634 174.062 404.938
internal_count=35908 6945 28963 20067 5687 5148 8896 17461 3297 1911 7181 4213 1525 388 1137 2286 16350 1851 1386 1242 1699 1606 4262 2606 1258 168 1715 117 2968 12088
is_linear=0
shrinkage=0.05


Tree=21
num_leaves=31
num_cat=0
split_feature=12 11 14 1 14 17 3 9 11 18 14 14 0 9 0 11 17 1 13 9 1 0 2 0 19 17 14 3 14 11
split_gain=302.421 117.654 69.0508 62.4298 44.6097 20.7778 19.9656 18.7136 18.6312 16.4305 17.015 15.4096 16.4347 15.1638 13.5186 11.9501 10.9414 10.8783 10.7709 9.98506 9.61441 9.55055 9.14785 9.25652 8.9624 10.8561 8.94781 8.85396 8.59449 8.59025
threshold=0.92582417582417598 0.44722222222222224 1.0000000180025095e-35 1.0000000180025095e-35 0.013269608066632252 0.70839160839160853 0.92162543535232555 0.016807909604519704 0.60555555555555574 1.0000000180025095e-35 -0.0003929722588507999 0.00011431127786635002 8.2497341449034831 0.18634259259259259 56.282701032971474 0.72474747474747481 0.89591666666666681 0.50006896257400524 0.32690166975881257 0.18634259259259259 0.55540958046913158 8.52277556600772 0.017711227599873154 16.65411082035483 -1.0000000180025095e-35 0.15999999999999998 0.21804539449267257 0.35437062382698065 -0.012262743618339197 0.56696428571428581
decision_type=2 2 2 2 2 2 2 2 2 2 2 2 2 2 2 2 2 2 2 2 2 2 2 2 2 2 2 2 2 2
left_child=1 6 8 13 9 19 20 21 28 10 -5 12 -12 -3 18 -4 -15 -13 26 22 -1 -7 -6 -24 25 -25 29 -17 -2 -9
right_child=2 3 15 4 5 7 -8 14 -10 -11 11 17 -14 16 -16 27 -18 -19 -20 -21 -22 -23 23 24 -26 -27 -28 -29 -30 -31
leaf_value=-0.045104768919549502 -0.04998388371086189 -0.048503016327382797 -0.0032241533512558339 -0.0044823505387170436 -0.026859087169458031 -0.04502683678661857 -0.008143807149368255 -0.023403136846921076 0.04342783138050807 0.031633428229959307 -0.0071208025129703735 -0.035278742240510925 0.034792688622928579 0.0048955217714079643 0.047257049491731193 -0.0055643785917077618 -0.045730711215784661 0.0081240866796799625 -0.029674433212151158 0.019303544496248055 -0.029266355409951858 -0.0080881086873225878 0.015736228740981819 -0.031854343964797215 -0.036982135078414018 0.025368936516940756 -0.029244750646901154 0.023107812568422894 0.015398095573532803 0.0043101233344450211
leaf_weight=171.21434698998928 5.8757881280034807 82.652927760500461 119.00131206866354 184.61939632100984 32.33124583773315 67.621930229943246 78.615790769923478 33.976590623613447 390.59824018413201 81.177900990471244 28.648095805663615 15.178664043312891 115.50166828278452 30.846804497763515 9.1474042348563653 32.873109408654273 15.074685381725429 132.05405285209417 61.850318914745003 67.368298425339162 251.18976661865599 24.637376267462969 63.033390332944691 12.235226385295389 20.99159961938858 21.123032074421644 33.315543303266168 134.06864623911679 17.630576357245445 138.07671559974551
leaf_count=6064 45 2598 876 2006 568 2028 1464 807 1580 564 167 245 528 549 43 231 371 1302 1045 848 6571 419 808 160 375 288 594 801 91 1872
internal_value=0 -0.0109898 0.0278016 -0.00289083 0.000833249 -0.00878951 -0.0314863 -0.0160037 0.0408318 0.0109553 0.00735942 0.0148691 0.0264368 -0.0357834 -0.00940339 0.00883714 -0.0122375 0.00340802 -0.0115306 0.00345506 -0.0357894 -0.0354087 -0.003724 0.00277899 -0.0121709 0.00391866 -0.0059247 0.0174326 -0.00211387 -0.00123733
internal_weight=2472.53 1772.48 700.048 1271.46 1142.89 585.709 501.02 368.626 414.105 557.18 476.002 291.382 144.15 128.574 276.367 285.943 45.9215 147.233 267.219 217.083 422.404 92.2593 149.714 117.383 54.3499 33.3583 205.369 166.942 23.5064 172.053
internal_count=35908 32284 3624 18185 14667 9855 14099 6808 1716 4812 4248 2242 695 3518 4361 1908 920 1547 4318 3047 12635 2447 2199 1631 823 448 3273 1032 136 2679
is_linear=0
shrinkage=0.05


Tree=22
num_leaves=31
num_cat=0
split_feature=12 11 3 15 14 2 11 12 2 3 0 17 12 12 0 3 9 14 9 14 14 14 22 22 13 4 14 0 4 2
split_gain=273.528 101.358 85.1368 61.8737 35.8703 20.0206 18.2117 16.0028 16.6018 14.9641 20.2047 16.5579 14.2822 12.2373 11.9345 11.6871 11.3026 10.719 10.2222 9.95601 9.89083 17.5692 8.39907 11.2736 8.16728 7.76772 7.46431 7.42046 11.7472 11.9555
threshold=0.81534090909090917 0.97500000000000009 0.94945466518402111 1.0000000180025095e-35 0.0013715878129005002 0.023989507386341903 0.72474747474747481 0.47213622291021679 0.0092483045849918507 0.96149125695228588 19.058312174156146 0.75162337662337675 0.97500000000000009 0.97500000000000009 22.921611254835899 0.97043102979660045 0.045983086680761058 0.15088948061546448 0.064172958133150257 -1.0000000180025095e-35 0.00076784938573830005 -0.00018067806959139998 0.057189542483660101 0.10263157894736842 0.32305502846299816 0.98775574277535017 -0.012262743618339197 8.6576312912880464 0.60195179762781603 0.024340556473582502
decision_type=2 2 2 2 2 2 2 2 2 2 2 2 2 2 2 2 2 2 2 2 2 2 2 2 2 2 2 2 2 2
left_child=2 4 3 7 5 12 -5 18 -9 11 -11 16 26 14 15 -3 -4 -10 -1 -7 21 -8 -12 -24 -13 -18 -2 28 -6 -30
right_child=1 13 9 6 27 19 20 8 17 10 22 24 -14 -15 -16 -17 25 -19 -20 -21 -22 -23 23 -25 -26 -27 -28 -29 29 -31
leaf_value=-0.046952549423481177 -0.033623737301769749 -0.017718811382125488 -0.022748022711163513 -0.020645043436892475 0.0099313882905107571 0.017416357891878811 -0.0054274390930266203 0.016267571564324242 -0.019107238849950171 -0.013568016982451667 0.030959371090540228 -0.038224229029813581 0.032590751155637331 0.04893765835960516 0.039711178501186668 0.038997038588899503 0.047130751585941773 -0.040149880971597496 -0.028600534408768141 0.040406463646796176 -0.0060600687520125851 0.037194052275598147 -0.040755935825872731 0.014183923373961838 0.023122288960020259 -0.021499716361280535 0.0017832974597077169 0.0059829635300167492 -0.0080347990590726309 -0.044715440356883435
leaf_weight=190.67572646448389 20.817593100480735 22.609882526099682 6.6086409417912355 144.96458335733041 68.81706581544131 84.090694740414619 52.013451389037073 23.850128480233252 178.78509107045829 115.50164182763547 50.953467610292137 12.496401918586345 27.609843229874969 220.72846781136468 68.356543147936463 13.74293204769492 59.990156133659184 95.28663655789569 141.10865848045796 117.22554304078221 161.85781583609059 43.560785450972617 10.781826688908039 43.852455256506801 8.1102947015315277 3.7598838023841372 45.808120928704739 222.36695290729403 121.12660030182451 26.564712913706899
leaf_count=7217 184 137 136 3289 669 544 520 241 3849 1854 542 232 138 838 291 53 404 3141 4007 500 2188 182 193 483 94 51 362 1942 1225 402
internal_value=0 0.0189836 -0.0149715 -0.0218871 0.00865795 0.0220917 -0.00653378 -0.0316643 -0.0230724 0.00788236 0.000804878 0.0248339 0.00296423 0.0421725 0.0275361 0.00405837 0.0362828 -0.0265607 -0.0392718 0.0309617 0.00144231 0.0141308 0.016554 0.00271423 -0.0138956 0.0427363 -0.00953951 -0.000407057 -0.00699031 -0.0149224
internal_weight=2404.02 1059.86 1344.16 1032.1 734.427 295.552 402.397 629.706 297.922 312.055 221.089 90.9654 94.2356 325.438 104.709 36.3528 70.3587 274.072 331.784 201.316 257.432 95.5742 105.588 54.6343 20.6067 63.75 66.6257 438.875 216.508 147.691
internal_count=35908 7285 28623 24634 5966 1728 6179 18455 7231 3989 3072 917 684 1319 481 190 591 6990 11224 1044 2890 702 1218 676 326 455 546 4238 2296 1627
is_linear=0
shrinkage=0.05


Tree=23
num_leaves=31
num_cat=0
split_feature=11 12 3 12 1 14 11 14 0 0 7 11 0 3 0 9 1 4 14 13 4 0 9 9 3 12 1 4 4 9
split_gain=244.08 100.339 76.4053 59.6658 38.0179 20.516 18.9728 17.5408 14.6548 13.6166 13.0179 14.9874 12.3635 13.593 11.9553 10.6725 10.3775 10.2328 10.0319 9.93647 11.0487 9.82038 8.48382 8.46889 8.1182 8.03773 8.1257 8.01291 7.99392 7.7862
threshold=0.7947368421052633 0.97500000000000009 0.9513712227344514 0.62019230769230782 1.0000000180025095e-35 0.0020411700010299007 0.46410256410256417 -1.0000000180025095e-35 9.2590789497600667 21.759597062209 1.0000000180025095e-35 0.34166666666666673 12.045423895914686 0.96272543072700512 20.417190932200469 0.054299754299754262 0.65021979808807384 0.96723692858896537 0.12256134172280626 0.19695220503347952 0.82037593748197124 57.537998650353323 0.17028985507246372 0.14550264550264549 0.28319361805915838 0.54195804195804198 0.42696410417556768 0.54566316246188118 0.82080193248889011 0.050641025641025607
decision_type=2 2 2 2 2 2 2 2 2 2 2 2 2 2 2 2 2 2 2 2 2 2 2 2 2 2 2 2 2 2
left_child=2 4 3 9 15 7 24 25 -9 16 11 -4 13 17 19 -2 29 -13 22 20 -3 23 -8 -7 -5 26 -6 -21 -17 -1
right_child=1 14 10 6 5 21 18 8 -10 -11 -12 12 -14 -15 -16 28 -18 -19 -20 27 -22 -23 -24 -25 -26 -27 -28 -29 -30 -31
leaf_value=-0.046671135920341167 -0.06113788698094326 -0.033197703483134437 -0.018606043315574836 -0.035974248677745103 0.036000919277211364 -0.0052310767194621959 -0.0017226439238045542 -0.0061711044276999832 0.033472570123930158 -0.0045237833412606855 -0.015433592785372008 0.048625250142171034 0.00027830754518969595 0.011899301363307817 0.048212773882790126 -0.029356455585689403 -0.01956322050629123 -0.038612919536621465 -0.016748666684032475 -0.018418922783478776 0.027730047636244922 0.047249467306046962 0.020266394070839574 0.010582310077104111 -0.01384304521274024 0.011305935276734763 -0.032252941403540764 0.040643555261706869 0.020799133999373914 -0.031459586938833134
leaf_weight=200.73074409132823 19.172579060774297 12.077151892706754 31.798389647156 63.731033517979085 4.4734342657029655 213.40900430176407 164.70563604868948 26.109175785910338 184.10135139897466 37.32634339062497 48.285333129810169 57.759244098328054 67.690436435863376 74.825010910630226 209.39758754149079 26.28891895711422 81.317498344695196 2.7833593282848588 76.764008221682161 5.5530748460441819 16.246625707484782 10.878613397479056 58.565009605139494 138.82152486266568 125.41271351021715 103.08155823778361 21.380712328478694 71.506709995679557 10.263772075064479 170.40467361581977
leaf_count=7933 730 80 584 1511 30 2466 1871 151 888 824 682 323 1000 821 852 597 2281 36 1258 28 82 47 512 1400 2210 828 242 344 198 5099
internal_value=0 0.0175261 -0.0148989 -0.0215116 0.00764135 0.0108137 -0.00911773 0.01964 0.0285191 -0.0338362 0.00794174 0.0128139 0.0178257 0.0264972 0.0412127 -0.0317343 -0.0362281 0.0439711 -0.00126473 0.0269341 0.00133401 0.0025248 0.00408754 0.000999474 -0.0214763 0.00501744 -0.0193562 0.0361419 -0.0149611 -0.0398036
internal_weight=2334.86 1072.76 1262.1 978.958 757.981 702.255 489.178 339.146 210.211 489.779 283.142 234.856 203.058 135.368 314.781 55.7253 452.453 60.5426 300.035 105.384 28.3238 363.109 223.271 352.231 189.144 128.936 25.8541 77.0598 36.5527 371.135
internal_count=35908 8963 26945 23499 7577 6052 7362 2139 1039 16137 3446 2764 2180 1180 1386 1525 15313 359 3641 534 162 3913 2383 3866 3721 1100 272 372 795 13032
is_linear=0
shrinkage=0.05


Tree=24
num_leaves=31
num_cat=0
split_feature=12 11 14 1 3 11 1 17 17 1 14 18 13 2 0 18 22 12 9 2 1 1 1 9 8 9 3 7 4 11
split_gain=223.403 93.3906 60.2634 47.9982 39.4452 29.975 15.9465 14.67 21.7101 13.6378 13.6255 13.1262 12.0284 11.5309 11.5053 10.6366 10.4575 9.77197 9.74903 8.1336 7.74351 9.06001 7.58706 7.49531 11.0721 7.73092 7.11635 8.7421 7.10164 6.99809
threshold=0.92582417582417598 0.39444444444444443 0.00011431127786635002 1.0000000180025095e-35 0.9513712227344514 0.72474747474747481 0.73061662912368786 0.18834459459459463 0.83452380952380967 0.4143666028976441 -1.0000000180025095e-35 1.0000000180025095e-35 0.36788399570354463 0.0086372950819671515 30.025380079142511 1.0000000180025095e-35 0.36931818181818182 0.34166666666666673 0.035504201680672261 0.036783749993639557 0.80963313579559337 0.6775273084640504 0.6830442249774934 0.2124060150375939 1.0000000180025095e-35 0.049390243902439006 0.19966793060302732 1.0000000180025095e-35 0.73229459258045793 0.5590277777777779
decision_type=2 2 2 2 2 2 2 2 2 2 2 2 2 2 2 2 2 2 2 2 2 2 2 2 2 2 2 2 2 2
left_child=1 11 10 7 5 6 13 -3 -9 -6 18 12 -1 29 20 17 -10 -7 -2 -19 21 -4 -14 24 25 -15 27 -23 -17 -5
right_child=2 3 14 4 9 15 -8 8 16 -11 -12 -13 22 23 -16 28 -18 19 -20 -21 -22 26 -24 -25 -26 -27 -28 -29 -30 -31
leaf_value=-0.036739096740401961 -0.030451938081339065 -0.061466751184710233 -0.0078634684684123195 0.034561688731463543 0.042730546461754691 -0.021947106220210524 0.0067578129948793839 0.0055914867555695641 -0.049574745068338956 0.010843351515222095 0.043050040539203194 -0.0061525437603950463 -0.028013979645986328 -0.045664378113562554 0.030005499607223641 -0.0066111360567236909 0.044030808962220357 0.00021573655367739962 0.02487538127793161 0.025673240510502862 -0.014648642721611121 0.021989206374452806 0.037054128259806224 -0.0048745162244294669 -0.011444416052484752 -0.023307411949016928 0.020619854552164883 -0.055065835851446622 0.032464891907034298 -0.031977275928795602
leaf_weight=322.94750703847967 8.1906880531460029 32.474270477425307 61.151961135677993 13.668148258700969 37.263120612828061 43.578648330643773 62.647102273534983 39.296477374620736 45.737389600835741 294.89195545576513 296.68230526614934 46.925845264224336 7.3383428191300473 77.794222496915609 44.36502736620605 14.941461531445382 2.3792758062481871 285.07736981706694 61.213886950165033 34.317258520051837 50.59335526637733 6.3265782631933671 8.658483228646217 48.576958396006376 83.282214900013059 87.372769738780335 97.07996921800077 6.4850358814001083 44.585480914451182 4.4572285935282698
leaf_count=10828 63 1234 470 109 212 638 901 854 1484 3090 1336 1148 253 2761 247 210 29 3129 347 242 441 36 133 916 1607 2063 623 61 419 24
internal_value=0 -0.00974309 0.0252271 -0.00310281 8.9606e-05 -0.00591777 -0.0161339 -0.0330509 -0.021862 0.0145532 0.0383641 -0.0312175 -0.0346446 -0.0207072 0.00705249 0.00322217 -0.0440421 0 0.0179352 0.00303821 0.00232139 0.00742603 0.00701875 -0.023082 -0.0265881 -0.0340791 0.0159735 -0.0178157 0.0226269 0.0171212
internal_weight=2270.3 1638.21 632.089 1252.34 1132.45 800.299 377.799 119.887 87.4131 332.155 366.087 385.87 338.944 315.152 266.002 422.5 48.1167 362.973 69.4046 319.395 221.637 171.044 15.9968 297.026 248.449 165.167 109.892 12.8116 59.5269 18.1254
internal_count=35908 32284 3624 19922 16321 13019 8381 3601 2367 3302 1746 12362 11214 7480 1878 4638 1513 4009 410 3371 1631 1190 386 7347 6431 4824 720 97 629 133
is_linear=0
shrinkage=0.05


Tree=25
num_leaves=31
num_cat=0
split_feature=15 12 3 12 14 0 12 18 1 11 11 17 11 2 0 2 9 1 4 11 1 17 1 9 22 13 1 9 12 14
split_gain=205.019 100.321 63.2166 35.3163 31.2925 22.2969 23.5878 22.246 23.1644 18.9815 17.939 17.0137 13.9424 13.5388 11.0386 12.9113 10.7597 12.4903 10.5292 12.6247 9.34748 9.27939 8.86753 8.78751 8.7588 8.59101 8.13752 10.0345 7.85955 7.51536
threshold=1.0000000180025095e-35 0.97500000000000009 0.9513712227344514 0.59411764705882364 0.07492696551176202 23.440972561601892 0.60555555555555574 1.0000000180025095e-35 0.61549782752990734 0.97500000000000009 0.93095238095238109 0.70839160839160853 0.46410256410256417 0.0079393939393939007 17.067914860922748 0.036620918388360409 0.36931818181818182 0.73061662912368786 0.87854798103365783 0.36038961038961043 0.69875168800354015 0.75606060606060621 0.80225977301597606 0.12060606060606062 0.29285714285714287 0.37617924528301888 0.55899381637573253 0.028991596638655404 0.8973684210526317 -0.093031824375581593
decision_type=2 2 2 2 2 2 2 2 2 2 2 2 2 2 2 2 2 2 2 2 2 2 2 2 2 2 2 2 2 2
left_child=2 4 3 24 5 6 25 8 28 23 14 22 -5 -14 15 -3 17 20 19 -10 -8 -9 -6 -7 26 -2 27 -1 -4 -19
right_child=1 10 7 12 11 9 16 21 18 -11 -12 -13 13 -15 -16 -17 -18 29 -20 -21 -22 -23 -24 -25 -26 -27 -28 -29 -30 -31
leaf_value=-0.051954135326993237 -0.022653790714894539 0.017541307226321617 -0.038383529718820156 -0.023525864284045916 0.0090790466280487158 -0.0025711367501530333 0.0036242352754112745 0.044129647717733762 -0.015651340960470692 0.042429637103947031 0.045696264439924639 -0.019636391238861843 0.050724522931289984 -0.0076972281872895168 0.035080209644363806 -0.041309836945554623 0.031597730938659904 -0.043958701694104707 -0.015159065883484146 0.035356061395584976 -0.028836519692158565 -0.0090666298488367488 -0.04235320464664076 0.020537753519994515 0.016515319206535144 0.010282714349256563 -0.025441920670497366 -0.030237366683595102 0.028008606676046429 0.024372212137651256
leaf_weight=118.56679060310125 89.906337513122708 31.274329178035259 40.08547563594766 186.57982241152786 111.96994764381088 58.959177044220269 102.20038632769138 46.125477985478938 15.270859665703027 80.256064440123737 220.13630403042771 157.12379999738187 9.3763503134250623 219.21727557107806 48.800360899418592 12.100773673504589 52.48511017113924 3.2849646192044011 24.107873741537333 48.473841086495668 27.214045799337327 9.3743943125009519 8.0410551438108069 130.90869803726673 7.4787371130660167 24.439262986183167 130.01201806130121 110.6529009253718 4.1900486606173208 81.814962552860379
leaf_count=5662 1571 167 955 4227 1537 823 974 395 285 365 1006 2695 29 2861 240 123 383 31 279 354 293 188 114 1327 151 353 4397 3445 27 651
internal_value=0 0.0134551 -0.0172178 -0.0234683 0.00518828 0.0111734 0.00335474 0.00878904 -0.00238651 0.0221397 0.0379241 -0.00885268 -0.013412 -0.00506864 0.0190173 0.000449421 0.0114943 0.00642857 0.0124243 0.0230064 -0.00333224 0.0350544 0.00527011 0.0133597 -0.0347726 -0.0155428 -0.0358971 -0.0416692 -0.0315102 0.0211966
internal_weight=2210.43 1240.92 969.512 781.884 928.604 651.469 381.345 187.628 132.128 270.124 312.312 277.135 415.173 228.594 92.1755 43.3751 266.999 214.514 87.8526 63.7447 129.414 55.4999 120.011 189.868 366.71 114.346 359.232 229.22 44.2755 85.0999
internal_count=35908 12653 23255 20772 11117 6771 4256 2483 1900 2515 1536 4346 7117 2890 530 290 2332 1949 918 639 1267 583 1651 2150 13655 1924 13504 9107 982 682
is_linear=0
shrinkage=0.05


Tree=26
num_leaves=31
num_cat=0
split_feature=14 14 12 3 18 0 0 0 1 5 7 14 14 12 19 4 3 1 18 17 9 18 14 11 5 1 11 14 2 2
split_gain=187.127 81.026 65.962 35.3146 24.0991 22.0487 21.9093 18.4114 18.2386 10.6615 10.2341 10.2018 9.90718 9.81427 12.3544 9.70707 14.9835 9.07974 8.90417 8.2984 9.81338 8.25895 17.0166 8.1515 8.10523 7.92432 7.0073 6.57303 8.03818 8.23045
threshold=0.00076784938573830005 -1.0000000180025095e-35 0.65833333333333355 0.93973138928413402 1.0000000180025095e-35 9.6135145489338765 9.3738595009369039 21.420377352716397 0.80646154284477245 1.0000000180025095e-35 1.0000000180025095e-35 0.0042286840412053004 0.037449265713640607 0.97500000000000009 1.0000000180025095e-35 0.51423073591717749 0.83102521300315868 0.36686795949935919 1.0000000180025095e-35 0.9683750000000001 0.22902097902097898 -1.0000000180025095e-35 0.12413104208310446 0.92582417582417598 1.0000000180025095e-35 0.46983683109283453 0.45227272727272733 0.13697067216377357 0.023288847316726303 0.019478490948779553
decision_type=2 2 2 2 2 2 2 2 2 2 2 2 2 2 2 2 2 2 2 2 2 2 2 2 2 2 2 2 2 2
left_child=1 4 3 7 8 11 -3 19 9 -1 23 -4 -12 14 -8 16 -13 -11 24 20 25 -9 -23 -7 -5 -2 -19 28 29 -17
right_child=2 6 5 18 -6 10 13 21 -10 17 12 15 -14 -15 -16 27 -18 26 -20 -21 -22 22 -24 -25 -26 -27 -28 -29 -30 -31
leaf_value=0.0266067470221956 -0.048474957453771783 0.0094250325002781573 0.02327047983259331 0.0032498449643178547 0.032562474951961677 0.0071025030081750809 0.034220646126491276 0.038356428734842095 0.026590832865554487 -0.056086256805476069 0.009201913315577499 -0.025411949700019299 -0.01831903483614011 0.046351578415050221 -0.0073982862417807625 -0.01156407022847453 0.021645200883793732 -0.029651882589679948 0.018707762180391774 -0.037802262623899602 0.0064513592736825083 0.0054386954334735386 -0.050032025563712529 0.026685671498209759 -0.025905268052216615 -0.021225359340588515 -0.0061499878269079232 -0.028421384890362528 -0.028803514325190821 0.016591667183880054
leaf_weight=17.55578326433897 36.111515113618225 79.637041444890201 21.360234273131937 58.288822995498776 49.912927746772766 144.48263798840344 151.25509066972882 8.585030756890772 38.848628293722868 10.608054015785454 72.484072776511312 25.470275317085907 57.831749761477113 196.35958555107936 19.617341047152877 105.66038240445778 45.781164267100394 38.070650715846568 42.35436291527003 273.03606489975937 23.191979938652366 44.981895240023732 18.779782670550048 85.019466358236969 38.825856383889914 114.85374123358633 178.90192898083478 76.097539622336626 45.729448742233217 33.248207091353834
leaf_count=157 1379 539 194 1111 450 1592 793 136 269 422 693 476 800 936 174 1426 476 892 756 10893 483 809 379 549 802 3451 2045 1701 760 365
internal_value=0 0.0195274 -0.0111172 -0.0225088 0.000866541 -0.000566946 0.0334264 -0.0284955 -0.00478147 -0.00986143 0.00812662 -0.00943178 -0.00301979 0.038578 0.0293982 -0.0116144 0.00463557 -0.0128006 -0.000127835 -0.0322765 -0.0234186 -0.00493401 -0.0113422 0.0144631 -0.00850046 -0.0280526 -0.0104138 -0.0160749 -0.0108338 -0.00471875
internal_weight=2152.94 780.767 1372.17 659.009 333.898 713.165 446.869 519.54 283.985 245.136 359.818 353.347 130.316 367.232 170.872 331.987 71.2514 227.581 139.469 447.193 174.157 72.3467 63.7617 229.502 97.1147 150.965 216.973 260.736 184.638 138.909
internal_count=35908 6677 29231 20199 4235 9032 2442 17530 3785 3516 3634 5398 1493 1903 967 5204 952 3359 2669 16206 5313 1324 1188 2141 1913 4830 2937 4252 2551 1791
is_linear=0
shrinkage=0.05


Tree=27
num_leaves=31
num_cat=0
split_feature=12 11 14 3 12 9 17 13 0 0 17 3 14 2 22 11 14 11 0 13 1 1 11 3 9 9 13 0 14 4
split_gain=170.81 74.203 48.0599 38.2652 36.4543 16.6261 12.3535 12.9928 11.2242 13.8115 11.0404 10.9776 10.243 10.7859 9.34818 9.25013 8.5207 8.36024 7.98437 7.72349 9.71442 7.27408 7.0134 7.04756 6.99721 7.30253 9.03193 6.66204 6.64687 10.5225
threshold=0.92582417582417598 0.3550420168067227 0.00011431127786635002 0.9513712227344514 0.46862745098039221 0.14907407407407408 0.98894067796610197 0.30094339622641514 20.495596213498718 20.467171121597698 0.33666666666666673 0.20957438647747043 0.10044634733347016 0.026219167481264204 0.074175824175824162 0.72474747474747481 -0.0018345102667808499 0.84807692307692317 7.6067384436864049 0.087434304825609169 0.48082247376441956 0.75458469986915599 0.72474747474747481 0.93572121858596813 0.044949494949494906 0.049390243902439006 0.27518593644354294 19.058312174156146 0.028032769124683055 0.62380119841854398
decision_type=2 2 2 2 2 2 2 2 2 2 2 2 2 2 2 2 2 2 2 2 2 2 2 2 2 2 2 2 2 2
left_child=1 6 8 4 17 15 7 10 9 16 -1 18 13 -7 28 -6 -2 -3 19 -4 -21 -18 23 -13 -16 -26 -27 -28 -5 -30
right_child=2 3 11 14 5 12 -8 -9 -10 -11 -12 22 -14 -15 24 -17 21 -19 -20 20 -22 -23 -24 -25 25 26 27 -29 29 -31
leaf_value=-0.031120737981416971 0.0058154340432495641 -0.03049171552999462 0.0023431737503394035 0.025251573857310257 -0.01550635166919846 0.00098186734116576923 -0.038907685126897198 0.012914425886028955 0.044201873800165242 -0.062552930467154141 0.0055972969013148629 0.011304833048859661 -0.010772594281980154 0.027342387545768149 -0.048364197134764371 4.6343363163524359e-05 0.01582504229540431 -0.011154113489426397 0.0098461263105715496 0.033887610171269608 -0.070609119756309499 0.044613679885825853 0.018749140073645722 -0.018061598514508208 0.04277274376936472 -0.014231836194717915 -0.0060597862897601336 0.02381865058732633 0.020307378282846178 -0.020278350359334726
leaf_weight=125.71604163153097 34.739275194704533 171.96566974581219 8.631913438439371 126.27620050916448 190.23778598150238 69.078092727810144 168.0789260151796 25.373550849501044 183.06625259853899 3.4325087666511527 23.821208325214684 52.722585416398942 45.377912697149441 88.979390430729836 5.6352273607626548 189.88980355951935 35.821605394594371 86.448996605817229 15.770509034395216 1.9521433617919672 13.119411554187534 66.353359615430236 124.95326410792768 31.964612751733512 10.272362532094119 56.14181655831635 30.055374069605023 45.894235550425947 42.959681274136528 24.045649369247258
leaf_count=3562 205 5827 69 1049 4153 772 7448 577 941 20 575 417 753 821 180 2245 231 1567 107 7 146 349 849 283 64 819 353 457 588 474
internal_value=0 -0.00873693 0.0232656 -0.00278741 -0.00851332 -0.00156887 -0.0291795 -0.0196348 0.0359549 0.0249256 -0.02524 0.00669383 0.00992709 0.0159317 0.011308 -0.00774427 0.0275927 -0.0241098 -0.0171524 -0.034989 -0.0554967 0.0348203 0.0112678 8.08902e-05 0.00179047 0.00413414 0.000792955 0.0120048 0.0185234 0.00558517
internal_weight=2098.78 1526.25 572.527 1183.26 841.978 583.563 342.99 174.911 323.413 140.347 149.537 249.114 203.435 158.057 341.281 380.128 136.914 258.415 39.474 23.7035 15.0716 102.175 209.64 84.6872 147.999 142.364 132.091 75.9496 193.282 67.0053
internal_count=35908 32284 3624 20122 16138 8744 12162 4714 1746 805 4137 1878 2346 1593 3984 6398 785 7394 329 222 153 580 1549 700 1873 1693 1629 810 2111 1062
is_linear=0
shrinkage=0.05


Tree=28
num_leaves=31
num_cat=0
split_feature=12 11 14 3 1 11 0 17 1 13 17 22 2 18 2 1 0 3 22 0 0 1 9 1 1 22 3 17 12 4
